,0,1,2,3,4,5,6,7,8,9,10,11,12,13,14,15,16,17,18,19,20,21,22,23,24,25,26,27,28,29,30,31,32,33,34,35,36,37,38,39,40,41,42,43,44,45,46,47,48,49,50,51,52,53,54,55,56,57,58,59,60,61,62,63,64,65,66,67,68,69,70,71,72,73,74,75,76,77,78,79,80,81,82,83,84,85,86,87,88,89,90,91,92,93,94,95,96,97,98,99,100,101,102,103,104,105,106,107,108,109,110,111,112,113,114,115,116,117,118,119,120,121,122,123,124,125,126,127,128,129,130,131,132,133,134,135,136,137,138,139,140,141,142,143,144,145,146,147,148,149,150,151,152,153,154,155,156,157,158,159,160,161,162,163,164,165,166,167,168,169,170,171,172,173,174,175,176,177,178,179,180,181,182,183,184,185,186,187,188,189,190,191,192,193,194,195,196,197,198,199,200,201,202,203,204,205,206,207,208,209,210,211,212,213,214,215,216,217,218,219,220,221,222,223,224,225,226,227,228,229,230,231,232,233,234,235,236,237,238,239,240,241,242,243,244,245,246,247,248,249,250,251,252,253,254,255,256,257,258,259,260,261,262,263,264,265,266,267,268,269,270,271,272,273,274,275,276,277,278,279,280,281,282,283,284,285,286,287,288,289,290,291,292,293,294,295,296,297,298,299
turtle,0.053222656,0.23730469,-0.21582031,0.20605469,-0.083496094,-0.22753906,-0.068359375,-0.053466797,0.104003906,0.045654297,0.119628906,-0.3125,-0.052978516,-0.45117188,-0.31054688,-0.14550781,-0.14941406,-0.1328125,-0.44921875,-0.0023345947,0.13183594,-0.063964844,0.11767578,0.30859375,-0.14550781,-0.21191406,-0.095703125,0.24804688,0.45507812,-0.032714844,-0.08203125,0.17578125,-0.14648438,-0.028198242,0.08544922,-0.18457031,0.22265625,-0.052978516,0.022827148,0.14453125,-0.07763672,0.1484375,0.23632812,0.26171875,-0.068847656,-0.3515625,-0.008239746,0.27929688,0.61328125,0.18945312,-0.06347656,0.21386719,0.25,-0.103515625,0.044921875,0.119628906,0.10839844,0.06640625,0.49414062,0.014160156,-0.031982422,-0.095703125,-0.015991211,-0.12890625,0.10058594,-0.21386719,0.0027008057,-0.13476562,-0.04248047,-0.013122559,0.12597656,0.08203125,-0.015991211,-0.13671875,-0.12792969,-0.032470703,-0.05078125,-0.26367188,-0.19433594,-0.07861328,-0.10644531,-0.06201172,0.20898438,-0.30078125,0.023803711,0.31445312,-0.17382812,-0.52734375,0.109375,-0.25976562,0.2890625,0.17285156,-0.15039062,0.037353516,-0.043701172,0.084472656,0.14941406,0.16015625,0.038330078,-0.111328125,-0.057373047,-0.042236328,0.140625,-0.057617188,0.044921875,-0.04248047,0.19628906,-0.24121094,0.03100586,0.018798828,-0.3125,-0.15722656,0.19433594,0.31054688,-0.059570312,-0.08300781,-0.059326172,-0.44140625,-0.22558594,-0.050048828,-0.18847656,0.09082031,-0.061523438,0.07373047,-0.39257812,0.13476562,0.29296875,-0.0234375,-0.056396484,0.067871094,-0.23242188,-0.04638672,-0.13769531,0.15039062,-0.037597656,0.061523438,0.015563965,-0.12451172,0.083496094,0.28125,0.16992188,0.033935547,-0.046875,0.30273438,0.0546875,0.09667969,-0.11669922,0.22753906,-0.20703125,-0.072265625,0.31054688,-0.1875,-0.47851562,0.4453125,0.25,-0.19921875,0.06591797,0.043945312,0.026000977,0.01171875,0.09863281,-0.09765625,0.21484375,-0.08105469,-0.15429688,-0.22753906,0.1796875,0.029907227,-0.06689453,-0.115722656,0.16210938,0.2421875,0.15527344,0.18261719,-0.30859375,-0.048095703,0.115722656,0.27148438,0.05053711,-0.015319824,-0.22851562,-0.40625,-0.092285156,0.1484375,-0.18945312,0.068359375,0.015625,-0.026977539,0.099609375,0.27734375,-0.21289062,-0.17480469,-0.328125,-0.08496094,0.028808594,0.18554688,-0.046142578,-0.080078125,-0.16796875,0.09326172,-0.0035552979,-0.34179688,-0.06591797,-0.11816406,-0.13574219,-0.14355469,0.076171875,-0.063964844,-0.011291504,-0.013671875,-0.23632812,0.072265625,-0.10205078,-0.38867188,-0.032958984,0.25585938,0.33398438,-0.2890625,0.0011825562,0.01965332,0.107421875,0.017089844,-0.06201172,-0.014343262,-0.1875,-0.36132812,0.068847656,0.14160156,0.14746094,0.008239746,0.45117188,-0.32421875,-0.06298828,-0.42578125,-0.03564453,-0.53515625,0.15332031,-0.18652344,0.33203125,0.15917969,0.27539062,-0.22070312,0.0050964355,-0.23632812,0.05102539,0.015136719,-0.018432617,0.15722656,0.22460938,-0.28320312,-0.390625,-0.09082031,0.032226562,-0.1328125,-0.034423828,-0.091308594,-0.060058594,-0.22070312,-0.08544922,0.02331543,-0.09472656,0.028198242,0.028686523,0.11669922,0.16699219,0.20117188,-0.26953125,-0.032470703,0.0024108887,-0.022338867,-0.16308594,0.1484375,-0.15136719,0.12597656,-0.035888672,-0.119628906,-0.19433594,-0.05493164,-0.08300781,0.076660156,0.20214844,0.16113281,0.29296875,0.11328125,0.22851562,-0.27734375,-0.06225586,0.1171875,0.12792969,0.421875,-0.0703125,-0.01953125,-0.16210938,-0.14257812,0.17089844,0.09033203,0.10449219,0.24804688,-0.02331543,0.037109375
alligator,-0.09814453,-0.037597656,-0.33789062,0.07470703,-0.21582031,-0.04272461,-0.049804688,0.12597656,-0.060791016,0.15820312,0.09423828,-0.45898438,-0.044433594,-0.40820312,-0.061767578,-0.104003906,0.060058594,0.25976562,-0.032714844,-0.04296875,-0.03125,-0.16796875,0.22363281,0.26757812,-0.28515625,-0.024291992,-0.033935547,0.27148438,0.5625,0.071777344,0.0032806396,0.421875,-0.09667969,-0.09863281,-0.11816406,-0.08154297,0.05517578,-0.041992188,-0.021606445,0.484375,0.095703125,0.07519531,0.13574219,0.3828125,-0.36328125,-0.546875,0.234375,0.1484375,0.32617188,0.076660156,-0.13964844,0.12695312,0.30859375,-0.375,0.47851562,0.00032806396,0.16894531,-0.20898438,0.515625,0.29882812,0.3203125,0.11279297,-0.03857422,-0.107421875,-0.017456055,-0.203125,-0.36523438,-0.18554688,-0.10253906,-0.011779785,0.099609375,0.111328125,-0.099121094,-0.110839844,-0.15234375,0.27539062,-0.030029297,-0.7265625,-0.21875,-0.12890625,-0.11376953,-0.24511719,0.10205078,-0.1484375,-0.4453125,0.03930664,-0.17773438,-0.16503906,-0.015991211,-0.16015625,-0.18554688,0.32421875,0.04663086,0.26757812,0.060546875,-0.31835938,-0.021972656,0.25390625,-0.034179688,-0.21582031,-0.16308594,-0.05810547,0.12597656,-0.28515625,0.234375,-0.16699219,0.26757812,-0.24804688,-0.23144531,-0.25,-0.37695312,-0.0018615723,0.13964844,0.5546875,-0.41992188,-0.15136719,-0.0020141602,-0.011962891,-0.09423828,-0.02734375,-0.1875,-0.10449219,-0.13769531,-0.028076172,0.043701172,-0.0051879883,0.25585938,0.16992188,0.061279297,-0.0625,-0.18945312,0.0013198853,-0.58984375,0.29492188,-0.31640625,0.14648438,0.19140625,-0.14941406,0.33984375,0.26953125,-0.25976562,-0.23828125,-0.1953125,0.36328125,-0.18945312,0.008422852,-0.18847656,-0.043945312,0.0625,-0.06201172,0.40429688,-0.010253906,-0.44726562,0.37890625,0.107421875,-0.04736328,-0.2734375,0.171875,0.022094727,0.12988281,0.118652344,0.1640625,0.24316406,-0.23242188,0.12109375,-0.024169922,0.0037384033,-0.13183594,0.328125,0.24609375,-0.17382812,0.3515625,-0.16699219,0.26367188,-0.46484375,-0.16894531,0.31445312,0.32617188,-0.34375,-0.05493164,-0.23535156,-0.12207031,0.15820312,0.038085938,0.0138549805,-0.20507812,0.050048828,0.26367188,0.15136719,0.10595703,0.109375,-0.18261719,-0.39648438,-0.12011719,-0.06347656,0.14355469,-0.22753906,-0.28515625,-0.036132812,0.057373047,0.17773438,-0.18359375,-0.033447266,0.22558594,-0.029418945,-0.41796875,0.41210938,-0.15625,0.33007812,0.20605469,-0.5703125,-0.09814453,0.076171875,-0.27929688,-0.234375,0.39453125,0.140625,-0.07373047,0.26171875,0.076171875,0.10595703,0.21484375,-0.17773438,-0.26757812,0.20019531,-0.010192871,0.30859375,0.3984375,0.06982422,-0.067871094,0.07861328,-0.2109375,-0.31054688,-0.1640625,0.048095703,-0.22460938,0.41210938,-0.050048828,-0.0625,0.049072266,0.42773438,-0.23144531,-0.14746094,-0.4609375,-0.11767578,0.08251953,-0.07324219,-0.060791016,0.265625,-0.28710938,-0.31445312,-0.020507812,-0.20019531,-0.17480469,0.13867188,0.047607422,0.0025482178,-0.31054688,-0.28320312,0.20117188,-0.14160156,0.15917969,0.14550781,0.048828125,0.296875,0.37890625,-0.37890625,-0.09863281,0.01953125,0.011962891,-0.22753906,0.123535156,-0.1171875,0.36328125,0.29492188,0.27734375,-0.02355957,0.328125,0.080078125,-0.01586914,0.1953125,0.07763672,0.265625,0.15039062,-0.24707031,-0.040527344,-0.34570312,0.23339844,0.22363281,0.12890625,-0.19042969,0.0107421875,-0.051513672,-0.00579834,0.02709961,0.07763672,-0.053466797,-0.0032348633,-0.27539062,0.025512695
lizard,0.109375,0.06201172,-0.24804688,0.22949219,0.07519531,-0.13574219,-0.008666992,-0.023071289,-0.025634766,0.34570312,0.296875,-0.2734375,-0.08105469,-0.31054688,-0.3125,-0.096191406,-0.100097656,0.32226562,-0.15234375,-0.29882812,-0.10107422,-0.23046875,0.063964844,0.27929688,-0.30078125,-0.060546875,-0.14160156,0.14941406,0.37109375,-0.25195312,-0.08300781,0.18359375,-0.19628906,0.036376953,-0.15820312,-0.12695312,0.080078125,0.17578125,-0.016235352,0.19726562,0.049804688,-0.038085938,0.25976562,0.33007812,-0.009277344,-0.22363281,0.033447266,-0.07324219,0.2421875,0.01574707,-0.26171875,0.075683594,0.39453125,-0.24902344,0.21289062,0.10449219,-0.12011719,-0.096191406,0.31640625,0.19335938,-0.05102539,-0.04711914,-0.0390625,-0.095703125,-0.27148438,-0.2890625,0.06591797,-0.2578125,-0.11767578,-0.12695312,0.104003906,-0.11230469,-0.16894531,0.03100586,-0.123535156,-0.07763672,-0.1484375,-0.23046875,-0.14453125,-0.08251953,0.09277344,0.103515625,0.080566406,-0.33984375,-0.28125,0.18652344,-0.33203125,0.03857422,0.07714844,0.01171875,0.028808594,0.033203125,-0.119628906,-0.09814453,-0.06689453,-0.07519531,0.100097656,-0.067871094,0.020874023,-0.096191406,0.03955078,-0.20898438,0.25195312,-0.2890625,0.3203125,-0.07324219,0.038330078,-0.037841797,-0.06542969,-0.18457031,-0.32226562,-0.29492188,0.26367188,0.21875,-0.14648438,-0.049072266,-0.103027344,-0.18261719,-0.12451172,0.0134887695,-0.04711914,-0.26953125,-0.022094727,-0.041259766,-0.26367188,0.23632812,0.13085938,0.021728516,-0.0001001358,-0.05834961,-0.18359375,-0.21484375,-0.15136719,0.20996094,-0.20410156,0.18554688,-0.00019454956,0.08105469,0.14550781,0.24804688,0.125,-0.20214844,-0.14941406,0.1796875,0.22167969,0.22851562,-0.16699219,0.29492188,-0.010070801,0.103515625,0.30664062,-0.08496094,-0.5703125,0.28320312,-0.042236328,-0.12207031,-0.14746094,-0.06933594,-0.05810547,-0.033691406,0.25976562,-0.10839844,0.19726562,-0.103027344,-0.38671875,-0.12988281,0.31054688,-0.024169922,0.08691406,0.29492188,0.1328125,0.16015625,0.20410156,0.31054688,-0.29882812,0.0134887695,0.22558594,-0.0390625,-0.18554688,-0.0107421875,-0.38476562,-0.30664062,-0.16015625,-0.25585938,-0.09716797,0.037109375,0.040527344,0.03930664,0.078125,0.037109375,0.022949219,-0.15332031,-0.265625,-0.10253906,0.08544922,0.28710938,0.11425781,-0.13574219,-0.22851562,-0.16015625,0.21679688,-0.29296875,-0.043945312,0.12695312,0.05517578,0.033691406,0.33203125,0.018554688,-0.17871094,-0.032226562,-0.2890625,0.076171875,-0.033447266,-0.56640625,-0.00982666,0.24804688,0.06347656,-0.328125,-0.05493164,0.21875,0.15625,-0.15527344,-0.03564453,-0.15625,0.03881836,0.08642578,-0.051757812,0.20117188,0.023925781,0.12451172,0.18945312,-0.15136719,0.04638672,-0.17871094,0.23632812,0.072753906,0.16796875,-0.03515625,0.21972656,0.034423828,0.28710938,-0.31640625,-0.13964844,0.13769531,0.37304688,-0.09326172,0.028564453,0.23242188,0.09716797,-0.06591797,-0.2734375,-0.14355469,-0.103515625,0.08251953,-0.009399414,-0.24316406,-0.16113281,0.05029297,0.029663086,-0.11816406,0.16015625,0.057861328,-0.030761719,0.076171875,0.080566406,0.061767578,-0.15625,0.087890625,0.0034942627,-0.24121094,-0.33203125,0.20703125,-0.03466797,0.13769531,0.19238281,0.04663086,-0.13085938,0.099121094,0.07714844,0.122558594,0.19140625,0.01361084,0.014953613,0.21777344,0.008117676,-0.43945312,0.06591797,-0.12060547,0.072753906,0.107910156,-0.24511719,0.15136719,-0.100097656,0.040771484,0.12158203,-0.022216797,-0.08935547,0.40039062,0.083496094,0.18164062
tortoise,0.11376953,0.5546875,-0.22460938,0.16503906,0.21875,-0.25390625,0.36132812,0.12011719,-0.11816406,0.020141602,0.012756348,-0.072265625,-0.359375,-0.21679688,-0.1640625,-0.09423828,-0.13183594,-0.19433594,-0.50390625,0.079589844,-0.14355469,0.052734375,0.19042969,0.06591797,-0.13183594,-0.22558594,-0.30078125,0.24316406,0.43945312,-0.20410156,0.0234375,-0.114746094,-0.3515625,-0.15527344,-0.07373047,-0.18066406,0.16503906,0.049316406,0.0859375,0.38671875,-0.056152344,0.044921875,0.15332031,0.43164062,0.018554688,0.09716797,0.04296875,0.13671875,0.29101562,0.0859375,-0.13183594,0.30273438,-0.022705078,-0.10888672,-0.10595703,0.21972656,0.13183594,-0.33203125,0.24804688,0.34179688,-0.05419922,-0.08886719,-0.10644531,-0.23339844,-0.033447266,-0.20703125,0.13378906,-0.03149414,-0.1796875,-0.0625,-0.014953613,-0.12988281,-0.19140625,0.025268555,-0.19433594,0.26953125,-0.13476562,-0.203125,-0.28125,-0.28320312,0.059814453,-0.005065918,0.18261719,-0.2265625,-0.15722656,0.34179688,-0.087890625,-0.09863281,0.051757812,-0.08984375,0.12792969,0.13378906,-0.15429688,0.030151367,-0.021484375,-0.09326172,0.13574219,-0.088378906,-0.10986328,-0.19824219,-0.06738281,-0.265625,0.32617188,0.14648438,-0.068847656,0.006286621,0.21972656,0.047607422,0.18457031,0.11669922,0.053222656,-0.09423828,0.076171875,0.4609375,-0.16015625,-0.10888672,0.039794922,-0.35351562,-0.075683594,0.115234375,-0.21875,0.047851562,-0.24707031,-0.0037841797,-0.56640625,-0.034423828,0.29882812,0.0017776489,0.009765625,-0.0020751953,-0.18554688,-0.110839844,-0.24316406,0.25585938,-0.20898438,0.055664062,-0.13085938,0.052001953,-0.011657715,0.4453125,0.17578125,-0.28320312,-0.13085938,0.28125,0.27734375,0.056640625,-0.09375,0.067871094,-0.08251953,-0.27539062,0.33789062,-0.06347656,-0.30273438,0.31640625,0.052246094,-0.087890625,0.016235352,0.15234375,0.04248047,-0.032958984,0.20410156,-0.17675781,0.2734375,-0.0059814453,-0.0625,0.056152344,0.26953125,-0.057617188,-0.032470703,0.26367188,0.10839844,0.13867188,-0.09375,0.45507812,-0.15820312,0.16992188,0.10595703,-0.068359375,0.16210938,0.15722656,-0.421875,-0.27148438,0.048583984,-0.22265625,-0.21484375,-0.025268555,0.1796875,0.080078125,-0.107421875,0.06982422,0.15039062,-0.03564453,-0.33007812,0.22949219,0.13867188,0.37695312,-0.11425781,0.13671875,-0.16308594,0.14453125,-0.06689453,-0.48046875,-0.025756836,0.39648438,-0.020263672,-0.13867188,-0.04248047,0.014892578,-0.03125,-0.040527344,-0.41992188,-0.05834961,0.017456055,-0.48828125,-0.24804688,0.26757812,0.30078125,-0.40039062,-0.060302734,0.14453125,0.30273438,0.064941406,-0.2578125,-0.13964844,-0.03515625,-0.11669922,0.24023438,-0.1328125,0.10498047,0.24023438,0.005279541,-0.2734375,-0.07861328,0.021972656,-0.072265625,-0.19921875,0.055664062,-0.013122559,0.22851562,-0.034179688,0.10253906,-0.1953125,0.16503906,-0.07080078,0.296875,0.11425781,0.17382812,0.29492188,0.29296875,0.0079956055,-0.13671875,0.23046875,0.016601562,0.111328125,-0.040283203,0.076171875,-0.13085938,-0.04736328,-0.0134887695,-0.037841797,0.13867188,-0.03881836,0.041992188,0.083984375,0.19921875,0.24316406,-0.17773438,-0.36523438,-0.3203125,0.022338867,-0.31054688,0.076171875,-0.07128906,0.17089844,0.09814453,-0.22167969,-0.10986328,-0.035888672,-0.041015625,-0.21289062,0.24902344,0.036376953,0.114746094,0.041015625,0.07763672,-0.39453125,-0.004699707,0.24804688,0.328125,0.35546875,-0.06982422,0.11279297,0.0010375977,0.084472656,0.47070312,0.10205078,-0.14648438,0.51171875,-0.24902344,0.13964844
cobra,0.041259766,0.20605469,-0.22363281,-0.14355469,-0.16992188,0.025756836,-0.023925781,-0.20703125,-0.13867188,0.13964844,0.013305664,-0.48046875,-0.14355469,-0.21191406,-0.20507812,0.06689453,-0.16699219,-0.17578125,-0.12890625,-0.00982666,0.05493164,-0.107421875,0.22265625,0.006134033,-0.21191406,-0.19921875,-0.21191406,0.15136719,0.32421875,-0.24121094,-0.018920898,0.041259766,-0.09472656,-0.079589844,-0.064453125,-0.11425781,-0.123535156,-0.04736328,-0.29492188,-0.1875,0.053466797,-0.33984375,0.16699219,0.23730469,-0.13671875,-0.20703125,0.26953125,-0.14453125,0.31835938,0.06347656,-0.20410156,0.19140625,0.07763672,-0.25585938,0.123535156,-0.15917969,0.24609375,-0.24121094,0.5234375,0.049316406,0.040283203,-0.08154297,-0.061035156,0.27929688,-0.010375977,-0.110839844,0.08154297,-0.17871094,-0.17285156,0.234375,0.06298828,0.19238281,-0.036376953,-0.030029297,-0.24023438,-0.087402344,-0.35742188,-0.24511719,-0.064453125,-0.01928711,-0.06933594,0.11767578,0.13964844,-0.13574219,-0.12988281,0.26953125,-0.28320312,-0.34570312,0.12060547,-0.22167969,0.018432617,-0.21289062,-0.22363281,0.16894531,-0.18652344,0.18847656,-0.07519531,-0.079589844,-0.046142578,-0.004547119,-0.16503906,-0.4921875,0.047607422,-0.40234375,0.17285156,-0.13476562,-0.15136719,-0.119140625,0.18945312,-0.31054688,-0.23046875,-0.28515625,-0.088378906,-0.034179688,-0.19824219,-0.02331543,-0.06347656,-0.375,-0.20214844,-0.22363281,-0.041015625,-0.21875,-0.15136719,-0.23828125,-0.044189453,0.28320312,0.41015625,0.05053711,0.037841797,-0.16699219,-0.056152344,0.11767578,-0.33203125,0.23242188,-0.15429688,0.17285156,0.072753906,-0.13671875,-0.057373047,0.5390625,0.37304688,-0.13769531,-0.064453125,0.14648438,0.18457031,0.20507812,-0.31054688,0.19726562,-0.38867188,-0.049804688,0.16894531,0.052001953,-0.42773438,-0.0036621094,-0.13085938,-0.35351562,-0.22949219,0.043945312,0.021362305,-0.1640625,0.3203125,-0.043701172,0.122558594,-0.36132812,-0.56640625,-0.4140625,0.3671875,0.05859375,0.06738281,0.19335938,0.005432129,0.19140625,-0.15820312,0.3515625,-0.088378906,-0.11816406,0.09765625,-0.0018615723,-0.020629883,-0.31835938,-0.16699219,-0.047607422,-0.20996094,-0.021606445,-0.296875,0.22753906,0.036621094,0.29296875,0.033447266,0.11279297,-0.044677734,0.0011520386,-0.43164062,0.13769531,-0.11767578,0.20800781,-0.0078125,-0.017211914,-0.06982422,0.10449219,0.107421875,-0.48632812,0.119628906,0.111816406,0.11328125,-0.328125,0.13769531,0.0047302246,0.13183594,0.16601562,-0.69921875,-0.18847656,-0.15039062,-0.48828125,-0.17773438,0.3125,0.1796875,0.07128906,-0.328125,0.18652344,0.014160156,-0.24902344,-0.26367188,-0.14648438,0.16992188,0.07421875,0.04296875,0.12792969,0.14648438,0.13671875,-0.11035156,0.07910156,0.040771484,0.12695312,0.25390625,0.22558594,0.115722656,0.013000488,0.083496094,0.044433594,0.296875,-0.15625,0.06738281,-0.103515625,0.42382812,-0.0390625,-0.059570312,-0.080078125,-0.05517578,-0.31054688,-0.052978516,0.35742188,-0.10839844,-0.036376953,0.16015625,0.017456055,-0.31445312,-0.0019683838,-0.088378906,0.072265625,0.16992188,0.22558594,-0.014221191,0.012573242,-0.07373047,0.31640625,-0.12792969,-0.31445312,0.2890625,0.13671875,-0.080566406,0.25976562,0.24121094,0.07324219,0.20703125,0.07128906,-0.23535156,0.15820312,-0.28515625,0.057617188,0.007873535,-0.030395508,0.017333984,0.010620117,-0.060302734,-0.018432617,-0.16894531,-0.19042969,0.3125,0.19238281,-0.14160156,-0.061035156,-0.060791016,-0.04711914,-0.12792969,0.080078125,0.15332031,0.08984375,-0.54296875,0.09423828
snake,0.08935547,0.12890625,-0.21289062,-0.048095703,-0.19433594,0.036865234,-0.044189453,-0.01184082,-0.15429688,0.2578125,0.18359375,-0.41796875,-0.095703125,-0.04711914,-0.23242188,-0.11425781,0.088378906,-0.048095703,-0.057617188,-0.119140625,0.09033203,0.0059509277,0.265625,0.11328125,-0.13085938,0.06933594,-0.17871094,0.07861328,0.4765625,-0.171875,-0.010314941,0.26367188,-0.16796875,-0.14160156,0.0076904297,0.0038909912,0.036865234,-0.07080078,-0.03930664,0.22851562,0.17285156,-0.04736328,0.1328125,0.114746094,-0.30078125,-0.103027344,0.08105469,0.13378906,0.19921875,-0.057861328,-0.03173828,0.24609375,0.3359375,-0.23339844,0.28320312,0.008605957,0.13183594,-0.15625,0.33007812,0.40039062,0.03930664,0.11621094,0.114746094,0.14746094,0.012939453,-0.24902344,-0.041015625,-0.15429688,-0.18359375,-0.061767578,0.08642578,0.0037994385,0.118652344,-0.12597656,-0.14355469,0.095214844,-0.12890625,-0.14550781,0.00028419495,-0.16210938,0.015380859,0.21875,0.16113281,-0.17773438,-0.25,0.020019531,-0.36914062,-0.100097656,0.083496094,-0.072265625,0.07470703,0.09765625,-0.13964844,0.055419922,-0.02331543,0.034179688,-0.04736328,0.08886719,0.103027344,-0.0009651184,0.123046875,-0.34375,0.28710938,-0.29296875,0.08984375,-0.063964844,0.014282227,-0.059326172,-0.16992188,-0.4296875,-0.20703125,-0.1953125,0.12792969,0.25585938,-0.06738281,-0.10546875,-0.022583008,-0.33203125,-0.09326172,-0.01928711,-0.07128906,-0.029296875,-0.13378906,-0.060302734,-0.30078125,0.10498047,0.23242188,-0.030883789,0.10595703,-0.171875,-0.34375,0.22851562,-0.13671875,0.15039062,-0.02331543,0.18359375,0.03881836,0.08105469,0.10253906,0.5859375,0.07128906,-0.15917969,0.015991211,0.0859375,0.075683594,0.34570312,-0.24707031,-0.040771484,-0.13769531,-0.12792969,0.24902344,-0.0071105957,-0.41992188,0.28320312,0.15527344,-0.018310547,-0.34765625,-0.031982422,-0.14355469,-0.041015625,0.09472656,-0.009033203,0.04296875,-0.26953125,-0.12597656,-0.091796875,0.12890625,-0.075683594,0.076171875,0.0703125,0.071777344,0.12792969,0.059814453,0.17773438,0.03540039,-0.27929688,0.24609375,0.076660156,-0.15527344,0.068847656,-0.3203125,-0.15820312,-0.1328125,-0.040527344,-0.2109375,0.0625,0.064453125,0.012329102,0.05053711,0.33398438,0.11669922,-0.03125,-0.3046875,0.18066406,-0.008972168,0.10205078,-0.29101562,-0.359375,-0.28710938,-0.024658203,0.26757812,-0.28320312,-0.0068359375,-0.03540039,-0.020996094,-0.026123047,0.22949219,-0.040527344,0.10546875,0.103027344,-0.40429688,-0.12792969,-0.125,-0.5546875,0.030151367,0.234375,-0.026855469,-0.037353516,0.021606445,0.068847656,0.11669922,-0.04711914,-0.071777344,-0.11328125,0.11376953,0.0042419434,0.072265625,0.060302734,-0.09082031,-0.033935547,0.17773438,-0.12109375,-0.125,0.028198242,0.03491211,0.22558594,0.24023438,0.04345703,0.12451172,-0.015625,0.375,-0.16894531,-0.14257812,-0.19238281,0.3046875,-0.11279297,0.023071289,0.08496094,0.123535156,-0.10205078,-0.28320312,-0.03515625,-0.071777344,0.008911133,0.2265625,0.052734375,-0.31445312,-0.12792969,-0.0703125,-0.057861328,0.21972656,0.12597656,-0.22070312,0.092285156,0.19726562,0.22558594,-0.067871094,-0.064453125,-0.060546875,-0.047607422,-0.092285156,0.11376953,-0.06982422,0.05029297,0.41210938,0.0625,-0.20507812,0.24707031,-0.084472656,0.079589844,0.119140625,0.028808594,0.1875,0.20605469,-0.0625,-0.35546875,-0.34570312,-0.029785156,0.15429688,0.12695312,-0.28710938,0.055908203,-0.09667969,0.09033203,-0.039794922,-0.029418945,0.021972656,0.23730469,-0.22265625,0.12890625
worm,0.25390625,0.16503906,-0.099609375,-0.028930664,-0.26757812,0.22949219,-0.2265625,0.08691406,0.26757812,0.033447266,-0.0546875,-0.4453125,0.47460938,-0.064941406,-0.047851562,-0.01574707,-0.104003906,0.28710938,0.1015625,-0.23242188,0.044189453,0.23925781,0.14257812,0.036376953,0.02368164,-0.20800781,-0.17578125,-0.011291504,0.26367188,0.15527344,-0.40039062,0.0077819824,0.33007812,-0.20996094,0.09472656,-0.17382812,-0.28515625,-0.06689453,0.17480469,0.17675781,0.19921875,0.12451172,-0.0046691895,0.119628906,0.122558594,-0.087890625,0.40429688,-0.18261719,-0.1484375,0.25195312,-0.32617188,-0.06640625,0.17773438,-0.15332031,-0.032714844,0.12597656,0.16894531,-0.33984375,-0.19921875,-0.02368164,0.1015625,0.18847656,-0.30078125,0.25,0.07324219,-0.21484375,-0.03930664,0.014404297,-0.25195312,0.29101562,-0.125,0.095703125,0.22460938,-0.20214844,-0.071777344,-0.14550781,0.07519531,-0.41796875,0.061279297,-0.21386719,-0.107910156,-0.14550781,0.17285156,-0.123535156,0.109375,0.000541687,-0.125,-0.07128906,0.016845703,-0.03515625,-0.01940918,-0.02331543,-0.24707031,-0.03173828,0.087402344,0.19238281,0.0002708435,-0.24023438,0.115722656,0.0625,0.32421875,-0.40039062,0.03857422,-0.13476562,-0.18457031,0.24023438,-0.37109375,0.5078125,0.056396484,-0.39257812,-0.26757812,-0.4609375,0.27148438,0.118652344,-0.05102539,-0.15234375,-0.041259766,0.038085938,0.16210938,0.106933594,0.032470703,-0.1328125,-0.12890625,-0.068847656,-0.063964844,0.052001953,0.26953125,0.2421875,-0.1875,-0.25585938,0.091796875,-0.057373047,0.03125,-0.004333496,0.029907227,0.031982422,0.40234375,0.046875,-0.15332031,0.28125,-0.03515625,-0.16699219,-0.049804688,-0.051513672,0.23242188,0.20996094,-0.060302734,0.21679688,-0.38867188,-0.21289062,0.41992188,-0.37304688,-0.22851562,0.14550781,-0.34960938,-0.31054688,-0.28320312,0.080566406,-0.11230469,0.068847656,0.091796875,0.100097656,-0.36132812,-0.22070312,0.0058288574,-0.20410156,-0.049804688,-0.12695312,-0.0859375,0.11376953,0.01574707,0.18945312,-0.20214844,0.27539062,0.13671875,-0.19335938,0.40625,0.23925781,0.14257812,0.16113281,0.17773438,-0.31445312,-0.15820312,-0.048583984,-0.23046875,-0.06689453,-0.19628906,0.0071105957,-0.056640625,0.15527344,-0.22851562,0.067871094,-0.17480469,0.12597656,-0.0859375,0.25,-0.06689453,-0.110839844,-0.15136719,-0.33789062,0.34375,-0.30664062,0.1796875,0.28320312,0.16699219,0.14160156,0.2890625,0.30273438,-0.24023438,-0.060058594,-0.1484375,0.25585938,-0.107910156,-0.04248047,0.05078125,0.3203125,0.024902344,-0.20898438,-0.13867188,0.068847656,0.016235352,-0.111328125,0.007019043,0.11816406,0.0625,-0.20996094,-0.07080078,-0.13964844,0.28320312,0.24804688,0.22167969,-0.25390625,0.203125,-0.2734375,-0.088378906,-0.21289062,0.35351562,-0.20117188,0.21972656,0.13671875,0.4296875,-0.05102539,-0.34765625,-0.29101562,0.2578125,-0.23828125,-0.08300781,-0.140625,-0.110839844,-0.06542969,-0.57421875,0.045898438,0.040039062,-0.030883789,0.35351562,-0.33007812,-0.26171875,0.09033203,-0.36914062,-0.107910156,0.028442383,0.15039062,-0.31054688,-0.16503906,0.13574219,0.026855469,-0.44140625,0.2890625,-0.19824219,0.20410156,-0.010375977,-0.017578125,-0.083496094,-0.33398438,0.17773438,0.1640625,-0.23632812,0.09326172,0.33007812,0.35351562,0.059814453,0.28125,0.0703125,0.14453125,0.15429688,-0.26367188,0.09326172,0.13964844,-0.00340271,0.27929688,0.18066406,0.07910156,-0.07519531,-0.49023438,-0.096191406,-0.087890625,-0.22753906,-0.203125,-0.28125,0.17773438
gecko,0.28125,0.16699219,-0.2421875,0.20898438,-0.02331543,-0.012023926,0.25,-0.19921875,0.23046875,0.19238281,0.19140625,-0.29296875,-0.05444336,-0.38085938,-0.34765625,0.060791016,-0.03930664,0.10107422,-0.16601562,0.37304688,-0.004638672,0.013977051,0.037597656,0.16894531,-0.33984375,-0.20410156,-0.026733398,0.34765625,0.42382812,-0.23925781,-0.16894531,-0.12158203,0.20996094,-0.084472656,-0.13574219,-0.12792969,0.09863281,0.40625,0.24511719,0.2890625,0.375,-0.13183594,-0.009216309,0.59765625,-0.11621094,-0.13574219,-0.203125,-0.037597656,0.40234375,-0.04663086,-0.390625,0.06347656,0.25976562,-0.30859375,0.25390625,0.067871094,-0.057617188,-0.2109375,0.26757812,-0.091308594,0.19921875,-0.140625,-0.063964844,0.11621094,-0.2734375,0.06640625,-0.06347656,0.010925293,0.12158203,0.16113281,0.13476562,0.14648438,-0.16699219,-0.19335938,0.036132812,-0.125,0.07324219,-0.41796875,-0.13769531,-0.38476562,-0.08642578,0.31640625,0.040283203,-0.22460938,-0.33789062,0.08203125,-0.22265625,0.11376953,-0.22460938,0.100097656,-0.38085938,-0.18457031,-0.07324219,0.026855469,-0.075683594,0.008850098,-0.16894531,-0.359375,0.025268555,-0.13476562,-0.15820312,-0.265625,0.234375,0.09082031,0.15527344,0.22265625,0.13183594,-0.15917969,0.055664062,-0.25585938,-0.24707031,-0.13183594,0.20117188,0.3359375,-0.060791016,-0.07373047,-0.26757812,-0.39648438,0.0010375977,-0.22949219,0.12695312,-0.18945312,0.110839844,0.14160156,-0.18261719,0.31835938,0.11669922,-0.13769531,-0.11425781,0.15625,0.07519531,0.064453125,0.055664062,-0.06933594,-0.20019531,-0.041748047,-0.075683594,-0.36914062,-0.13574219,0.5625,0.40234375,-0.15332031,-0.3515625,-0.09765625,0.18066406,0.140625,0.115234375,-0.15136719,0.25,-0.076171875,0.18261719,-0.49414062,-0.41992188,0.27734375,-0.100097656,-0.052734375,-0.39648438,-0.18945312,0.22558594,0.14648438,-0.114746094,-0.03881836,0.18066406,0.12890625,-0.29492188,0.07714844,0.40625,-0.004760742,0.13671875,0.28710938,-0.03881836,0.359375,-0.203125,0.123535156,-0.16601562,0.171875,0.047607422,0.18359375,0.21582031,-0.22265625,-0.10595703,-0.0066833496,-0.20996094,-0.25195312,-0.26367188,0.045410156,-0.061523438,0.03173828,0.11035156,-0.03466797,0.15039062,-0.118652344,-0.19726562,-0.0045166016,-0.060058594,0.41992188,0.20117188,-0.38671875,-0.3828125,-0.07080078,0.0154418945,0.061767578,-0.05517578,0.24804688,-0.20800781,0.16601562,0.18652344,-0.17675781,-0.022705078,0.09277344,-0.4375,0.07714844,-0.1171875,-0.47070312,0.19921875,0.29101562,0.41210938,-0.296875,0.18164062,0.30664062,0.22851562,-0.07714844,-0.015563965,-0.083984375,-0.021362305,0.20605469,-0.07421875,0.31640625,0.16601562,0.21875,0.13574219,-0.21679688,0.19921875,-0.19824219,-0.104003906,0.16113281,-0.13769531,0.049560547,0.26953125,-0.0546875,0.25585938,-0.25976562,-0.32421875,0.045898438,0.5390625,0.15039062,-0.28515625,0.10888672,-0.044921875,-0.35351562,-0.45703125,-0.21777344,-0.087890625,0.13769531,0.111328125,-0.25195312,-0.08496094,0.43554688,0.22949219,0.24609375,0.3125,0.06933594,-0.12695312,0.021240234,0.052490234,0.37109375,-0.20214844,-0.18652344,-0.20800781,-0.37304688,-0.10449219,0.14746094,0.125,0.16503906,0.33789062,0.09472656,-0.19238281,0.23828125,0.22460938,-0.23632812,-0.15625,0.18164062,0.15234375,0.24023438,0.018798828,-0.3359375,0.092285156,0.22265625,-0.10839844,0.3671875,-0.25,0.45703125,-0.11669922,0.07128906,0.107421875,0.017822266,0.12792969,0.15722656,-0.020629883,0.21582031
python,0.27734375,0.12402344,-0.40820312,0.15722656,-0.19726562,-0.11767578,0.06640625,0.08300781,-0.29492188,0.28710938,-0.04638672,-0.54296875,-0.080566406,-0.096191406,-0.23535156,-0.29101562,0.16699219,0.07910156,-0.26171875,-0.032470703,-0.08691406,-0.21289062,0.19335938,0.3046875,0.047851562,-0.032958984,-0.38867188,0.24609375,0.578125,-0.3125,-0.040527344,0.3359375,-0.025390625,-0.1640625,-0.091308594,0.125,-0.067871094,0.23046875,-0.009216309,0.37890625,-0.04296875,-0.026611328,0.091308594,0.33007812,-0.02758789,-0.25195312,0.14550781,0.064453125,0.13867188,-0.07128906,0.040527344,0.0053100586,0.5625,-0.27929688,0.2421875,-0.19628906,0.3203125,-0.1640625,0.25976562,0.13476562,0.25976562,-0.064453125,-0.096191406,-0.06640625,-0.265625,0.045166016,-0.06689453,-0.25195312,-0.18164062,-0.026977539,0.14746094,-0.11376953,-0.103515625,-0.21289062,-0.16210938,0.45117188,0.36328125,-0.45898438,-0.036621094,0.0061035156,-0.017333984,0.29882812,-0.060791016,-0.020751953,-0.19433594,0.04345703,-0.40625,-0.18945312,0.09667969,-0.22949219,-0.104003906,0.001953125,0.04345703,0.03491211,-0.06347656,-0.33203125,-0.051513672,0.022338867,0.35742188,-0.25390625,-0.10107422,-0.32226562,0.07519531,-0.32226562,0.05859375,0.14257812,0.056152344,-0.24902344,-0.26757812,-0.25,-0.033935547,-0.26367188,0.19921875,0.54296875,-0.08642578,0.040283203,-0.17578125,-0.40234375,0.060546875,0.07128906,-0.21679688,-0.051757812,-0.25,-0.013549805,0.05126953,0.171875,0.33984375,0.08300781,0.060546875,-0.28710938,0.061767578,0.13964844,-0.20019531,0.3359375,-0.30664062,0.43359375,-0.055908203,0.046142578,0.18359375,0.52734375,-0.09033203,-0.43554688,-0.36328125,0.20117188,0.2734375,0.072265625,-0.17871094,0.3359375,0.041992188,0.014099121,0.48828125,-0.18261719,-0.40820312,0.28320312,0.30273438,-0.24023438,-0.5625,0.107910156,-0.057128906,-0.049560547,0.076660156,-0.08984375,0.16113281,-0.07470703,-0.19433594,0.010681152,0.27148438,-0.24414062,-0.13867188,0.19921875,-0.026489258,0.421875,-0.104003906,0.29492188,-0.20800781,0.07324219,0.640625,0.36914062,-0.25390625,0.05517578,-0.0027923584,0.25195312,-0.09326172,-0.122558594,-0.041992188,0.017456055,0.072753906,0.2109375,-0.0115356445,0.009155273,0.15820312,-0.060302734,-0.17285156,0.20117188,-0.06738281,0.26367188,-0.37695312,-0.063964844,-0.32617188,-0.11669922,0.21875,-0.33203125,0.017089844,0.20214844,0.17578125,-0.13183594,0.48828125,0.17871094,0.28125,0.17578125,-0.30664062,-0.09326172,0.047851562,-0.3125,-0.2734375,0.25390625,0.29296875,-0.10888672,0.061035156,0.19335938,-0.14160156,0.10107422,-0.27929688,-0.057861328,-0.11376953,-0.296875,-0.05859375,0.22167969,0.009216309,0.025390625,0.15527344,-0.25976562,-0.09326172,-0.15136719,0.20117188,0.08886719,0.359375,0.088378906,0.16601562,0.056396484,0.14355469,-0.055664062,0.028930664,-0.14453125,0.13476562,-0.16894531,0.06347656,-0.03173828,0.13964844,-0.13476562,-0.23144531,0.22558594,0.18164062,-0.17382812,0.30078125,-0.038330078,-0.14648438,-0.0076293945,-0.08203125,0.23828125,0.43359375,0.27734375,-0.033203125,-0.055419922,0.10595703,0.27539062,-0.114746094,0.1484375,-0.083496094,0.034179688,-0.20019531,0.114746094,-0.4609375,0.22949219,0.20410156,0.08691406,0.08251953,0.27734375,-0.079589844,-0.01928711,-0.013061523,0.2890625,0.1640625,0.19238281,-0.06201172,-0.375,0.064941406,0.039794922,0.3515625,0.052001953,-0.22460938,0.0058288574,-0.11328125,0.23242188,0.033691406,0.068847656,-0.26171875,0.49023438,-0.21679688,-0.006225586
toad,0.10449219,0.25390625,-0.13769531,-0.0058898926,-0.15527344,-0.18164062,-0.36328125,0.21875,0.18261719,0.103515625,0.234375,-0.38867188,-0.10449219,-0.16503906,0.052734375,-0.022705078,-0.099121094,0.1953125,0.22460938,-0.068359375,-0.21289062,-0.061767578,0.060302734,0.16796875,-0.140625,-0.1796875,-0.18457031,0.20214844,0.27929688,-0.0072631836,0.22265625,0.12451172,-0.024414062,-0.052734375,-0.20703125,-0.051757812,0.17773438,0.16894531,0.16699219,0.20507812,0.15820312,-0.21875,0.17382812,0.20800781,-0.11376953,-0.28320312,0.060546875,-0.07421875,0.3046875,0.12792969,-0.1640625,0.111328125,0.33007812,-0.11230469,0.10986328,-0.087890625,-0.05029297,-0.25976562,0.38671875,0.26953125,-0.041992188,0.1953125,0.0011444092,-0.0057373047,-0.125,-0.47070312,0.051513672,-0.22949219,0.0146484375,0.063964844,0.15820312,-0.04638672,0.043945312,0.0126953125,-0.203125,0.08105469,-0.22851562,-0.20410156,-0.27929688,-0.1640625,0.017822266,-0.0037078857,0.05810547,-0.34375,-0.30859375,0.27148438,-0.14257812,0.1171875,0.3125,-0.032714844,-0.0063476562,-0.111328125,-0.15234375,-0.13769531,-0.057617188,0.14160156,0.14746094,0.015075684,0.09277344,-0.25195312,-0.091796875,-0.07421875,0.110839844,-0.12695312,-0.016967773,-0.076660156,0.08496094,0.26757812,-0.012084961,-0.064453125,0.04711914,-0.28710938,0.10107422,0.49804688,-0.013244629,-0.27148438,-0.06982422,0.0134887695,-0.33984375,0.11767578,-0.10449219,-0.013183594,-0.2890625,-0.12109375,-0.234375,0.21289062,0.11035156,-0.01586914,0.15039062,-0.09082031,-0.11767578,-0.15917969,-0.37695312,0.33203125,-0.13183594,0.10253906,-0.13183594,-0.018554688,0.32226562,0.26953125,-0.12402344,-0.092285156,-0.05126953,0.040039062,0.30078125,-0.05053711,-0.18261719,0.37890625,-0.053222656,0.12158203,0.46484375,-0.39453125,-0.578125,0.203125,-0.05419922,0.039794922,-0.061035156,-0.12109375,-0.41210938,0.08105469,-0.04272461,0.07763672,0.099609375,-0.011169434,-0.19726562,-0.15429688,0.32421875,-0.2578125,0.025024414,0.05810547,0.17382812,0.05102539,-0.18164062,0.27148438,-0.23242188,-0.115234375,-0.071777344,0.11328125,0.1953125,0.011108398,-0.33984375,-0.20410156,-0.09716797,-0.032958984,-0.17871094,0.12597656,-0.11279297,-0.007598877,0.00012874603,0.1796875,-0.12792969,-0.16894531,-0.18066406,-0.011962891,0.072265625,0.13769531,0.13085938,-0.22363281,-0.41015625,-0.12890625,0.29882812,-0.23632812,0.11816406,0.092285156,0.14941406,-0.07763672,0.30273438,0.12695312,-0.0044555664,0.05053711,-0.28710938,0.033691406,-0.15722656,-0.46484375,-0.15722656,0.203125,0.046142578,-0.31054688,0.26171875,0.18359375,0.29296875,-0.024169922,0.04638672,-0.020996094,0.030395508,-0.033691406,0.24414062,0.052001953,0.296875,0.12988281,-0.009521484,-0.23925781,-0.08935547,0.032226562,0.20996094,-0.05834961,0.25195312,-0.026977539,0.31054688,-0.12695312,0.29296875,0.022216797,-0.17578125,0.06689453,0.35351562,-0.16113281,0.10449219,0.10205078,0.028930664,-0.025024414,-0.14746094,-0.18261719,0.034423828,0.16699219,0.047851562,-0.12695312,-0.36132812,-0.06738281,-0.12988281,-0.16894531,0.04663086,0.033203125,0.0029907227,0.007598877,0.25390625,-0.059570312,-0.24121094,0.115234375,-0.2578125,-0.11035156,-0.0703125,0.22558594,-0.1953125,-0.041748047,0.20214844,0.05859375,0.012023926,0.17089844,-0.043701172,0.049072266,0.45898438,0.087402344,0.33984375,0.08154297,-0.024658203,-0.28515625,0.12158203,-0.11279297,0.30078125,0.15136719,-0.115234375,0.14453125,-0.140625,0.010070801,0.019042969,-0.052978516,-0.07421875,0.25390625,0.09082031,-0.003250122
crocodile,-0.0703125,0.06542969,-0.33203125,0.05078125,-0.09814453,-0.119628906,-0.27148438,-0.006011963,0.13671875,0.12597656,0.15722656,-0.44140625,-0.27734375,-0.13964844,-0.15429688,0.08984375,-0.057128906,0.13476562,-0.19433594,-0.18457031,0.06201172,-0.13964844,0.3125,0.20410156,-0.01574707,-0.26367188,0.042236328,0.10644531,0.625,-0.15234375,-0.02758789,0.3515625,-0.25976562,0.00050354004,-0.055664062,-0.21582031,-0.33007812,0.29101562,0.10253906,0.24316406,-0.18652344,0.02709961,0.067871094,0.3828125,-0.14257812,-0.37304688,0.18261719,0.15722656,0.37304688,-0.11035156,-0.103027344,-0.15722656,0.43359375,-0.27539062,0.375,-0.14550781,0.049560547,-0.30664062,0.29101562,0.37109375,-0.092285156,-0.06591797,0.24902344,-0.07910156,0.068847656,0.051757812,-0.15429688,-0.3125,0.13671875,-0.08691406,0.04248047,-0.0038909912,0.0390625,0.08496094,-0.453125,0.08300781,0.021850586,-0.50390625,-0.22949219,0.067871094,0.10498047,0.078125,0.076660156,-0.005126953,-0.42773438,-0.010437012,-0.09667969,-0.38671875,-0.07470703,-0.14453125,0.1015625,0.296875,-0.030639648,0.083496094,-0.115722656,-0.203125,-0.005859375,0.296875,0.23046875,-0.10253906,0.044677734,-0.09814453,0.25,-0.072265625,0.16601562,-0.12890625,0.1875,-0.029541016,-0.011779785,-0.171875,-0.19238281,-0.18652344,0.114746094,0.48242188,-0.25390625,-0.29101562,-0.17285156,-0.25,-0.24707031,-0.17480469,-0.21386719,-0.020507812,-0.27929688,-0.12695312,-0.27539062,0.071777344,0.24804688,-0.07910156,-0.23535156,0.022216797,-0.17578125,0.16210938,-0.49804688,0.27148438,-0.34570312,0.17382812,0.103515625,-0.04638672,0.19238281,0.43945312,0.09472656,-0.29101562,0.03881836,0.11230469,0.21777344,0.1328125,-0.43359375,0.31445312,0.09082031,0.024414062,0.30664062,-0.17675781,-0.4921875,0.2265625,0.21875,-0.11035156,-0.43164062,0.17285156,-0.021362305,-0.092285156,0.1328125,0.21875,0.09863281,-0.26171875,0.025512695,-0.18359375,0.3828125,-0.20898438,0.01574707,-0.04248047,-0.1953125,0.34375,-0.091796875,0.18457031,-0.28125,-0.22265625,0.48242188,0.37695312,-0.14550781,0.0390625,-0.31054688,-0.114746094,-0.35351562,-0.010681152,-0.03857422,-0.06347656,-0.04663086,0.037597656,0.034423828,-0.02709961,-0.22265625,-0.079589844,-0.24804688,0.061523438,-0.15136719,0.12402344,-0.1640625,0.03540039,-0.17871094,0.020019531,0.26953125,-0.359375,0.059814453,0.21484375,-0.03491211,-0.16308594,0.40429688,-0.010559082,-0.056152344,0.0049743652,-0.33007812,-0.13964844,0.35742188,-0.34375,-0.27539062,0.21191406,0.21484375,-0.114746094,0.22363281,0.24121094,0.2421875,0.19726562,-0.18261719,0.061767578,0.039794922,-0.021484375,0.17285156,0.36328125,0.0625,0.1484375,0.19628906,-0.24511719,-0.1796875,-0.18554688,0.24707031,-0.19238281,0.32226562,0.36914062,0.063964844,0.19238281,0.45703125,-0.52734375,-0.08544922,0.06591797,0.34179688,-0.17089844,-0.18164062,0.015563965,0.16113281,-0.20898438,-0.2734375,0.12890625,0.01965332,-0.17578125,-0.0050354004,0.07861328,0.09716797,-0.19238281,-0.23144531,-0.22070312,0.3359375,0.19042969,0.20605469,0.008728027,0.24316406,0.36523438,-0.45898438,0.26171875,0.17578125,0.119140625,-0.34179688,0.15332031,-0.19042969,0.15039062,0.48632812,0.17480469,0.27148438,0.20019531,0.18261719,0.17382812,0.045166016,0.014587402,0.27929688,-0.06591797,0.007507324,0.08496094,-0.2578125,0.36523438,0.23828125,0.203125,-0.34960938,0.10839844,-0.08984375,-0.10498047,0.0064697266,0.17480469,-0.024902344,0.13671875,-0.140625,0.0030517578
chameleon,0.34765625,0.063964844,-0.15917969,0.2265625,-0.35351562,0.049316406,0.17089844,0.103027344,-0.110839844,-0.10058594,0.359375,-0.032958984,-0.21679688,-0.32226562,-0.31054688,0.30078125,-0.23339844,0.34570312,-0.23339844,-0.29492188,-0.056640625,-0.053710938,0.0058898926,-0.016601562,-0.25,-0.083984375,0.15234375,-0.009399414,0.14550781,-0.05517578,-0.059814453,0.28125,0.007598877,0.515625,0.26171875,0.15722656,0.032714844,0.064453125,-0.119628906,0.15039062,0.359375,-0.26171875,-0.053466797,0.24609375,0.0056762695,-0.25390625,-0.20605469,0.022338867,0.28515625,0.140625,-0.45898438,-0.032470703,0.15625,-0.06933594,-0.20996094,0.21972656,-0.057617188,-0.45117188,-0.052246094,0.12451172,-0.026489258,0.37695312,-0.18261719,-0.23535156,0.28710938,0.1328125,-0.08203125,0.29492188,0.052246094,0.029907227,0.09375,0.041748047,-0.15039062,0.23242188,-0.21679688,-0.109375,0.23339844,0.2265625,-0.010375977,-0.1875,0.026977539,0.25976562,-0.04321289,-0.4140625,0.080566406,0.2265625,-0.27148438,-0.19433594,-0.096191406,0.12109375,-0.07470703,-0.000869751,-0.21972656,0.12695312,0.24414062,-0.08935547,-0.0625,-0.16796875,-0.025146484,-0.3046875,0.005859375,-0.13964844,-0.076171875,-0.23242188,-0.24902344,-0.111328125,0.390625,-0.18164062,-0.20507812,-0.032714844,-0.09033203,-0.25585938,-0.08642578,0.20703125,-0.0625,-0.11328125,-0.3984375,-0.111328125,0.13964844,-0.014770508,0.21484375,-0.171875,-0.13085938,0.09814453,-0.10595703,0.016967773,0.071777344,0.41601562,0.20703125,-0.12597656,-0.34179688,-0.036376953,-0.1953125,0.15917969,-0.10595703,-0.16992188,-0.0025634766,0.07128906,-0.10107422,0.27929688,0.050048828,-0.09033203,-0.26953125,0.060791016,0.328125,0.3203125,0.26367188,0.34960938,-0.09667969,-0.08203125,0.016723633,-0.29296875,-0.48632812,0.12792969,-0.21191406,-0.091796875,-0.018798828,0.052734375,0.11230469,-0.08203125,-0.045654297,0.13867188,0.20605469,0.17285156,-0.37695312,-0.07324219,-0.061523438,-0.25,0.038330078,0.23535156,0.14648438,0.10205078,-0.09716797,0.24121094,-0.07324219,0.095703125,-0.022583008,-0.421875,-0.15625,-0.02355957,-0.24414062,-0.12207031,0.043945312,-0.18652344,-0.32226562,-0.49023438,0.10253906,0.109375,-0.20410156,0.045654297,0.4921875,0.14160156,0.030761719,0.38085938,0.1328125,0.16113281,-0.13574219,0.22265625,-0.33984375,0.24902344,0.26757812,0.037597656,0.060791016,-0.17480469,0.12890625,-0.036376953,0.013549805,0.05810547,0.015991211,-0.104003906,-0.31640625,-0.0859375,0.12402344,-0.17578125,-0.22070312,0.06542969,-0.1640625,-0.09326172,-0.16308594,0.041992188,0.25976562,0.22070312,-0.21777344,0.12988281,-0.06689453,0.29296875,-0.04345703,0.053222656,-0.16503906,0.20996094,-0.012145996,0.16113281,-0.076171875,-0.0625,0.33007812,0.0024108887,0.07519531,-0.05102539,-0.1015625,0.072265625,0.19726562,-0.10107422,0.18164062,0.18554688,0.63671875,0.0019989014,0.09082031,-0.25390625,0.13867188,-0.48828125,-0.040283203,0.10888672,-0.061279297,0.13671875,0.083496094,-0.34375,-0.24707031,0.27539062,0.1171875,-0.46484375,0.055419922,-0.18554688,-0.22949219,0.14550781,0.30859375,0.20214844,-0.16113281,-0.20996094,-0.40820312,-0.26757812,0.16113281,-0.05053711,-0.014038086,-0.028808594,-0.072753906,0.16015625,-0.023071289,0.088378906,0.020019531,0.10595703,-0.29492188,0.14453125,0.061035156,0.07861328,0.24511719,-0.2421875,0.005554199,-0.20214844,0.40625,0.21582031,0.00012779236,0.40820312,-0.028198242,-0.055419922,-0.2265625,-0.091308594,0.34765625,0.10986328,-0.104003906,0.22851562
caiman,-0.16503906,0.14550781,-0.03564453,-0.29101562,0.060791016,-0.34179688,-0.060302734,-0.07763672,0.123535156,0.078125,0.087402344,-0.44726562,-0.30273438,-0.39648438,-0.029785156,-0.15039062,0.20019531,-0.040527344,-0.21582031,-0.018920898,-0.16308594,-0.2109375,0.23632812,0.16210938,-0.56640625,-0.2890625,-0.23632812,0.029663086,0.26757812,-0.15332031,-0.11767578,0.15234375,-0.28320312,-0.22558594,-0.19628906,-0.27929688,-0.26757812,0.0044555664,0.068847656,0.33007812,0.072265625,0.037841797,-0.08154297,0.265625,-0.20019531,-0.37109375,0.27929688,-0.25585938,0.24121094,0.08203125,-0.28515625,-0.21582031,0.51171875,-0.49609375,0.18554688,-0.041748047,0.08105469,0.13183594,0.421875,-0.036132812,0.12402344,0.12207031,-0.4296875,-0.29882812,-0.014587402,-0.4609375,-0.16503906,-0.0043640137,-0.26171875,-0.033691406,0.28515625,0.10839844,-0.265625,0.13867188,-0.08154297,0.29296875,-0.09863281,-0.50390625,0.20996094,-0.20117188,0.0061950684,0.12890625,-0.171875,0.091308594,-0.26757812,0.20117188,0.08300781,-0.07519531,0.14746094,-0.23242188,-0.29492188,0.18359375,-0.0546875,0.19238281,0.033691406,-0.3203125,-0.067871094,-0.048095703,0.15332031,-0.2578125,0.16210938,0.11767578,0.30664062,-0.19921875,0.29296875,-0.16601562,0.24023438,-0.21679688,-0.071777344,-0.099609375,0.048828125,0.0030670166,0.018188477,0.41210938,-0.46679688,-0.020629883,0.06738281,0.051513672,-0.009033203,-0.24121094,-0.14648438,-0.42578125,-0.44921875,-0.27929688,-0.053710938,0.06225586,-0.0011444092,-0.09326172,-0.07714844,-0.12890625,-0.12402344,0.18066406,-0.05078125,0.22851562,-0.26171875,0.021240234,-0.14257812,-0.10839844,0.19726562,0.390625,-0.05029297,-0.009216309,-0.40625,0.30273438,0.08105469,0.22363281,-0.38085938,0.26367188,0.05908203,-0.011108398,0.38476562,0.041503906,-0.75,0.296875,0.21972656,-0.060058594,-0.578125,0.23339844,-0.013244629,0.06640625,0.33007812,0.16308594,0.34960938,-0.0036621094,-0.0059814453,0.36132812,-0.029663086,-0.15136719,0.31445312,0.26757812,0.12890625,0.53125,-0.13574219,0.05517578,-0.47851562,-0.025268555,0.375,0.11425781,-0.115722656,0.16601562,-0.088378906,-0.30859375,0.12792969,-0.30859375,0.01159668,-0.29492188,-0.060058594,0.265625,-0.06933594,0.049072266,-0.11816406,-0.28320312,-0.13085938,0.12890625,-0.24023438,0.41015625,-0.5703125,-0.32421875,-0.09326172,-0.27148438,0.43164062,-0.49414062,-0.15527344,0.41796875,-0.16894531,-0.265625,0.16015625,0.13085938,-0.23339844,-0.09033203,-0.578125,-0.22753906,0.013427734,-0.41601562,-0.359375,0.32226562,0.10253906,-0.296875,-0.16699219,0.053222656,0.123046875,0.28710938,0.048583984,-0.19824219,-0.29296875,-0.12988281,0.4296875,0.19628906,-0.12792969,0.3203125,-0.1640625,-0.03515625,-0.19238281,-0.08154297,0.29492188,0.0625,-0.025268555,-0.045898438,0.2578125,0.12207031,0.16699219,-0.39648438,-0.110839844,0.2578125,-0.3203125,0.13085938,0.25,-0.21289062,0.14648438,-0.013183594,-0.2578125,0.23046875,-0.34179688,0.39648438,0.234375,0.33007812,-0.05126953,-0.008056641,-0.22070312,0.036865234,0.40820312,-0.14160156,0.06933594,0.34765625,0.072753906,0.50390625,-0.37890625,-0.09277344,0.12597656,-0.26367188,-0.3125,0.27148438,-0.08251953,0.103515625,0.16210938,0.18554688,-0.07128906,0.09814453,0.122558594,0.111328125,0.16210938,-0.17089844,0.052001953,-0.012756348,-0.14746094,-0.26953125,0.05029297,0.21386719,0.00390625,0.22753906,-0.032714844,0.1640625,0.025390625,0.43554688,0.10595703,0.22851562,0.15332031,-0.0021514893,0.30859375,-0.045654297
salamander,0.0016555786,0.15429688,-0.11035156,0.04736328,-0.010314941,0.11621094,-0.009460449,-0.14648438,0.17089844,0.052246094,0.26171875,0.030029297,-0.38671875,-0.31054688,-0.12207031,-0.13867188,-0.07421875,0.22070312,-0.23535156,0.111328125,-0.421875,-0.076660156,-0.12792969,0.265625,-0.45117188,-0.33789062,0.08984375,-0.0004081726,0.29492188,0.16992188,0.18554688,0.26171875,0.0390625,0.20214844,-0.014099121,-0.4140625,0.5625,0.075683594,0.018798828,0.10058594,-0.24023438,-0.053466797,-0.075683594,0.34960938,0.016845703,-0.44140625,0.12695312,0.008361816,0.06933594,-0.060302734,-0.16796875,0.045654297,-0.0033111572,-0.24511719,-0.09765625,0.31640625,-0.010925293,-0.028564453,0.19824219,0.41015625,-0.0066833496,-0.25,-0.25585938,-0.24609375,-0.15429688,-0.625,0.16894531,0.048583984,-0.20019531,-0.045898438,0.10498047,-0.08496094,-0.068359375,-0.31445312,-0.009338379,-0.061523438,-0.19042969,-0.34765625,-0.0007972717,-0.17773438,-0.30664062,-0.045898438,0.05859375,-0.028320312,-0.047851562,0.10839844,-0.06591797,-0.11035156,0.21777344,-0.26367188,-0.08300781,0.035888672,-0.12158203,-0.071777344,-0.11230469,0.095703125,0.09716797,-0.27148438,0.049804688,-0.17871094,-0.25585938,-0.23828125,0.025268555,-0.14648438,0.52734375,-0.15429688,-0.049316406,-0.03955078,-0.23730469,-0.10253906,-0.48242188,-0.19042969,-0.171875,0.4609375,0.08496094,-0.375,0.04711914,0.027954102,-0.1484375,-0.10595703,0.12158203,-0.12890625,0.071777344,-0.033447266,0.08544922,0.110839844,0.10986328,0.12988281,-0.109375,-0.05053711,-0.14648438,-0.078125,-0.17480469,0.030883789,-0.08154297,0.17285156,-0.23535156,0.10839844,0.16894531,0.5,0.030639648,0.118652344,-0.25195312,0.30273438,0.18261719,0.11767578,-0.21191406,0.27539062,-0.10253906,-0.09033203,0.4609375,-0.20703125,-0.859375,0.328125,-0.107421875,-0.03515625,-0.18164062,0.059570312,-0.38867188,-0.079589844,0.05053711,-0.075683594,0.21679688,0.057128906,-0.38867188,-0.1640625,0.45507812,0.04638672,0.10498047,0.45898438,0.064941406,0.12597656,-0.07421875,0.5078125,0.014770508,-0.34960938,0.14941406,0.09667969,0.011657715,-0.014465332,-0.6171875,-0.5625,0.0027008057,-0.25976562,-0.07519531,0.26367188,0.0034637451,-0.05908203,-0.08496094,0.16113281,-0.021850586,-0.123535156,-0.15722656,0.12695312,0.00010108948,0.09667969,0.118652344,-0.38085938,0.004058838,-0.08251953,0.21777344,-0.16992188,0.30664062,0.061523438,0.034423828,-0.26757812,0.09375,-0.109375,0.080566406,-0.13574219,-0.49804688,0.087402344,-0.4375,-0.4609375,0.104003906,0.30078125,0.3359375,-0.21875,0.21777344,0.24414062,0.43554688,0.044921875,-0.22265625,-0.15039062,-0.15039062,-0.020629883,0.17480469,0.26367188,0.18945312,0.42382812,0.123046875,-0.057128906,0.12109375,-0.044189453,0.11621094,-0.25195312,-0.25585938,-0.018920898,0.421875,-0.071777344,0.41796875,-0.14746094,-0.13671875,-0.009643555,0.20800781,0.05419922,0.10498047,0.042236328,0.0134887695,0.25390625,-0.21777344,-0.38671875,0.12890625,0.23046875,-0.12109375,-0.16503906,-0.107421875,-0.18652344,-0.17675781,-0.115722656,-0.25,-0.17480469,0.13085938,0.14453125,0.296875,0.37304688,-0.51953125,0.0703125,-2.670288e-05,-0.30859375,-0.0069885254,0.12890625,-0.20410156,-0.07324219,0.17871094,-0.3125,-0.06542969,-0.28125,0.06982422,-0.04345703,0.35742188,0.107910156,0.22265625,0.4453125,0.107910156,-0.51171875,-0.21777344,0.06347656,0.2421875,0.31640625,0.11328125,0.016479492,-0.24316406,0.01928711,0.38867188,-0.20898438,-0.11816406,0.24707031,-0.0625,0.21875
dinosaur,0.17382812,0.076171875,-0.05493164,0.17285156,-0.08203125,-0.20703125,0.012451172,0.115234375,0.13964844,-0.039794922,0.3125,-0.07470703,-0.09765625,-0.42382812,0.014343262,-0.16796875,0.0055236816,-0.04736328,-0.05078125,-0.14355469,0.07128906,-0.29296875,0.068359375,0.28515625,-0.059814453,-0.009765625,-0.38085938,-0.0119018555,0.33007812,-0.34960938,-0.17871094,0.24121094,-0.022827148,0.11816406,-0.034179688,3.2424927e-05,0.11230469,0.34960938,0.20605469,0.5234375,0.084472656,-0.18457031,-0.03125,0.24511719,-0.056884766,-0.21386719,0.072265625,0.22753906,-0.01586914,0.29492188,-0.34960938,-0.22070312,-0.16894531,-0.19433594,-0.10546875,0.24414062,0.0095825195,-0.54296875,0.28125,0.0077209473,-0.095703125,0.076171875,-0.14257812,-0.47070312,-0.36523438,-0.3984375,-0.012512207,-0.14257812,-0.040039062,-0.04345703,0.05883789,-0.20117188,-0.29101562,-0.07324219,-0.16601562,0.265625,0.038330078,-0.007232666,-0.23046875,0.046875,0.16113281,0.104003906,0.05053711,0.010070801,-0.060302734,0.05078125,-0.15527344,0.01159668,0.043701172,0.23828125,-0.025634766,0.05834961,-0.10449219,0.10986328,-0.03881836,0.043945312,0.22460938,0.24804688,0.005859375,-0.234375,0.16699219,-0.10449219,0.02368164,-0.022583008,0.1328125,-0.107421875,0.14648438,0.10253906,0.052978516,-0.17578125,-0.40039062,-0.09667969,0.061279297,0.13964844,0.037597656,0.14550781,-0.0703125,-0.10595703,-0.047607422,-0.019897461,0.0012588501,-0.32226562,-0.00060653687,-0.009643555,-0.27734375,0.014221191,0.28320312,-0.11328125,-0.4296875,0.029174805,-0.19921875,0.10644531,-0.018554688,0.18066406,-0.26367188,0.24511719,-0.06591797,0.11376953,0.055419922,0.46679688,0.114746094,-0.22949219,0.107421875,0.4296875,0.59765625,0.26171875,0.16503906,-0.0546875,0.16601562,-0.018310547,0.17382812,-0.24121094,-0.56640625,0.27539062,0.05908203,0.021972656,-0.15527344,-0.16210938,-0.036621094,-0.12207031,0.29492188,-0.111816406,0.265625,-0.13867188,-0.07910156,0.11328125,0.24804688,-0.13671875,-0.28515625,0.30078125,0.036376953,0.059814453,0.115234375,0.28515625,-0.024780273,-0.22363281,0.02734375,0.123046875,0.13476562,0.28125,-0.17285156,-0.16796875,-0.11230469,-0.18847656,-0.13671875,0.05078125,0.09277344,-0.0005760193,-0.20117188,0.055664062,0.056396484,0.028564453,-0.15039062,0.09814453,-0.040039062,0.19921875,0.10986328,-0.083496094,-0.30078125,0.024291992,-0.03881836,-0.26953125,-0.36914062,0.110839844,0.001701355,0.15527344,0.29882812,-0.022460938,-0.21582031,-0.04248047,-0.26953125,0.034423828,0.016967773,-0.31640625,-0.060058594,0.46289062,0.29296875,-0.111328125,-0.011047363,-0.10546875,0.021362305,-0.27539062,-0.056396484,-0.06689453,-0.046875,-0.06640625,-0.26171875,0.045898438,-0.24121094,0.16015625,0.047607422,-0.42578125,-0.041503906,0.051757812,0.15429688,0.20117188,-0.052246094,0.17578125,0.1328125,0.20605469,0.49023438,-0.625,-0.36523438,-0.28125,0.20996094,0.16308594,-0.03149414,0.40625,0.08300781,-0.12109375,0.03100586,-0.10498047,-0.023071289,-0.05883789,0.21484375,-0.24121094,-0.12695312,-0.013671875,-0.38085938,-0.49609375,0.265625,-0.026733398,0.05859375,0.20019531,-0.041992188,0.22851562,-0.21191406,0.064941406,0.05859375,-0.011962891,-0.096191406,0.25195312,0.18359375,-0.20605469,0.12402344,-0.2578125,0.21582031,-0.037597656,0.19433594,-0.20117188,-0.017211914,0.18457031,0.13476562,0.1796875,-0.10888672,-0.42773438,0.053466797,-0.1484375,0.25,0.08984375,-0.3125,0.05834961,-0.16796875,0.095214844,0.106933594,0.0025787354,0.006713867,0.39257812,-0.16015625,-0.055664062
hammer,0.1875,0.3046875,0.029296875,-0.04711914,0.048095703,0.107421875,0.28320312,0.125,0.18359375,0.328125,-0.31445312,-0.16015625,-0.13183594,0.13378906,-0.13769531,0.095214844,0.0099487305,0.16113281,-0.08935547,-0.36523438,0.01977539,0.10449219,0.22363281,0.057128906,0.14941406,0.044677734,-0.19238281,0.032470703,0.017944336,0.060302734,-0.1640625,0.13964844,0.011291504,0.009033203,-0.022460938,-0.026611328,-0.20800781,0.12890625,0.24316406,0.059326172,0.107910156,0.04248047,0.375,0.16210938,-0.14746094,0.18066406,0.08984375,-0.088378906,0.17480469,0.13378906,0.15917969,0.47070312,-0.106933594,-0.32617188,-0.063964844,-0.020263672,-0.053710938,-0.016967773,0.171875,0.09375,-0.3046875,-0.27148438,0.125,0.049072266,-0.19238281,-0.36914062,0.18945312,-0.16113281,-0.049072266,0.24804688,0.092285156,-0.068847656,0.21289062,-0.21777344,-0.06689453,0.07373047,-0.06689453,0.22167969,0.052978516,-0.11669922,-0.006958008,-0.20214844,-0.14648438,0.053222656,0.3125,0.119628906,0.06738281,-0.08154297,-0.13867188,0.20410156,-0.046875,0.03173828,0.045166016,-0.04272461,-0.15625,-0.10986328,0.32617188,-0.15234375,-0.0022735596,-0.061523438,-0.08300781,-0.33203125,-0.07519531,-0.17382812,0.27929688,-0.28125,0.16992188,0.04638672,0.16992188,-0.11328125,-0.028930664,0.119628906,-0.083984375,-0.032470703,-0.07519531,0.41796875,0.140625,-0.18164062,-0.27929688,0.111816406,0.041259766,0.109375,-0.027954102,0.064941406,0.032714844,-0.06298828,0.11767578,-0.21679688,-0.18554688,0.07324219,0.17480469,-0.14648438,-0.20703125,0.17480469,-0.0859375,0.23144531,-0.029907227,-0.036376953,-0.10839844,-0.119140625,-0.0546875,0.19335938,-0.04345703,-0.26953125,0.28320312,0.14550781,-0.18359375,-0.09667969,0.16699219,0.24121094,0.26757812,-0.08496094,0.25976562,0.25585938,0.010986328,0.20117188,-0.13085938,0.16308594,0.13183594,0.115234375,-0.15917969,0.13964844,0.036132812,-0.43554688,-0.038330078,-0.09667969,-0.009460449,-0.40234375,-0.09082031,0.107910156,0.026733398,0.140625,-0.07080078,-0.04638672,-0.09765625,-0.19824219,0.40039062,-0.06542969,-0.29296875,0.2578125,0.037353516,0.23828125,0.03930664,0.27148438,-0.01928711,-0.06933594,0.016967773,0.12060547,0.24316406,0.017333984,0.27929688,0.05908203,0.0024719238,0.16503906,-0.16308594,-0.029296875,0.203125,-0.14453125,-0.25390625,-0.064941406,-0.22070312,0.1875,-0.24609375,-0.12109375,0.052490234,-0.18066406,0.034423828,-0.1484375,0.265625,0.018432617,-0.053710938,-0.2265625,0.19726562,-0.03955078,-0.10449219,-0.15039062,-0.08300781,0.20507812,-0.028320312,0.12207031,-0.04272461,-0.09033203,0.22558594,0.31054688,0.20703125,-0.05493164,0.057128906,0.033691406,0.007171631,-0.26171875,-0.07128906,-0.24707031,-0.078125,0.114746094,0.109375,0.08154297,0.015563965,0.049804688,0.13183594,0.06591797,-0.03564453,0.080566406,-0.009460449,-0.29882812,0.16210938,-0.16308594,-0.06933594,0.026611328,0.088378906,-0.010253906,-0.34960938,0.40039062,-0.15429688,-0.14746094,0.29492188,0.22167969,-0.23242188,-0.20117188,0.20507812,-0.16699219,-0.12402344,-0.119628906,-0.35351562,-0.21972656,-0.14550781,0.23535156,-0.110839844,0.18261719,0.10644531,0.18652344,-0.061767578,0.34375,0.087402344,0.07861328,0.29101562,0.061035156,-0.038085938,-0.14160156,-0.11328125,0.17089844,-0.15820312,0.1953125,0.038085938,0.22265625,-0.22753906,-0.0022583008,-0.15527344,0.022583008,0.012756348,-0.057128906,0.012390137,-0.25195312,-0.05834961,-0.13671875,-0.234375,-0.12988281,-0.12109375,0.13574219,0.022949219,-0.103027344
screwdriver,-0.026855469,-0.0011520386,-0.04321289,-0.14355469,-0.17382812,0.36914062,-0.09082031,0.04272461,0.10107422,0.010314941,0.030029297,-0.1875,-0.09277344,0.07763672,-0.14160156,0.091796875,-0.01159668,0.1640625,-0.14941406,-0.21875,0.26757812,-0.0063171387,0.111328125,-0.032958984,-0.12060547,0.10107422,-0.25,0.28320312,0.375,0.16601562,-0.040527344,0.23925781,-0.09667969,-0.009155273,-0.14355469,-0.09472656,0.095214844,0.10253906,-0.12402344,0.033447266,0.17871094,0.18554688,0.47070312,0.099121094,0.000831604,0.21191406,-0.1484375,0.1640625,0.04248047,-0.099121094,-0.3828125,0.13769531,0.010131836,-0.17675781,-0.013671875,-0.09863281,0.12792969,0.115234375,-0.12890625,0.016357422,-0.07861328,-0.037353516,0.34960938,0.061767578,-0.08886719,0.08544922,0.037353516,-0.5234375,0.25195312,0.047607422,0.29296875,0.055664062,0.099121094,-0.5,-0.62109375,0.15332031,-0.21972656,-0.21777344,0.15234375,-0.5546875,0.20019531,0.07421875,-0.10449219,0.08496094,-0.15039062,0.14941406,0.03149414,0.35742188,0.31835938,0.0034637451,-0.13574219,-0.15039062,0.18847656,-0.12695312,0.22558594,-0.3046875,0.18164062,-0.08300781,0.12402344,0.03466797,-0.12451172,-0.19335938,0.109375,-0.15820312,0.068847656,-0.027954102,0.06640625,0.038085938,0.34179688,-0.3203125,0.08544922,-0.46484375,0.25390625,-0.02709961,-0.19335938,0.014282227,0.30078125,-0.026123047,-0.023925781,-0.027954102,0.018066406,0.11230469,-0.25585938,-0.0048828125,-0.028564453,0.13378906,0.08154297,-0.08154297,0.17773438,0.234375,0.036865234,-0.12158203,-0.4453125,0.06689453,0.171875,0.5625,0.053466797,-0.16308594,-0.33007812,0.46679688,0.003616333,0.14453125,-0.2265625,-0.28515625,-0.21191406,0.26757812,-0.17089844,-0.08544922,-0.09716797,-0.24804688,0.51953125,-0.11767578,0.12158203,0.12695312,-0.083496094,0.067871094,-0.6015625,0.32421875,0.111816406,-0.033447266,-0.0234375,0.083496094,-0.022827148,-0.41210938,-0.08251953,0.012268066,0.33789062,-0.18164062,-0.09472656,-0.44921875,0.09765625,0.08300781,-0.03881836,0.021728516,-0.24804688,-0.12402344,0.22851562,-0.13183594,-0.4609375,0.22265625,-0.41992188,0.21582031,-0.06689453,0.014770508,-0.014770508,-0.022827148,-0.01928711,0.12792969,0.2890625,0.13085938,-0.19726562,-0.047851562,-0.36523438,0.07861328,-0.14550781,0.10839844,-0.24609375,-0.14550781,-0.29492188,0.1875,-0.30273438,-0.07080078,-0.17480469,0.43554688,0.23144531,-0.07373047,0.00038337708,-0.053222656,0.23046875,-0.083984375,0.32421875,-0.115722656,-0.21484375,0.06738281,0.06347656,-0.27148438,-0.051757812,0.48046875,-0.06982422,0.41601562,-0.11230469,-0.25390625,-0.0003528595,0.14257812,-0.26367188,0.06201172,0.2734375,0.1640625,-0.36328125,-0.34179688,-0.31054688,-0.16113281,-0.3046875,-0.19433594,0.021240234,-0.11669922,-0.002670288,-0.07421875,0.20800781,0.22167969,0.049072266,-0.12597656,-0.359375,-0.38476562,0.043701172,-0.0859375,-0.14257812,-0.21582031,0.35742188,-0.16210938,-0.099121094,-0.016845703,0.18847656,-0.103515625,0.23632812,0.15136719,-0.21191406,-0.045166016,0.1484375,-0.115722656,0.44726562,-0.09326172,-0.515625,-0.19726562,-0.13085938,0.34960938,-0.110839844,-0.27539062,-0.041503906,0.114746094,0.033447266,0.15234375,-0.2578125,0.37695312,0.28320312,-0.18652344,0.07080078,-0.123046875,-0.22851562,0.118652344,-0.13769531,0.14746094,0.140625,0.296875,-0.14257812,-0.32421875,-0.039794922,-0.22558594,-0.0011901855,0.16699219,-0.092285156,0.18164062,-0.088378906,0.32226562,-0.40039062,-0.25390625,0.14160156,0.16113281,-0.27734375,-0.07421875
cylindrical_grinding,-0.06347656,0.072753906,0.038085938,-0.00970459,-0.064941406,0.13574219,0.034179688,-0.044677734,-0.013122559,0.007873535,-0.06591797,0.033447266,-0.003112793,-0.0079956055,0.017578125,0.0703125,0.038085938,0.029296875,-0.01373291,-0.06689453,-0.030151367,0.022460938,-0.008911133,0.100097656,0.0050354004,-0.030517578,-0.107421875,0.06591797,-0.018798828,-0.07080078,-0.036376953,-0.03881836,0.03491211,0.0036621094,0.063964844,-0.125,0.036865234,0.072265625,-0.012451172,-0.03515625,0.07470703,0.079589844,0.010681152,0.056640625,0.01586914,-0.140625,0.00982666,0.033691406,0.006866455,0.03857422,-0.041992188,0.015991211,-0.05126953,0.016113281,0.025756836,0.038330078,0.092285156,-0.031982422,0.033203125,-0.04663086,-0.13085938,-0.007751465,-0.030883789,-0.031982422,0.009887695,0.0154418945,-0.09667969,0.024169922,-0.04711914,0.03491211,0.09326172,-0.06591797,0.021972656,-0.055419922,-0.095214844,-0.08642578,0.095703125,-0.14746094,-0.0040893555,0.011291504,-0.034179688,-0.022949219,0.01574707,0.049072266,0.12011719,0.003768921,0.013671875,0.09765625,0.029052734,0.013183594,-0.026733398,0.0040283203,0.027832031,0.075683594,-0.051757812,-0.024291992,0.0007019043,-0.068359375,0.10205078,0.025634766,0.020507812,-0.08203125,-0.072265625,0.0028533936,0.010498047,0.09765625,-0.008117676,0.042236328,-0.03173828,0.021118164,-0.005065918,-0.06982422,-0.071777344,-0.020385742,-0.08105469,0.021118164,-0.07128906,0.06689453,0.08544922,-0.095703125,-0.027832031,-0.006591797,0.04638672,-0.051513672,0.0036010742,-0.026611328,-0.0625,-0.017700195,0.0625,0.060302734,0.05810547,0.107421875,-0.12695312,-0.025146484,-0.041503906,0.023071289,0.07861328,-0.026123047,-0.05444336,0.08642578,0.02746582,-0.01361084,-0.061767578,0.08154297,-0.034179688,0.056396484,0.08251953,0.052001953,-0.063964844,-0.028320312,0.12988281,-0.037353516,-0.01373291,0.11035156,-0.045410156,-0.002380371,-0.083984375,0.037597656,-0.05810547,-0.002609253,0.0022735596,-0.008544922,-0.046142578,-0.016601562,0.011230469,-0.0859375,-0.003829956,-0.046875,-0.033447266,-0.11767578,0.044433594,0.020385742,-0.00491333,0.026977539,0.010986328,0.02722168,0.025390625,-0.12597656,-0.110839844,0.03881836,-0.12402344,-0.02734375,0.06347656,0.024291992,0.026367188,-0.064941406,0.09814453,-0.080078125,0.011779785,0.052734375,-0.04711914,0.008483887,-0.0050354004,-0.020751953,-0.0033721924,-0.016479492,0.057617188,-0.045166016,0.0047302246,-0.1328125,0.02319336,0.08642578,-0.044189453,-0.0018386841,-0.07373047,-0.005004883,0.0014266968,0.0052490234,0.0057373047,-0.071777344,0.06591797,-0.016235352,-0.05859375,0.029663086,0.019897461,-0.02758789,0.024902344,0.0036621094,-0.1015625,-0.008911133,-0.037353516,-0.006011963,0.053222656,0.029052734,-0.0234375,-0.026245117,-0.079589844,0.020629883,-0.041992188,-0.072265625,0.013183594,0.014465332,-0.04663086,-0.020751953,-0.07373047,-0.053955078,-0.040771484,-0.0004234314,-0.0008773804,0.071777344,0.0056152344,-0.02734375,-0.114746094,0.0095825195,0.083496094,-0.012023926,-0.07470703,0.030029297,-0.008239746,-0.10058594,0.0006752014,0.079589844,0.075683594,0.025390625,0.033935547,-0.03857422,0.023925781,-0.08300781,0.010253906,-0.022460938,0.005432129,-0.024780273,-0.06298828,-0.03955078,-0.00592041,0.09326172,0.028808594,-0.038085938,-0.11035156,-0.0012512207,0.013122559,-0.033447266,0.0234375,-0.055908203,0.042236328,-0.0011978149,-0.06201172,-0.022094727,-0.068359375,0.06542969,-0.07128906,0.083496094,0.0234375,-0.019897461,-0.05883789,-0.01171875,0.014099121,-0.06640625,0.05517578,0.06347656,-0.06298828,0.029296875,-0.12792969,0.030395508,-0.021972656,-0.018066406,0.046875,0.0390625,-0.022583008,0.016967773
vacuum_cleaner,0.33984375,0.20898438,-0.087402344,0.13964844,-0.20898438,0.114746094,-0.041259766,0.21289062,0.171875,0.19238281,-0.09082031,-0.35351562,0.29882812,-0.119628906,0.28710938,0.05517578,-0.04663086,0.27929688,0.06298828,-0.087402344,0.18457031,-0.010498047,0.028564453,-0.0107421875,0.115234375,-0.057373047,-0.24023438,0.15332031,0.18554688,0.14355469,-0.390625,-0.15625,-0.31640625,0.13964844,-0.12597656,-0.19335938,0.099121094,0.114746094,0.04248047,0.07324219,-0.025512695,0.007446289,0.171875,0.29882812,-0.19824219,0.110839844,-0.15136719,0.09423828,0.12792969,-0.19335938,-0.17382812,0.13574219,0.10986328,-0.06542969,-0.063964844,-0.21679688,0.25,-0.15136719,0.119628906,0.022338867,-0.18945312,0.18457031,-0.20410156,0.10595703,0.05517578,-0.12158203,-0.27539062,0.18164062,-0.080566406,-0.03930664,0.33789062,-0.16210938,0.13769531,-0.020996094,-0.37109375,-0.18164062,0.055908203,-0.14941406,0.140625,-0.34960938,0.10644531,0.1796875,0.25976562,0.10253906,-0.08203125,0.328125,-0.03881836,0.41992188,-0.17480469,0.11767578,-0.14355469,-0.032470703,-0.25390625,-0.14355469,-0.07763672,0.056396484,-0.020996094,-0.24804688,0.123046875,0.1875,-0.00046348572,-0.16796875,0.0018005371,-0.06640625,-0.14257812,-0.10253906,0.104003906,0.23046875,0.0036621094,-0.27929688,0.13085938,0.091308594,0.11035156,0.08886719,0.107421875,0.040039062,-0.30859375,0.16113281,-0.087402344,-0.19140625,0.05517578,-0.016479492,-0.0049743652,-0.20996094,-0.30078125,0.0032806396,-0.16894531,-0.2734375,0.43164062,-0.1015625,0.07324219,-0.12792969,-0.359375,0.38476562,0.14648438,0.12011719,-0.25390625,0.0064086914,-0.19921875,-0.036865234,0.25390625,-0.026245117,0.18652344,-0.014953613,-0.012756348,0.26367188,-0.1328125,0.19726562,0.11328125,-0.09716797,0.19335938,-0.37695312,-0.064941406,0.26953125,-0.008605957,0.02746582,-0.28125,-0.2734375,0.053710938,0.028442383,0.123535156,0.19433594,-0.103515625,-0.19726562,0.05078125,-0.032470703,0.36132812,-0.02746582,-0.123046875,-0.07080078,-0.027832031,0.05810547,-0.12597656,0.25976562,-0.64453125,0.052246094,0.3203125,-0.05834961,-0.32421875,0.17871094,0.15429688,0.14257812,0.10449219,-0.08642578,0.119140625,0.028076172,-0.028076172,0.20410156,-0.080566406,0.2734375,-0.34570312,0.047851562,0.07324219,0.23632812,0.23632812,0.068847656,-0.1640625,-0.296875,-0.18652344,-0.09667969,-0.21191406,0.04711914,-0.20703125,0.30859375,-0.07519531,0.20898438,0.16015625,0.008239746,-0.119628906,-0.12597656,-0.03930664,-0.05078125,-0.33203125,0.012756348,0.26953125,0.030883789,-0.049316406,0.33789062,-0.13378906,0.06542969,-0.109375,-0.019042969,0.26757812,0.00680542,0.006713867,-0.0040893555,-0.024658203,0.111816406,-0.11621094,-0.28320312,-0.068847656,0.06982422,-0.30273438,-0.16992188,-0.18945312,0.27539062,0.03540039,-0.25390625,-0.03466797,-0.23046875,0.07128906,-0.22851562,-0.24804688,-0.119628906,0.10253906,-0.24316406,-0.0067443848,-0.11621094,0.10449219,-0.47460938,-0.20410156,-0.009277344,0.18359375,0.083496094,0.040039062,0.21679688,-0.12988281,0.072753906,0.31054688,-0.057373047,0.38085938,-0.042236328,-0.5078125,-0.08300781,-0.07421875,0.35546875,-0.24316406,-0.21777344,0.072265625,0.34765625,-0.064941406,-0.06640625,0.1015625,0.33007812,0.2734375,-0.13085938,-0.12597656,-0.0042419434,0.28710938,-0.0859375,-0.06933594,0.048095703,0.27148438,0.22265625,-0.16601562,0.19628906,-0.022827148,-0.1328125,0.026489258,0.29296875,-0.13769531,0.2578125,-0.29492188,-0.104003906,0.10058594,-0.23632812,0.016723633,0.42578125,-0.083496094,-0.06298828
spanner,0.12988281,-0.10107422,-0.27929688,-0.016357422,-0.30859375,0.092285156,0.12451172,0.14355469,0.16699219,0.27929688,-0.10449219,-0.08691406,-0.14257812,-0.1640625,-0.51953125,0.26171875,0.2265625,-0.17578125,0.06689453,-0.45117188,0.27539062,0.060546875,0.28710938,0.05834961,0.4375,0.49609375,-0.19238281,0.13085938,0.0005836487,0.19921875,-0.18554688,0.3671875,0.075683594,0.40625,0.022216797,-0.07421875,-0.016723633,0.40039062,-0.020996094,-0.18261719,-0.2109375,-0.19824219,0.19238281,0.6328125,-0.100097656,-0.3046875,-0.28710938,0.11279297,0.31835938,-0.095214844,-0.26171875,0.32421875,-0.05517578,-0.49023438,-0.39453125,0.14453125,-0.05493164,-0.3515625,-0.24121094,-0.07080078,-0.22753906,-0.265625,0.044677734,-0.18847656,-0.32421875,-0.06640625,0.044433594,-0.26171875,-0.34960938,0.265625,-0.091796875,-0.056152344,0.24707031,0.0021209717,-0.11669922,0.18945312,0.11035156,0.122558594,0.17578125,-0.20703125,0.21484375,0.19335938,0.013305664,-0.19921875,0.23730469,0.29101562,0.07519531,-0.203125,-0.1875,0.119140625,-0.06298828,-0.07861328,0.19433594,-0.0058898926,-0.13378906,-0.23144531,0.359375,-0.34570312,0.12695312,0.119628906,0.13964844,-0.16210938,0.27148438,0.0045166016,0.20117188,-0.20800781,0.05908203,0.07861328,0.46875,-0.09082031,-0.033935547,-0.02331543,0.078125,0.044189453,0.008117676,0.20800781,-0.26367188,-0.09667969,0.04711914,0.31054688,0.3359375,0.2109375,-0.27539062,0.0018463135,-0.25195312,0.0028686523,0.041503906,-0.19726562,-0.30664062,-0.49414062,0.06640625,-0.25976562,-0.15136719,-0.25195312,0.1640625,0.53515625,0.051513672,-0.09423828,-0.33203125,0.375,0.14257812,-0.17089844,0.08642578,-0.10888672,0.12060547,-0.03540039,-0.28515625,0.107421875,-0.1640625,0.049072266,0.45703125,-0.1875,-0.07763672,0.5078125,0.3125,-0.1640625,-0.41992188,0.15527344,-0.123535156,-0.012207031,-0.115722656,0.026855469,0.140625,-0.19726562,0.265625,-0.2578125,-0.017333984,-0.1796875,-0.104003906,0.023071289,-0.028564453,0.016845703,0.08154297,0.109375,0.16210938,-0.26757812,0.6015625,-0.46289062,0.55078125,0.33984375,-0.056152344,0.028076172,0.25,-0.17871094,0.022949219,0.29492188,0.34179688,0.51171875,-0.19140625,0.061523438,-0.07324219,0.29296875,-0.10644531,0.25,0.115234375,-0.14746094,-0.21972656,0.375,-0.33007812,-0.11328125,0.31835938,-0.072265625,-0.23339844,0.046875,-0.12011719,-0.11669922,-0.55859375,0.044921875,0.28710938,-0.08642578,0.17089844,-0.041503906,-0.1640625,-0.29882812,0.12060547,-0.515625,-0.21386719,0.119628906,0.03564453,0.55078125,-0.07373047,-0.2734375,-0.10595703,0.40625,0.027954102,-0.111328125,-0.055664062,0.07128906,0.056640625,-0.22070312,-0.059326172,0.019165039,-0.076171875,-0.14160156,0.091308594,-0.15917969,0.171875,-0.17480469,0.13671875,0.16308594,-0.46484375,0.19238281,-0.08105469,-0.23828125,0.14746094,-0.36132812,-0.56640625,-0.15234375,-0.44140625,0.007232666,0.13476562,0.23730469,0.3203125,0.1015625,0.25976562,0.30859375,-0.11279297,-0.1328125,0.13964844,-0.07714844,-0.111328125,0.16503906,-0.46484375,-0.18554688,-0.27148438,0.26757812,-0.20898438,0.0859375,-0.1875,-0.20996094,-0.44726562,0.12402344,-0.02758789,-0.27734375,0.115722656,-0.14746094,0.24804688,-0.039794922,0.16503906,0.19726562,0.075683594,0.25195312,0.045166016,-0.004425049,-0.099609375,-0.078125,-0.11279297,-0.14941406,0.25390625,-0.18554688,0.020751953,0.05908203,-0.2109375,-0.38085938,-0.3359375,-0.2734375,-0.115722656,0.09082031,-0.084472656,0.0099487305
lawn_mower,0.31054688,0.00289917,-0.15136719,0.078125,-0.020507812,-0.022338867,0.001449585,0.08544922,-0.03564453,0.15917969,0.08203125,-0.12988281,-0.07763672,0.040771484,0.19042969,0.12060547,-0.10205078,0.49804688,0.24902344,0.119628906,0.03515625,-0.020751953,0.0859375,-0.09375,-0.21289062,0.20214844,-0.17578125,0.546875,0.30078125,0.16015625,-0.42773438,0.1015625,-0.034179688,0.040283203,-0.24316406,-0.11425781,0.3046875,0.053466797,0.052734375,0.061523438,0.28320312,0.063964844,0.2734375,0.092285156,-0.19140625,0.11425781,-0.27148438,0.18066406,0.100097656,-0.0078125,-0.33398438,0.17578125,-0.03491211,0.009033203,-0.15527344,0.06298828,0.14160156,-0.079589844,-0.16015625,0.17089844,0.12988281,-0.06640625,-0.10644531,0.080078125,0.09423828,0.30664062,-0.08154297,0.17578125,-0.140625,-0.02746582,0.40039062,0.0703125,-0.13964844,-0.14160156,-0.20605469,-0.0051879883,0.122558594,-0.53515625,-0.11621094,-0.40625,0.2890625,-0.08935547,0.23925781,0.059326172,-0.15429688,0.19628906,-0.19238281,0.31054688,-0.032226562,-0.076660156,-0.107910156,0.40625,0.010620117,-0.25,0.111328125,-0.19238281,0.1328125,-0.3828125,0.016723633,-0.032470703,0.068359375,-0.34375,-0.055419922,-0.00037765503,0.08203125,0.021118164,-0.045410156,-0.017700195,0.0063476562,-0.2578125,-0.08935547,-0.19628906,0.13183594,-0.095214844,0.34960938,-0.25976562,0.3671875,0.2578125,-0.23339844,-0.22265625,0.100097656,-0.044433594,-0.044677734,-0.21386719,0.002029419,0.004425049,-0.0013961792,-0.16015625,0.10498047,0.39257812,-0.22070312,-0.060791016,-0.390625,0.008666992,0.13671875,0.22460938,0.092285156,-0.3515625,0.026245117,0.34570312,0.014892578,-0.19824219,0.12792969,-0.01928711,0.09863281,0.032226562,-0.21289062,-0.16015625,-0.011291504,-0.31445312,0.36328125,-0.18554688,0.15429688,0.1328125,-0.1484375,0.203125,0.004699707,-0.017211914,-0.19140625,-0.1640625,0.15722656,0.28710938,0.12109375,-0.088378906,0.16796875,0.15136719,0.22363281,-0.34765625,-0.08154297,-0.15820312,0.072753906,-0.10205078,-0.07910156,0.123046875,-0.66015625,-0.203125,0.30859375,0.091308594,-0.32226562,0.18847656,-0.30859375,0.15136719,0.265625,0.15332031,-0.011413574,0.16894531,-0.17089844,0.421875,-0.13867188,0.05810547,-0.01953125,-0.02319336,-0.3984375,0.22167969,0.4609375,-0.1640625,-0.34765625,-0.22851562,-0.18945312,-0.37890625,-0.26953125,-0.29492188,-0.44921875,-0.044433594,-0.171875,-0.0079956055,0.04248047,-0.28515625,-0.24804688,0.14355469,0.21972656,0.009399414,-0.05053711,0.103515625,0.20410156,0.010375977,-0.3828125,0.25195312,0.055419922,0.01184082,-0.12792969,-0.25585938,0.25195312,-0.328125,0.104003906,-0.22363281,0.26367188,0.30664062,0.07861328,-0.13769531,-0.30078125,-0.041992188,-0.1171875,-0.110839844,-0.40429688,0.09765625,0.29882812,-0.092285156,0.15527344,-0.09667969,-0.025024414,-0.22949219,-0.49609375,-0.265625,-0.15722656,0.06933594,0.0014953613,-0.39453125,0.34375,-0.5859375,-0.033447266,0.19628906,-0.044677734,-0.079589844,0.24902344,0.22167969,0.057373047,-0.12988281,-0.08203125,-0.24121094,0.35351562,-0.15527344,-0.27929688,-0.07763672,-0.03466797,0.16503906,-0.359375,-0.19921875,0.11230469,0.26757812,-0.20996094,-0.07470703,0.055664062,0.26953125,-0.07324219,-0.067871094,-0.013305664,-0.13867188,-0.029052734,0.20898438,0.030883789,-0.045898438,0.26367188,-0.079589844,-0.13867188,-0.328125,0.029296875,0.20507812,0.103027344,0.23730469,-0.12402344,0.26757812,-0.1171875,0.12792969,-0.006378174,-0.1796875,0.059570312,0.203125,-0.17773438,-0.036132812
Axe,0.05102539,0.07128906,-0.11230469,0.13867188,-0.12695312,0.18359375,-0.26171875,-0.24511719,0.2734375,-0.14746094,0.19921875,0.07080078,-0.1328125,0.16992188,-0.107421875,-0.05126953,-0.05078125,-0.08105469,-0.017333984,0.125,-0.19238281,0.20898438,0.16503906,0.0029754639,0.21484375,0.076171875,-0.15136719,0.13867188,0.23046875,0.08984375,0.21289062,0.060546875,-0.0030517578,-0.14355469,-0.11328125,-0.20117188,0.10253906,0.10546875,0.359375,0.10839844,-0.1640625,-0.19628906,-0.12060547,0.020629883,-0.44921875,-0.24707031,-0.025390625,-0.28515625,0.08154297,0.034179688,-0.14550781,-0.030883789,-0.019165039,-0.014038086,0.15332031,-0.018920898,-0.045654297,-0.13671875,-0.0021820068,-0.024414062,0.110839844,0.12158203,-0.12402344,-0.09375,-0.3203125,-0.21582031,0.0069274902,-0.06225586,-0.15820312,-0.052978516,0.0024414062,-0.19042969,0.25,-0.034179688,-0.16015625,0.30078125,0.046142578,0.17089844,-0.026733398,-0.016235352,-0.040527344,-0.12597656,-0.034423828,-0.30273438,-0.024658203,-0.234375,0.22167969,0.23339844,0.18164062,0.079589844,-0.08154297,-0.08496094,-0.07421875,-0.005279541,0.10546875,0.064941406,0.064941406,-0.084472656,0.119140625,-0.07763672,-0.07910156,-0.18554688,0.008666992,0.07470703,0.060058594,-0.36914062,0.020996094,0.022583008,0.08251953,0.028686523,-0.23730469,0.013366699,0.33789062,-0.1640625,0.359375,0.03491211,-0.095703125,0.17675781,-0.26367188,-0.20410156,0.044921875,-0.18945312,-0.12695312,-0.115722656,0.029541016,0.039794922,-0.103515625,-0.06347656,0.13183594,-0.076660156,0.07324219,-0.21484375,-0.578125,-0.19433594,-0.25195312,0.1875,0.20898438,-0.025268555,-0.099609375,0.14648438,0.020141602,-0.14160156,-0.09423828,-0.55078125,0.12792969,-0.008666992,0.17871094,0.021118164,-0.15625,-0.017089844,0.13085938,0.17675781,0.18457031,-0.10546875,-0.04663086,0.017700195,-0.041992188,0.05102539,-0.103027344,-0.21386719,0.11035156,0.023071289,-0.0046081543,-0.106933594,0.06689453,-0.018432617,-0.010559082,-0.20996094,-0.18652344,-0.08935547,0.30859375,-0.13378906,-0.0625,0.009033203,-0.23632812,0.016845703,0.030151367,-0.3984375,-0.17578125,-0.21484375,0.10205078,-0.23242188,0.07910156,-0.4921875,-0.31640625,-0.12890625,0.20605469,0.15039062,0.33398438,-0.140625,-0.20800781,-0.010620117,-0.01928711,-0.14941406,-0.09277344,-0.1640625,0.16992188,-0.0011138916,0.123535156,0.34570312,0.37695312,0.02319336,-0.1484375,-0.024902344,0.09277344,0.30078125,-0.13085938,0.09765625,-0.51171875,0.025146484,-0.16699219,0.19042969,-0.1328125,0.16992188,-0.125,-0.36132812,-0.15722656,-0.122558594,0.064453125,-0.30859375,-0.12890625,0.16503906,-0.3125,-0.22070312,0.040527344,0.23925781,0.020996094,-0.11328125,-0.04345703,-0.020385742,-0.23046875,0.0027618408,0.061523438,0.22167969,-0.05029297,-0.03540039,-0.020385742,-0.10839844,0.29882812,0.12597656,0.10449219,0.033691406,-0.10546875,-0.11279297,0.08544922,-0.24902344,-0.37695312,-0.009277344,-0.41210938,-0.0031433105,-0.34960938,0.05859375,0.14648438,0.1484375,0.123535156,0.13671875,-0.43945312,0.05419922,0.29101562,-0.16699219,0.26171875,0.025268555,-0.18261719,0.027709961,-0.103027344,-0.08105469,-0.5625,0.24414062,0.31445312,0.11279297,-0.007873535,-0.052001953,0.0046081543,0.026489258,0.26171875,-0.071777344,0.08886719,-0.13964844,0.1484375,0.13671875,0.0107421875,-0.059570312,0.24414062,0.16699219,-0.022338867,-0.044921875,-0.21289062,0.0008049011,-0.003616333,-0.45703125,-0.0009918213,-0.14355469,-0.25390625,-0.23632812,-0.19140625,-0.16503906,-0.09814453,0.027954102,-0.20410156,-0.060302734
saw,0.09423828,0.20117188,0.092285156,0.023071289,0.056152344,-0.27148438,0.09667969,-0.080566406,0.080566406,0.20800781,0.019042969,-0.16503906,-0.0050964355,0.0546875,0.03515625,-0.05053711,0.02368164,0.30273438,-0.10253906,0.052490234,-0.15039062,0.068359375,0.0018539429,0.079589844,0.033691406,-0.059326172,0.056396484,0.29492188,0.21679688,0.30078125,-0.1328125,-0.053955078,-0.06201172,-0.06347656,0.03125,0.17578125,0.04321289,0.05126953,-0.060058594,0.15527344,0.106933594,-0.20898438,0.34179688,0.068359375,-0.08886719,0.12207031,-0.17578125,-0.21777344,0.10839844,-0.07910156,-0.12451172,-0.15234375,-0.11621094,0.1953125,0.012573242,0.11035156,0.14746094,0.2578125,0.14355469,0.0079956055,-0.07128906,0.119140625,-0.052246094,-0.23925781,-0.05493164,0.09765625,0.06689453,0.03125,0.0046081543,0.10644531,-0.21191406,-0.0054626465,0.234375,0.1796875,-0.14648438,0.0057373047,0.16308594,0.119628906,0.013305664,0.022949219,0.16015625,-0.0071411133,0.08984375,0.014404297,-0.017456055,0.040527344,-0.103515625,0.020263672,-0.076171875,0.016235352,-0.0107421875,0.107910156,-0.10595703,-0.06298828,-0.06738281,-0.16894531,-0.09716797,0.24121094,-0.052001953,-0.0004234314,0.055419922,-0.08691406,-0.14453125,0.19238281,0.28320312,-0.06542969,0.10498047,-0.06640625,-0.20019531,-0.045166016,-0.018676758,0.06640625,0.0859375,0.0028686523,0.030029297,-0.10498047,0.09082031,0.0119018555,0.0859375,0.07128906,0.059814453,0.095703125,-0.17675781,-0.099121094,-0.006439209,0.118652344,0.036376953,-0.12890625,0.123046875,0.25,-0.05029297,-0.059814453,-0.24902344,0.022216797,0.27539062,0.061767578,0.095703125,0.068847656,-0.0056152344,0.140625,-0.19628906,0.052734375,0.1328125,0.05029297,0.025024414,0.32421875,0.010253906,-0.21386719,-0.091796875,-0.08984375,0.03564453,0.16796875,-0.095703125,0.36523438,-0.027832031,0.36132812,-0.040039062,0.045166016,0.0018234253,-0.01184082,0.013000488,-0.107421875,-0.125,0.024169922,0.080078125,-0.022460938,0.125,-0.22949219,0.17285156,-0.053222656,-0.114746094,-0.060791016,0.055908203,-0.11376953,-0.15820312,-0.119628906,0.24902344,0.14453125,0.20898438,0.103515625,0.048828125,0.04663086,0.1015625,0.032958984,-0.0234375,-0.11230469,-0.10058594,0.009521484,0.034179688,0.004699707,0.17773438,-0.25195312,0.111816406,0.15527344,0.045898438,0.30859375,0.1640625,-0.09277344,-0.0071411133,-0.2734375,0.15136719,-0.004333496,-0.068847656,-0.25585938,0.040283203,0.16503906,-0.040771484,0.06225586,0.095703125,0.028442383,0.03955078,0.16796875,-0.10839844,0.032226562,-0.10546875,-0.27929688,0.13476562,-0.025390625,-0.30664062,-0.16601562,0.12890625,0.18261719,0.04272461,0.03491211,-0.15039062,-0.10253906,0.12402344,0.08251953,-0.07470703,-0.18457031,0.088378906,-0.038085938,0.16894531,-0.061523438,0.07421875,0.115234375,0.17578125,0.08300781,0.1640625,0.09033203,0.171875,0.060058594,0.012268066,0.018554688,-0.10644531,-0.007080078,0.05908203,0.04272461,0.17382812,-0.024536133,0.16503906,-0.26367188,0.28125,0.072753906,-0.103027344,-0.060058594,-0.09277344,0.13183594,-0.1015625,-0.16796875,-0.21972656,0.068847656,0.2265625,0.053466797,0.056884766,0.171875,-0.011352539,0.07470703,0.057373047,0.115234375,0.20800781,0.06640625,0.072265625,0.068359375,0.1640625,0.012634277,-0.115722656,-0.12792969,-0.016967773,-0.064941406,-0.08154297,0.17871094,-0.16699219,0.022827148,0.006134033,-0.045898438,-0.12792969,0.028930664,0.013671875,-0.15722656,-0.18457031,-0.16992188,-0.11425781,0.203125,-0.12890625,-0.10498047,0.067871094,-0.18457031,0.20605469,0.025268555
knife,-0.10498047,-0.03491211,0.29296875,-0.25390625,-0.25195312,0.27539062,-0.0036773682,-0.059570312,-0.012084961,0.25195312,-0.21582031,-0.095214844,-0.0020446777,0.24804688,-0.17285156,-0.16503906,-0.17480469,-0.005126953,-0.048339844,-0.18359375,0.20019531,-0.08154297,0.23339844,0.018920898,-0.20703125,-0.064941406,0.27539062,-0.06933594,0.23535156,0.060791016,0.06933594,0.12207031,0.23046875,-0.27539062,-0.009094238,-0.1484375,0.04711914,0.095703125,-0.16015625,0.19140625,0.083984375,0.103027344,0.37109375,-0.05810547,0.06347656,0.10498047,-0.076660156,0.23535156,0.20507812,0.06933594,-0.080566406,0.05810547,-0.006134033,-0.51953125,-0.15429688,-0.19433594,-0.07910156,0.06591797,-0.24902344,0.04638672,0.025756836,0.28125,0.18457031,0.007873535,-0.055419922,0.0040893555,0.20703125,-0.25585938,0.06933594,0.038085938,-0.071777344,0.009399414,0.37109375,-0.111816406,-0.29296875,0.0625,0.021606445,-0.15722656,0.096191406,-0.37890625,0.25,-0.26171875,-0.028076172,-0.171875,-0.15332031,0.014587402,-0.2890625,0.30859375,0.08300781,-0.08691406,-0.15625,0.0061950684,0.07080078,-0.034423828,0.17871094,-0.44921875,0.15136719,-0.11767578,0.15332031,0.033691406,-0.14941406,-0.25976562,0.19433594,-0.25,0.22167969,-0.234375,0.2265625,-0.20898438,0.025146484,-0.26757812,-0.18554688,-0.38671875,0.076660156,0.004333496,-0.36914062,-0.26757812,0.15917969,-0.26757812,0.011657715,0.08691406,0.083984375,0.114746094,-0.20019531,-0.025146484,-0.024169922,-0.265625,0.064941406,-0.06933594,0.036376953,0.10595703,0.025634766,-0.18554688,-0.65234375,0.16699219,0.041015625,0.46289062,0.25195312,-0.14550781,-0.06689453,0.3515625,-0.22070312,0.051513672,0.07763672,-0.2265625,-0.14453125,0.29492188,-0.22753906,-0.13085938,0.020996094,-0.27539062,0.33007812,0.119140625,0.21191406,0.38671875,-0.31640625,-0.008178711,-0.45117188,0.25976562,0.057128906,-0.22070312,-0.12207031,0.04321289,0.31445312,-0.27539062,-0.083984375,0.033691406,0.18066406,-0.18359375,0.01171875,-0.296875,0.22363281,-0.19433594,0.08251953,-0.003967285,-0.375,-0.12695312,0.21679688,-0.09667969,-0.31640625,0.15136719,-0.27734375,-0.10058594,0.14941406,-0.08251953,-0.12597656,-0.07910156,-0.13085938,0.00017929077,0.052734375,-0.16113281,-0.1796875,-0.072753906,-0.35742188,0.10253906,0.359375,0.0022735596,-0.3515625,0.01965332,-0.15136719,0.013061523,-0.33984375,-0.20117188,-0.3359375,0.1484375,0.12890625,-0.035888672,0.064453125,-0.22753906,0.20898438,0.104003906,0.1328125,-0.296875,-0.12890625,0.044433594,-0.23339844,-0.484375,0.002319336,0.51953125,-0.14550781,0.40625,0.12890625,-0.16503906,0.099121094,0.14648438,-0.05102539,-0.18066406,0.3046875,0.059570312,-0.26367188,-0.28320312,-0.084472656,-0.07324219,0.02355957,0.106933594,0.32421875,-0.064941406,0.027832031,0.2578125,0.25390625,0.29492188,0.20507812,-0.33984375,-0.265625,-0.43945312,0.006652832,-0.16699219,-0.053955078,-0.31640625,0.27148438,0.03857422,-0.1953125,-0.29492188,-0.048583984,-0.16699219,0.33398438,0.13476562,-0.30859375,-0.18652344,0.06982422,0.022705078,0.296875,-0.080078125,-0.609375,-0.22753906,-0.359375,0.41015625,-0.30859375,0.23925781,-0.006591797,-0.171875,0.03491211,0.15332031,-0.27148438,0.16210938,0.4453125,-0.09814453,0.047851562,0.04736328,-0.30273438,0.029296875,-0.0026550293,0.09765625,0.13867188,0.21679688,-0.19433594,0.013000488,-0.34179688,0.03540039,-0.106933594,0.2734375,-0.34960938,-0.12597656,-0.109375,0.33789062,-0.22460938,-0.2734375,0.0625,-0.01940918,-0.17089844,0.28320312
nail,0.047607422,0.19726562,-0.060791016,-0.37695312,-0.05419922,0.07763672,0.17578125,-0.107910156,0.23828125,0.18261719,-0.18066406,-0.1015625,-0.25976562,0.09716797,0.025756836,0.24414062,0.2734375,0.24414062,-0.20703125,-0.3046875,0.0022125244,0.036621094,0.24804688,-0.022094727,-0.203125,0.1640625,-0.03125,-0.10595703,0.06591797,-0.11425781,-0.12890625,0.16015625,0.2265625,0.20605469,-0.22070312,-0.110839844,-0.16992188,0.20898438,0.28710938,-0.0062561035,0.09716797,0.01940918,0.19726562,-0.07080078,-0.0027618408,0.044921875,0.0859375,0.21582031,0.3828125,0.09814453,-0.0011825562,0.3125,-0.15332031,-0.40625,-0.0073242188,0.0703125,-0.091308594,0.080566406,0.080566406,0.19726562,0.12988281,-0.21191406,-0.07324219,0.044921875,0.068847656,0.07763672,-0.061523438,-0.083984375,0.06591797,0.1953125,-0.125,0.04345703,0.056640625,-0.06982422,-0.17089844,-0.21972656,0.13085938,0.23144531,0.1328125,0.24609375,-0.20117188,-0.064453125,0.15917969,-0.11767578,0.28515625,0.05493164,0.13085938,0.234375,-0.22460938,0.071777344,0.002166748,0.07861328,0.36914062,0.110839844,-0.1328125,-0.19628906,0.19140625,-0.078125,-0.084472656,0.11425781,-0.30273438,0.05810547,-0.006164551,-0.17773438,0.110839844,-0.05444336,0.0010528564,0.24804688,0.18261719,-0.38476562,-0.14453125,-0.38867188,-0.15625,0.07421875,0.18554688,-0.017211914,0.34375,0.06640625,-0.096191406,-0.13769531,-0.04736328,-0.12597656,-0.107421875,-0.15722656,0.28710938,0.022338867,0.060791016,-0.16503906,0.15527344,0.10839844,0.25,-0.21191406,-0.083984375,-0.1484375,-0.1328125,0.08105469,-0.103515625,-0.047851562,-0.23046875,0.118652344,0.1484375,-0.01977539,0.02355957,0.0017700195,0.27539062,0.24902344,-0.096191406,-0.06201172,0.0546875,0.087890625,0.14550781,-0.05102539,-0.16308594,-0.009033203,0.05859375,-0.0023956299,-0.20800781,-0.30078125,-0.083984375,0.030029297,-0.06347656,-0.35546875,-0.22558594,-0.25585938,-0.19042969,-0.3359375,-0.050048828,-0.19628906,-0.20898438,-0.11816406,0.033203125,-0.14257812,-0.032958984,-0.14257812,0.060546875,0.029296875,0.19238281,-0.07763672,0.057617188,0.42578125,-0.047851562,-0.059570312,0.057617188,0.17871094,-0.33203125,0.029541016,0.25,0.28125,0.38476562,0.045898438,0.1875,0.0390625,0.107910156,0.23339844,-0.035888672,-0.03100586,0.29296875,-0.25976562,-0.2578125,0.2578125,-0.022705078,0.08300781,-0.25,0.19433594,0.16796875,-0.20214844,0.08935547,-0.030395508,0.23828125,-0.3046875,-0.0011978149,-0.018554688,-0.265625,-0.107910156,0.27929688,-0.031982422,-0.08642578,-0.059814453,0.08544922,-0.012084961,-0.14746094,0.05493164,-0.16015625,0.14160156,0.07421875,-0.000667572,0.21777344,-0.20117188,0.38671875,0.110839844,0.11230469,-0.2421875,-0.13574219,0.13476562,-0.04711914,0.21582031,0.029174805,0.06933594,0.019165039,-0.26757812,0.14941406,0.075683594,0.0058898926,-0.16113281,0.14941406,0.11621094,-0.09667969,0.07763672,-0.020874023,-0.057861328,-0.38476562,0.26953125,0.13183594,-0.079589844,0.10205078,0.080078125,-0.16894531,-0.080078125,-0.072753906,-0.41796875,-0.04663086,0.1015625,-0.23632812,0.05810547,0.33984375,0.19921875,-0.1640625,-0.025268555,0.20703125,0.056640625,0.13183594,0.1328125,0.28125,0.041992188,0.032470703,0.15625,-0.15722656,-0.12402344,0.019165039,0.21484375,-0.203125,-0.018676758,-0.08105469,0.21386719,-0.032226562,-0.048583984,-0.22851562,-0.12060547,-0.3046875,0.12451172,0.19433594,0.16796875,-0.20996094,0.10595703,-0.16796875,0.044921875,0.029296875,-0.0034942627,0.10107422,0.122558594
chisel,0.13964844,0.32421875,-0.052001953,0.12109375,0.024536133,0.22949219,-0.020629883,0.15429688,-0.080078125,0.10986328,-0.13769531,0.171875,-0.34765625,0.35546875,-0.18554688,0.14746094,-0.08935547,0.27734375,-0.25,-0.07714844,0.0035705566,-0.046142578,0.083496094,-0.21386719,-0.06591797,-0.017944336,0.043945312,-0.095214844,-0.020263672,-0.23046875,-0.28515625,0.17773438,0.047851562,0.049316406,0.056884766,-0.008117676,0.18164062,0.28320312,0.24609375,-0.017822266,0.19335938,0.048828125,0.5,0.052490234,0.21777344,0.12695312,-0.4609375,0.19921875,0.234375,0.047607422,-0.18652344,-0.11328125,-0.114746094,-0.11621094,0.022705078,-0.06201172,-0.20019531,-0.06591797,-0.39453125,0.036865234,-0.099121094,0.00680542,0.115234375,-0.15722656,-0.06738281,0.11230469,0.10839844,-0.06689453,-0.19628906,0.1484375,-0.026489258,0.08935547,0.25,-0.11230469,-0.40625,-0.14453125,0.109375,0.06738281,-8.916855e-05,-0.171875,0.36328125,-0.09472656,-0.0017700195,-0.031982422,0.12207031,0.18359375,-0.057617188,0.18359375,0.03881836,0.20410156,0.0050354004,0.005584717,0.048095703,0.20898438,0.026855469,-0.38671875,0.045654297,-0.037841797,0.099121094,-0.123046875,-0.125,-0.12890625,0.064941406,-0.099609375,-0.020141602,-0.038330078,0.25976562,-0.01953125,0.22363281,-0.16699219,0.026855469,-0.20214844,0.14257812,-0.11376953,0.04663086,0.23144531,0.09667969,-0.26757812,-0.20214844,-0.07324219,0.11328125,0.03466797,-0.009094238,0.07324219,0.0079956055,0.06225586,0.04321289,-0.115722656,-0.084472656,0.11279297,0.08544922,0.14355469,-0.20214844,0.40429688,0.049316406,0.0029907227,-0.20410156,-0.044433594,-0.03955078,0.16113281,0.14746094,-0.056152344,-0.42382812,-0.09716797,0.04248047,0.16894531,-0.19628906,-0.24707031,-0.016479492,-0.03491211,0.08154297,-0.33007812,-0.010620117,0.45703125,-0.11425781,0.028930664,-0.3125,-0.014160156,-0.06640625,0.296875,-0.026733398,-0.079589844,-0.26367188,-0.48632812,-0.15332031,0.11669922,-0.0068359375,-0.31445312,-0.39257812,0.06225586,-0.007598877,0.059570312,-0.034179688,0.14941406,0.11328125,0.0065307617,0.32226562,0.14257812,-0.12207031,0.30273438,-0.100097656,-0.059570312,0.27148438,0.25,-0.06982422,-0.10888672,0.15332031,-0.06738281,0.33789062,0.064941406,-0.028320312,0.14453125,-0.14550781,0.08935547,-0.2578125,0.04296875,0.056396484,-0.096191406,-0.13671875,0.21777344,-0.24902344,0.1484375,-0.32226562,-0.09716797,0.28710938,0.018676758,0.13085938,-0.111816406,0.026855469,-0.328125,-0.33007812,-0.31835938,-0.35546875,0.265625,0.0062561035,-0.13574219,-0.046142578,0.07373047,0.076171875,0.12695312,-0.16894531,-0.35742188,-0.045166016,0.15917969,0.1796875,-0.021850586,0.34765625,0.08935547,-0.20214844,-0.17480469,-0.07421875,-0.140625,-0.26757812,0.091308594,-0.07519531,-0.100097656,0.007446289,-0.043945312,-0.063964844,0.203125,0.17285156,-0.14257812,0.027832031,-0.31640625,0.103515625,-0.24707031,-0.23535156,0.0078125,-0.12597656,0.05834961,-0.012939453,0.0035552979,-0.03125,-0.14453125,0.33984375,0.2578125,-0.028442383,-0.16699219,-0.19921875,-0.15234375,0.18847656,-0.06201172,-0.46289062,-0.046142578,-0.328125,0.296875,-0.0859375,-0.053222656,0.24316406,0.008483887,0.203125,-0.06298828,0.20996094,0.107421875,0.0115356445,0.016113281,-0.21386719,-0.26367188,-0.2109375,0.2890625,-0.29101562,0.20410156,0.20898438,0.1484375,-0.16699219,-0.22753906,-0.22753906,-0.022949219,-0.14453125,0.0703125,0.0546875,0.045166016,-0.17285156,0.13574219,-0.2265625,-0.018554688,-0.06689453,0.11621094,-0.3671875,-0.08251953
shovel,0.21484375,0.063964844,0.14355469,0.22851562,-0.18066406,-0.034179688,0.22851562,0.023803711,0.19726562,-0.068359375,0.064941406,-0.00970459,0.19628906,0.34375,-0.012817383,-0.091308594,-0.14550781,-0.20996094,0.095214844,-0.39648438,0.040039062,-0.048339844,0.12207031,-0.14453125,0.15917969,0.000957489,-0.24902344,0.103515625,-0.061035156,-0.012573242,0.052490234,0.33203125,0.028076172,-0.06542969,0.020019531,-0.05883789,0.31835938,0.12890625,0.0058898926,-0.016479492,0.38671875,0.052978516,0.4375,-0.0047912598,-0.12792969,0.025756836,-0.34375,-0.032958984,0.12792969,-0.10253906,-0.13476562,-0.03491211,0.11621094,0.110839844,-0.00982666,0.01928711,0.16894531,0.092285156,-0.25390625,-0.12158203,-0.33789062,-0.041015625,0.013305664,0.23730469,-0.19824219,-0.20117188,0.007537842,-0.31054688,-0.014831543,0.30664062,0.31445312,-0.13867188,-0.17285156,-0.23046875,-0.041992188,-0.10205078,0.043701172,-0.028808594,-0.10546875,-0.15234375,-0.039794922,0.14355469,0.005584717,-0.056640625,0.08886719,0.091308594,0.21386719,0.16992188,0.11767578,0.05908203,0.08251953,0.07421875,-0.09765625,0.055419922,-0.0703125,-0.37304688,0.07910156,-0.01574707,0.19433594,-0.048095703,-0.24511719,-0.41601562,0.23730469,0.033203125,-0.022460938,-0.18554688,0.09326172,-0.084472656,0.24902344,-0.171875,0.2421875,0.057373047,0.14160156,-0.21386719,0.13867188,0.1640625,0.39648438,0.15429688,-0.36328125,0.33007812,-0.05883789,-0.18457031,-0.37304688,0.123046875,-0.026000977,0.28125,0.31054688,-0.107421875,0.20800781,-0.061523438,-0.056396484,-0.125,-0.18554688,0.03173828,0.14355469,0.43164062,-0.041259766,-0.080566406,-0.103515625,0.2578125,-0.15820312,0.033935547,0.0038909912,0.087890625,0.23925781,0.017211914,-0.25195312,-0.3984375,0.21972656,-0.21875,0.32421875,-0.46289062,0.10888672,0.328125,-0.16796875,0.30273438,-0.27148438,0.05517578,0.091796875,0.17285156,0.025756836,-0.087890625,0.038330078,-0.1953125,-0.08886719,-0.12158203,0.296875,-0.16894531,0.017333984,-0.38867188,0.099609375,0.1640625,-0.0018081665,0.21386719,-0.17480469,0.017333984,0.044189453,-0.13085938,-0.34375,0.22558594,-0.100097656,0.171875,0.31640625,0.030151367,-0.11621094,-0.024902344,0.050048828,-0.15820312,0.20019531,0.3515625,0.045410156,0.12890625,-0.008911133,0.022338867,0.171875,-0.05834961,-0.11376953,-0.26171875,-0.119140625,-0.053466797,-0.31054688,0.037109375,-0.421875,-0.075683594,-0.075683594,0.15234375,0.19824219,-0.049560547,0.06542969,-0.068359375,0.14355469,0.029541016,-0.20214844,0.21875,0.013916016,-0.08496094,-0.13964844,0.13671875,0.09716797,-0.23339844,0.15136719,-0.053222656,0.013244629,-0.22070312,0.15722656,-0.0050354004,0.036865234,0.28320312,-0.171875,-0.21777344,-0.051757812,0.31054688,-0.18261719,0.18359375,-0.068359375,-0.005432129,0.12695312,-0.04345703,0.16113281,0.23535156,-0.11035156,-0.041503906,-0.27148438,-0.25976562,-0.07519531,-0.15820312,0.13378906,-0.06640625,-0.044433594,-0.25195312,-0.1328125,0.104003906,-0.12597656,0.25390625,0.31640625,-0.057128906,-0.123046875,-0.26367188,-0.51171875,-0.018798828,-0.10888672,-0.053222656,-0.578125,-0.111816406,-0.024658203,0.37695312,-0.07324219,0.103515625,0.109375,0.33789062,0.17675781,0.0859375,0.29296875,0.20703125,0.100097656,-0.16308594,0.087402344,0.079589844,0.110839844,0.125,-0.004211426,0.10839844,0.44921875,0.20019531,-0.3828125,-0.25390625,-0.328125,0.16503906,0.050048828,0.21386719,-0.09472656,-0.026489258,-0.25585938,0.31054688,-0.095703125,-0.04663086,-0.2578125,-0.00076293945,-0.26953125,0.0013275146
anvil,-0.030151367,0.45507812,-0.08886719,0.056152344,-0.25976562,0.040527344,0.46875,-0.28710938,-0.17578125,0.47070312,-0.25976562,-0.23144531,-0.28710938,-0.3046875,-0.0134887695,-0.099609375,-0.079589844,-0.07714844,0.037109375,-0.103027344,-0.20800781,0.0546875,0.26171875,0.20898438,-0.053222656,0.107421875,-0.031982422,-0.13476562,-0.015380859,-0.21289062,-0.16894531,-0.104003906,0.13769531,0.20800781,-0.061279297,0.040283203,0.34960938,0.107910156,0.38085938,-0.111816406,0.119140625,0.033935547,0.23242188,0.14160156,0.05883789,-0.27148438,-0.100097656,-0.05419922,0.45507812,-0.33789062,-0.24316406,0.36132812,-0.20214844,-0.008850098,0.10595703,-0.109375,0.14941406,0.07128906,0.3046875,-0.020751953,-0.029174805,-0.453125,0.046142578,0.099609375,-0.13867188,0.01965332,-0.08496094,-0.17089844,-0.3359375,-0.063964844,-0.16308594,-0.19042969,0.30078125,0.104003906,-0.059814453,-0.60546875,-0.14648438,0.20996094,-0.23144531,-0.12451172,0.27539062,-0.08935547,-0.037353516,-0.5234375,0.04345703,0.1796875,-0.0046691895,-0.26171875,0.29492188,0.021728516,-0.030761719,0.060791016,-0.010070801,-0.038085938,0.075683594,0.03466797,0.5546875,-0.43945312,-0.08300781,-0.38867188,-0.20898438,-0.3671875,0.078125,-0.23632812,0.0033111572,0.03173828,0.24804688,0.053466797,0.19335938,-0.203125,-0.36523438,0.08105469,-0.06298828,-0.45703125,0.18945312,0.26757812,-0.22558594,0.017089844,-0.024902344,0.15136719,0.16601562,0.008422852,-0.25195312,0.0012435913,-0.041503906,-0.25,0.30859375,0.07080078,0.091308594,0.24511719,-0.036865234,-0.006713867,-0.39453125,-0.18652344,0.040283203,0.23339844,0.056396484,-0.16699219,-0.15234375,-0.040283203,0.17382812,0.037353516,-0.18457031,0.1015625,0.011962891,-0.030883789,-0.23925781,-0.053222656,0.27929688,0.17675781,0.12988281,-0.11230469,-0.36523438,0.026245117,-0.041259766,-0.33398438,-0.26367188,-0.22363281,0.18164062,0.21484375,0.11328125,-0.32226562,-0.02331543,-0.34765625,0.056396484,-0.07128906,-0.028198242,-0.22460938,-0.109375,-0.10986328,0.14355469,-0.095703125,-0.10595703,0.04711914,0.15625,-0.4296875,0.38867188,-0.32421875,-0.07763672,0.064941406,-0.12988281,-0.20605469,0.040527344,0.24609375,0.32226562,0.05834961,0.11279297,0.10839844,0.25195312,0.24707031,0.15429688,0.21875,-0.2890625,0.07128906,-0.099121094,-0.11425781,0.11669922,0.025512695,0.296875,0.104003906,0.04296875,-0.015319824,-0.09423828,-0.14648438,0.14160156,0.19433594,-0.14941406,-0.037109375,-0.0058898926,0.17675781,-0.12988281,-0.04272461,-0.008422852,-0.057861328,0.16992188,-0.19433594,0.1015625,0.46875,-0.06591797,0.31640625,0.07324219,0.27148438,-0.052978516,-0.026489258,0.24707031,-0.061279297,0.008483887,0.036376953,-0.0017700195,-0.071777344,-0.29296875,0.18554688,0.008544922,0.40429688,-0.0035552979,-0.010131836,-0.010070801,-0.3515625,0.25585938,-0.118652344,0.0087890625,0.032714844,0.13671875,0.022460938,-0.044677734,-0.3515625,-0.28125,0.060791016,0.18164062,-0.11279297,-0.13671875,0.1875,-0.011352539,0.24609375,0.24511719,0.13671875,-0.33007812,-0.28515625,0.14257812,-0.5234375,-0.02758789,0.171875,-0.0077819824,-0.24804688,-0.18066406,0.125,-0.013122559,-0.26757812,-0.047607422,0.35742188,-0.16601562,0.14550781,0.20898438,-0.19335938,0.203125,0.1875,0.23242188,0.13476562,-0.033203125,0.3046875,0.16210938,-0.18554688,-0.053222656,0.23046875,-0.103027344,-0.027832031,-0.42773438,-0.091796875,0.22949219,-0.14453125,-0.0038909912,-0.067871094,-0.15917969,-0.18457031,0.096191406,-0.1484375,-0.17675781,0.15917969,-0.12695312,-0.033935547
