,0,1,2,3,4,5,6,7,8,9,10,11,12,13,14,15,16,17,18,19,20,21,22,23,24,25,26,27,28,29,30,31,32,33,34,35,36,37,38,39,40,41,42,43,44,45,46,47,48,49,50,51,52,53,54,55,56,57,58,59,60,61,62,63,64,65,66,67,68,69,70,71,72,73,74,75,76,77,78,79,80,81,82,83,84,85,86,87,88,89,90,91,92,93,94,95,96,97,98,99,100,101,102,103,104,105,106,107,108,109,110,111,112,113,114,115,116,117,118,119,120,121,122,123,124,125,126,127,128,129,130,131,132,133,134,135,136,137,138,139,140,141,142,143,144,145,146,147,148,149,150,151,152,153,154,155,156,157,158,159,160,161,162,163,164,165,166,167,168,169,170,171,172,173,174,175,176,177,178,179,180,181,182,183,184,185,186,187,188,189,190,191,192,193,194,195,196,197,198,199,200,201,202,203,204,205,206,207,208,209,210,211,212,213,214,215,216,217,218,219,220,221,222,223,224,225,226,227,228,229,230,231,232,233,234,235,236,237,238,239,240,241,242,243,244,245,246,247,248,249,250,251,252,253,254,255,256,257,258,259,260,261,262,263,264,265,266,267,268,269,270,271,272,273,274,275,276,277,278,279,280,281,282,283,284,285,286,287,288,289,290,291,292,293,294,295,296,297,298,299,300,301,302,303,304,305,306,307,308,309,310,311,312,313,314,315,316,317,318,319,320,321,322,323,324,325,326,327,328,329,330,331,332,333,334,335,336,337,338,339,340,341,342,343,344,345,346,347,348,349,350,351,352,353,354,355,356,357,358,359,360,361,362,363,364,365,366,367,368,369,370,371,372,373,374,375,376,377,378,379,380,381,382,383,384,385,386,387,388,389,390,391,392,393,394,395,396,397,398,399,400,401,402,403,404,405,406,407,408,409,410,411,412,413,414,415,416,417,418,419,420,421,422,423,424,425,426,427,428,429,430,431,432,433,434,435,436,437,438,439,440,441,442,443,444,445,446,447,448,449,450,451,452,453,454,455,456,457,458,459,460,461,462,463,464,465,466,467,468,469,470,471,472,473,474,475,476,477,478,479,480,481,482,483,484,485,486,487,488,489,490,491,492,493,494,495,496,497,498,499,500,501,502,503,504,505,506,507,508,509,510,511
Turtle,0.059020996,0.19519043,0.24902344,-0.12133789,0.0076789856,-0.1003418,-0.43823242,-0.99609375,-0.16772461,-0.04296875,0.033721924,0.12585449,0.099975586,0.14453125,-0.026550293,-0.08862305,0.42626953,-0.08453369,-0.13793945,-0.31225586,0.2388916,0.07110596,0.5058594,0.26293945,-0.24194336,-0.37695312,-0.26220703,0.1538086,0.03378296,0.0137786865,-0.13977051,-0.14172363,-0.16174316,-0.24060059,0.08648682,-0.2298584,-0.061828613,0.16174316,0.12792969,-0.17590332,0.053222656,0.19604492,-0.07928467,0.25268555,-0.01889038,0.3413086,-0.12719727,-0.43701172,-0.05328369,0.088134766,-0.06500244,-0.20227051,-0.105895996,-0.40478516,-0.05569458,0.006980896,-0.14892578,0.03945923,-0.30249023,0.34545898,0.17736816,-0.2010498,-0.057647705,-0.0031032562,0.1784668,-0.070373535,-0.23132324,0.23608398,0.14221191,-0.07940674,0.096191406,-0.29614258,-0.044769287,-0.034362793,0.022460938,-0.15551758,-0.43823242,0.04953003,-0.0814209,-0.08483887,0.08087158,-0.18041992,-0.3984375,0.05606079,-0.17785645,0.25756836,0.20446777,0.022827148,-0.062805176,0.058502197,0.25805664,-0.11975098,-1.6845703,0.5136719,-0.0017681122,0.059570312,0.2890625,-0.11456299,-0.20422363,0.02128601,0.10913086,0.32299805,0.13916016,-0.016098022,-0.27514648,-0.10632324,0.004016876,0.013916016,0.46704102,0.113098145,-0.17785645,0.23486328,0.14807129,0.016967773,0.31152344,-0.3269043,-0.037078857,0.31469727,-0.04724121,0.025466919,0.34960938,-0.4802246,-0.05621338,-0.62597656,0.17089844,0.033081055,-0.04840088,0.1315918,0.118896484,0.45361328,0.3010254,-0.033325195,-0.38183594,6.6523438,0.074279785,0.14685059,-0.22668457,-0.59716797,-0.04940796,-0.21228027,-0.11010742,0.029373169,-0.025802612,-0.31054688,0.0803833,-0.24475098,-0.52685547,-0.059906006,-0.19372559,-0.064208984,-0.057525635,0.05239868,-0.037719727,0.44311523,0.46166992,-0.4013672,0.19885254,-0.41186523,-0.07525635,-0.16088867,-0.41870117,-0.28564453,-0.11566162,0.5629883,-0.21105957,-0.19274902,0.32080078,-0.04675293,-0.060516357,-0.17028809,-0.048095703,-0.13500977,0.0569458,0.26171875,-0.50683594,0.5239258,-0.38671875,0.10998535,-0.22460938,0.14160156,0.006717682,-0.006702423,0.0395813,-0.12011719,-0.055999756,0.25390625,0.12548828,-0.35083008,0.23828125,-0.044281006,0.04949951,-0.3515625,0.15185547,-0.07519531,0.17175293,0.0029792786,0.11450195,0.117370605,0.13647461,-0.079833984,-0.16064453,0.07543945,0.06100464,-0.02961731,0.05657959,0.09283447,0.095214844,-0.50341797,-0.37890625,-0.13476562,0.2866211,-0.101989746,-0.21594238,-0.47045898,-0.08496094,0.28881836,-0.49829102,-0.35839844,0.21252441,-0.40844727,0.35180664,0.012817383,-0.47143555,0.17285156,0.0758667,0.0101623535,-0.13098145,-0.08544922,-0.12902832,0.17993164,-0.03186035,0.2364502,-0.23754883,-0.14355469,-0.29589844,0.29785156,0.33618164,-0.20153809,-0.08898926,-0.13745117,-0.21826172,0.1184082,0.23266602,0.13830566,0.42773438,0.019821167,-0.26416016,-0.10076904,0.060577393,-0.40844727,-0.3232422,0.18969727,-0.023269653,0.27514648,-0.18286133,-0.019012451,0.12866211,-0.028656006,0.029327393,-0.09661865,-0.10095215,0.036865234,0.008529663,0.0020961761,-0.01725769,-0.030441284,0.16625977,-0.5102539,-0.34301758,-0.030685425,-0.18933105,-0.07513428,0.044128418,-0.16369629,-0.0042266846,0.25683594,0.17919922,0.20129395,-0.25268555,0.28125,-0.3017578,-0.2861328,0.03817749,-0.060333252,-0.0052108765,-0.40673828,0.18017578,-0.24914551,-0.39111328,-0.27392578,0.27001953,-0.32983398,-0.3564453,0.0010061264,-0.12176514,0.0026626587,-0.16723633,0.0003736019,0.15246582,0.15490723,-0.14355469,-0.20056152,-0.33007812,-0.23583984,0.40795898,0.07727051,0.020050049,-0.2524414,-0.15698242,-0.01940918,-0.5551758,0.009628296,6.6484375,0.2800293,0.026885986,-0.092041016,0.42089844,0.119018555,0.08520508,0.0040512085,0.44799805,0.37182617,-0.05230713,-0.3671875,0.4326172,-0.017471313,0.15246582,0.115234375,0.014923096,-2.5253906,-0.3046875,0.16113281,-0.17553711,0.21130371,0.062469482,0.14892578,0.022460938,-0.10784912,-0.03390503,0.17895508,-0.037109375,-0.033996582,0.20056152,-0.09539795,0.04486084,0.32006836,0.5078125,-0.09283447,0.06719971,0.08068848,0.33984375,0.1315918,-0.2932129,-0.004234314,0.0028705597,0.3059082,0.061462402,0.15026855,-0.022109985,0.0692749,0.119018555,-0.35058594,0.099975586,0.097961426,-0.15991211,-0.17041016,-0.017913818,0.109191895,0.57128906,0.21875,-0.040039062,0.07556152,-0.058013916,0.2788086,-0.012008667,-0.15197754,-0.23706055,0.17114258,-0.5571289,-0.19091797,-0.16833496,0.060180664,-0.031341553,-0.2836914,0.12878418,0.08117676,0.043426514,-0.03479004,0.061950684,-0.22473145,-0.4790039,0.03817749,-0.123168945,0.22570801,-0.3388672,0.14135742,-0.19189453,-0.1463623,-0.096069336,0.1817627,-0.45654297,0.2541504,0.017852783,-0.23059082,0.16503906,-0.1616211,0.17260742,0.11376953,-0.038391113,-0.10064697,0.22961426,-0.21520996,0.1973877,0.37304688,0.15490723,-0.03857422,-0.12658691,-0.12347412,-0.2783203,0.0020942688,-0.23303223,-0.09753418,0.24353027,-0.28198242,-0.14465332,-0.0051727295,0.0395813,-0.14855957,0.06323242,0.30371094,0.025787354,-0.2878418,-0.1274414,0.07507324,0.03451538,0.33666992,-0.07165527,-0.037017822,-0.25317383,-0.18041992,-0.18920898,0.21069336,0.41137695,0.37182617,-0.122924805,0.012588501,0.07171631,0.04751587,-0.08770752,0.06994629,-0.023239136,-0.09893799,-0.21435547,-0.05142212,0.045715332,0.048339844,0.2956543,0.27270508,0.12731934,0.064453125,-0.117248535,-0.09692383,-0.011856079,0.02168274,-0.043121338,-0.31079102,0.2722168,0.3840332,-0.010131836,-0.26293945,-0.013412476,0.07141113,0.22558594,0.048217773,-0.075683594,0.23876953,0.1586914,0.5463867,-0.18151855,0.25805664,0.15966797,-0.64941406,-0.16821289,-0.090270996,0.027679443,-0.12890625,0.041137695,-0.06793213,-0.24328613,0.08660889,0.059020996,-0.09564209,0.10083008,0.44726562,-0.060028076,0.37646484,0.36694336,-0.4572754,-0.19091797,0.054260254,0.09289551,0.1427002,-0.037597656,-0.25341797,-0.06994629,0.0758667,0.28320312,0.30371094,-0.2602539,-0.15197754,0.25512695,-0.31689453
Alligator,0.18798828,0.14624023,-0.090270996,-0.2619629,-0.041656494,-0.10522461,-0.40771484,-0.890625,-0.14904785,0.49560547,0.3947754,-0.13134766,0.107055664,-0.2619629,-0.057403564,-0.109558105,0.25952148,0.11230469,-0.1697998,-0.47509766,0.26538086,0.21289062,0.10638428,0.24975586,0.027038574,0.19787598,-0.023071289,0.034973145,-0.00034308434,-0.11071777,0.111328125,0.15991211,-0.09448242,-0.026153564,0.018325806,-0.48046875,-0.11218262,0.38720703,0.054718018,-0.023895264,-0.26879883,0.13781738,-0.014259338,0.4645996,-0.13952637,0.31567383,-0.024139404,-0.30395508,-0.31958008,-0.14208984,0.04626465,0.13085938,0.09063721,-0.38745117,0.19226074,0.17089844,-0.080078125,-0.005378723,0.06774902,-0.0289917,0.093933105,-0.41992188,-0.10510254,0.1739502,0.22912598,0.1472168,-0.3515625,0.22790527,0.23828125,0.0597229,-0.25097656,-0.50683594,0.05960083,-0.117492676,0.38842773,-0.32617188,0.058685303,0.028823853,-0.03817749,-0.4807129,0.036315918,0.43017578,-0.3173828,0.1194458,-0.020233154,0.1262207,0.027923584,-0.22827148,-0.08459473,0.049316406,0.08929443,-0.10913086,-1.5302734,0.61376953,0.06866455,-0.03866577,0.41601562,0.27856445,-0.13427734,0.014785767,-0.05996704,0.056488037,-0.11663818,-0.17199707,0.0037574768,-0.046569824,-0.022827148,-0.28027344,0.27734375,0.06439209,-0.04699707,0.2364502,0.046783447,-0.35668945,0.31762695,-0.119262695,-0.05697632,0.5073242,0.24987793,-0.19897461,0.1550293,-0.8432617,0.006225586,-0.39208984,-0.022064209,-0.08514404,0.022125244,0.13562012,0.2487793,0.32714844,0.12426758,-0.1418457,-0.1887207,5.8125,-0.09442139,-0.03253174,-0.31835938,-0.5800781,-0.28149414,-0.23815918,-0.21789551,0.17211914,0.09429932,-0.20178223,-0.26635742,-0.29736328,-0.21020508,-0.0635376,0.16833496,0.23937988,0.0925293,0.05001831,0.036499023,0.21240234,-0.055603027,-0.38549805,0.34985352,-0.4362793,-0.21704102,-0.22375488,-0.2467041,-0.09954834,-0.16186523,0.38623047,-0.07940674,-0.4267578,0.11444092,-0.32910156,0.028427124,0.14465332,0.15063477,-0.5175781,0.23596191,0.13061523,-0.4970703,0.38916016,-0.3815918,0.19396973,-0.17626953,0.07977295,0.29248047,0.16430664,-0.031829834,0.113098145,-0.13244629,0.16125488,0.17016602,-0.24963379,-0.18798828,-0.099853516,0.0020771027,-0.19580078,-0.08935547,0.10803223,0.15844727,-0.0602417,-0.06555176,-0.16235352,0.22131348,0.120666504,-0.25927734,0.16455078,0.011528015,-0.2553711,0.16296387,0.28588867,0.036743164,-0.13964844,-0.27734375,-0.009979248,0.26245117,0.20092773,0.18981934,-0.42529297,-0.07080078,0.34155273,-0.52978516,0.06958008,-0.058258057,-0.16320801,-0.018875122,0.008720398,-0.37719727,0.28271484,0.08508301,-0.1809082,0.09576416,-0.10546875,0.23071289,0.21350098,-0.009178162,0.14929199,-0.17822266,0.13562012,-0.101745605,0.14343262,0.049957275,0.2401123,-0.13098145,0.09918213,0.030471802,-0.27270508,0.19689941,-0.0546875,0.21447754,0.14709473,-0.296875,-0.14672852,0.07171631,-0.23303223,-0.40673828,0.44458008,0.007205963,0.017364502,0.07598877,-0.020370483,0.0059814453,0.31884766,0.0066833496,0.064086914,-0.15649414,-0.40454102,-0.02520752,-0.19604492,-0.23181152,0.23791504,-0.011238098,-0.5463867,-0.09063721,0.04257202,-0.25097656,-0.21508789,0.4963379,0.09832764,-0.09802246,0.118896484,0.21350098,-0.049316406,-0.05645752,0.21777344,-0.45288086,-0.5703125,0.3527832,-0.15368652,-0.22937012,-0.18237305,0.17773438,-0.14038086,0.000119030476,0.07897949,-0.017700195,0.2388916,-0.110961914,0.031707764,-0.375,0.13305664,-0.07147217,0.20092773,-0.50927734,0.087768555,-0.12976074,-0.4104004,-0.32788086,-0.5444336,0.44604492,0.034729004,-0.25854492,-0.31982422,-0.3100586,-0.14526367,-0.24719238,-0.0032234192,5.8085938,0.65234375,-0.036315918,-0.09484863,0.30786133,0.06628418,-0.03137207,0.099365234,0.2512207,0.28588867,0.41503906,-0.18017578,0.083740234,-0.32080078,-0.29003906,-0.105773926,0.27075195,-2.1796875,-0.46044922,0.10864258,0.31274414,0.016723633,0.11114502,0.12005615,-0.3515625,0.35083008,-0.119140625,0.10095215,-0.17272949,-0.026245117,0.025985718,-0.11071777,0.121032715,0.07006836,0.20507812,0.018112183,-0.08630371,0.18554688,0.3935547,0.070007324,-0.4194336,0.33203125,0.054534912,0.21191406,0.31811523,0.062683105,-0.035308838,0.45483398,0.4050293,-0.31445312,0.20751953,0.15783691,-0.10168457,0.31396484,0.04385376,-0.14355469,0.17785645,0.2454834,0.12634277,0.06866455,-0.3408203,0.14416504,-0.093322754,-0.07434082,-0.27783203,0.26464844,-0.4909668,0.0096206665,-0.3474121,0.09020996,-0.08843994,-0.14538574,-0.11669922,-0.03741455,-0.49438477,0.2088623,0.2902832,-0.2175293,-0.4284668,0.25268555,-0.3984375,-0.006668091,-0.21118164,0.088134766,-0.31884766,0.019088745,-0.24768066,0.3215332,-0.06500244,0.103881836,-0.09246826,-0.3774414,-0.113586426,-0.2763672,0.18444824,-0.09454346,0.012321472,0.14477539,0.16699219,-0.6074219,-0.012229919,0.45043945,0.32666016,0.24609375,-0.11090088,-0.09753418,-0.0061683655,0.10180664,0.043701172,0.07525635,0.4584961,-0.39379883,0.018997192,0.30078125,0.026443481,-0.20080566,0.1430664,-0.07122803,-0.15551758,0.04748535,0.049468994,-0.11590576,0.35620117,0.048034668,-0.4387207,-0.13354492,-0.37231445,0.16870117,-0.12817383,0.15612793,0.18554688,-0.018829346,-0.09057617,0.32836914,-0.11505127,0.035217285,0.15563965,0.30908203,-0.049926758,-0.18115234,-0.008216858,0.094177246,-0.048461914,-0.3232422,0.48364258,0.3623047,0.25341797,0.2944336,0.048583984,-0.053253174,-0.20825195,-0.25732422,0.39038086,-0.20251465,0.25146484,0.33520508,-0.24658203,-0.18286133,0.12634277,0.15722656,-0.033996582,-0.036315918,0.026428223,0.35131836,-0.2442627,0.7084961,-0.094055176,0.47436523,0.23413086,-0.64990234,0.027053833,0.1652832,-0.08996582,-0.3864746,-0.24768066,0.24157715,-0.19128418,-0.2512207,0.14685059,-0.21948242,0.27026367,0.45117188,-0.19885254,0.18664551,-0.03012085,0.1003418,0.22155762,-0.068847656,0.17932129,0.4050293,0.07537842,-0.16320801,0.0009860992,0.06958008,0.17260742,0.27978516,-0.04336548,-0.0073051453,-0.012298584,-0.07055664
Lizard,0.113220215,-0.1595459,-0.09082031,-0.27319336,-0.15405273,-0.01828003,-0.19165039,-0.9238281,0.01108551,0.53466797,0.038360596,-0.33984375,0.22216797,-0.2607422,0.07672119,0.033935547,0.37939453,0.2241211,0.11566162,-0.21789551,0.4440918,0.02558899,0.2841797,0.2614746,-0.11291504,0.10772705,-0.2626953,-0.10858154,0.18115234,0.2265625,0.099853516,-0.15344238,0.068603516,-0.047180176,0.06616211,-0.11462402,-0.26123047,0.22973633,0.18981934,-0.11773682,-0.15319824,0.041748047,-0.2084961,0.2064209,-0.0043907166,0.47216797,-0.054260254,-0.12335205,-0.4423828,0.009864807,-0.018112183,-0.1899414,0.2286377,-0.20727539,0.092285156,0.020843506,-0.11395264,0.04244995,-0.093688965,-0.20385742,0.23132324,-0.50146484,0.110961914,-0.16516113,0.32177734,0.14990234,-0.17907715,0.067871094,0.39233398,0.22265625,-0.4638672,-0.27148438,0.062164307,0.055541992,0.113098145,-0.2220459,-0.19335938,0.23706055,-0.4423828,-0.14221191,-0.027069092,0.13977051,-0.26733398,0.21350098,-0.2524414,0.5341797,0.060821533,-0.101745605,0.31640625,0.09448242,0.016784668,-0.13623047,-1.6621094,0.5859375,0.30639648,0.1776123,0.24450684,0.28686523,-0.17163086,-0.0023460388,0.19543457,0.08459473,0.19958496,-0.008277893,-0.2553711,-0.30029297,-0.011817932,-0.0012102127,0.21350098,0.056915283,-0.12237549,0.28271484,0.085876465,-0.28222656,0.20715332,0.019805908,0.22766113,0.40942383,-0.16345215,-0.23132324,0.45581055,-0.5439453,-0.26293945,-0.48388672,-0.1381836,-0.045166016,0.17700195,-0.10144043,0.15625,0.4086914,0.06616211,-0.24572754,-0.20300293,6.9257812,-0.16589355,0.034210205,-0.37451172,-0.53222656,-0.17272949,-0.16784668,-0.3203125,0.24414062,-0.20874023,-0.14562988,-0.2619629,-0.32641602,-0.3232422,-0.028518677,-0.20446777,0.4272461,-0.19689941,-0.06964111,0.12445068,0.09576416,0.20080566,-0.52246094,0.25634766,-0.113464355,-0.114868164,-0.02029419,-0.39624023,0.006801605,-0.021469116,-0.087768555,0.116882324,-0.2614746,0.20874023,-0.3630371,-0.11395264,0.042541504,-0.10522461,-0.26098633,0.16308594,0.016860962,-0.4255371,0.19787598,-0.31860352,0.034301758,-0.07299805,0.022125244,0.36083984,0.10229492,-0.3852539,-0.011894226,-0.024002075,0.056915283,0.02998352,-0.40576172,0.012260437,-0.10662842,0.19580078,-0.38378906,0.056640625,-0.16760254,0.05908203,0.14221191,-0.017623901,0.04727173,0.18103027,0.31152344,-0.11035156,-0.27514648,-0.0670166,0.081970215,0.30859375,0.27124023,-0.16369629,-0.18823242,0.112976074,0.038970947,0.26586914,0.1776123,-0.068481445,-0.43066406,0.05105591,-0.084228516,-0.4555664,-0.097229004,0.2055664,-0.2824707,-0.054229736,0.066345215,-0.18383789,0.04055786,0.0012998581,-0.14624023,-0.2244873,0.020477295,0.11682129,0.009155273,0.023452759,0.27734375,-0.16674805,-0.18188477,-0.101623535,0.2277832,0.29418945,0.107910156,-0.046722412,0.10998535,-0.0914917,-0.22888184,0.018188477,0.048065186,0.15979004,0.064575195,-0.21240234,-0.038330078,0.07385254,-0.28881836,-0.4169922,0.16101074,-0.31201172,-0.1940918,-0.015571594,-0.20300293,0.05834961,-0.03286743,-0.07104492,0.19555664,-0.18261719,-0.19677734,0.3671875,-0.054016113,-0.03793335,-0.10119629,0.0006752014,-0.39086914,-0.062805176,0.2619629,-0.23547363,-0.35961914,0.2541504,0.08392334,-0.023162842,0.06744385,-0.08728027,-0.13952637,0.033111572,0.035461426,-0.25683594,-0.37036133,0.19812012,0.019454956,-0.06402588,-0.26000977,0.117370605,-0.12414551,-0.18835449,0.06317139,0.11578369,0.11315918,-0.37451172,-0.12915039,-0.061676025,0.050048828,-0.14294434,0.16369629,-0.27612305,-0.074523926,0.13183594,-0.35888672,-0.32495117,-0.42797852,0.46044922,0.0072746277,-0.27905273,-0.04284668,0.017745972,0.07556152,-0.27514648,0.06781006,6.921875,0.4104004,0.19189453,0.058013916,0.28735352,0.31591797,-0.024475098,0.22912598,0.13537598,0.30981445,0.5058594,-0.03201294,0.13867188,-0.009529114,-0.040252686,0.16967773,0.16210938,-2.4023438,-0.12646484,0.026824951,0.17102051,0.007896423,-0.13024902,0.13146973,-0.4230957,-0.072631836,-0.061401367,0.16235352,0.075683594,0.15234375,0.23669434,0.17126465,0.36645508,0.10217285,0.08337402,-0.04336548,-0.17797852,0.062042236,0.45361328,-0.31713867,-0.49951172,-0.04876709,0.111206055,0.22314453,0.17553711,0.083862305,0.021118164,0.13098145,0.28393555,-0.22753906,0.37158203,0.13500977,-0.2512207,0.044647217,-0.32958984,-0.12335205,0.20422363,0.10076904,-0.011543274,-0.17211914,-0.05102539,0.08905029,-0.26049805,-0.25219727,-0.11364746,0.070617676,-0.5854492,0.1739502,-0.33935547,-0.099365234,-0.43920898,-0.13769531,-0.13317871,7.9512596e-05,-0.058135986,0.20532227,0.40234375,-0.16235352,-0.46313477,0.2467041,-0.24816895,-0.03540039,0.1373291,-0.19262695,-0.04876709,-0.10168457,-0.16430664,0.0904541,-0.21569824,0.08111572,-0.022842407,-0.29418945,-0.085754395,0.04336548,-0.091796875,0.31713867,-0.02949524,0.15930176,0.030441284,-0.51660156,0.070129395,0.19616699,-0.11816406,-0.057434082,0.060546875,-0.019546509,-0.18615723,0.16625977,-0.19067383,-0.0368042,0.33325195,0.07720947,-0.35742188,-0.012825012,-0.1237793,-0.38061523,0.034057617,0.32250977,-0.1829834,0.11315918,-0.099365234,-0.1184082,0.32910156,-0.06628418,-0.089538574,-0.006187439,-0.42993164,0.10205078,0.00869751,-0.06222534,0.51220703,-0.13146973,-0.13708496,0.23181152,0.3347168,-0.059753418,0.38745117,-0.11102295,0.16125488,-0.028015137,-0.046539307,0.26660156,-0.008468628,0.13671875,0.34301758,0.5395508,0.103637695,0.34643555,0.12548828,0.18457031,-0.36987305,-0.16809082,0.11102295,-0.11029053,0.21655273,0.19494629,-0.05203247,-0.2133789,0.38891602,0.23413086,0.041992188,-0.2052002,-0.032287598,0.2763672,0.33789062,0.515625,-0.20507812,-0.16882324,0.051849365,-0.9160156,0.011779785,-0.12866211,-0.06121826,-0.2109375,-0.097839355,0.1340332,-0.24975586,-0.022491455,0.30810547,-0.025680542,0.00028967857,0.41088867,0.023086548,0.070129395,0.080444336,-0.3173828,-0.028198242,-0.07836914,0.23815918,0.24621582,0.17175293,-0.32006836,0.089538574,-0.21008301,-0.082092285,0.31469727,-0.2241211,-0.14086914,-0.0423584,-0.24487305
Tortoise,0.3618164,0.29736328,-0.15771484,-0.02078247,-0.0803833,0.0848999,-0.39038086,-1.1083984,-0.12634277,-0.07312012,0.38598633,0.11871338,-0.12939453,-0.011886597,-0.16931152,-0.19091797,0.2919922,0.006134033,0.085876465,-0.1430664,0.59228516,-0.23120117,0.55371094,0.19372559,0.06781006,-0.31640625,-0.087768555,0.28149414,0.04736328,0.054718018,-0.3005371,-0.13195801,0.048034668,0.007858276,0.05883789,0.2919922,-0.05960083,0.16821289,0.21191406,-0.10974121,0.14367676,0.108947754,0.02015686,0.11743164,0.5175781,0.07507324,-0.13903809,-0.111328125,-0.21508789,0.40795898,0.010757446,-0.14807129,-0.038269043,-0.2006836,-0.05999756,0.23413086,-0.009468079,-0.15148926,-0.09649658,0.56396484,0.37329102,-0.1796875,0.09240723,-0.11846924,0.06732178,-0.0748291,0.0635376,-0.11755371,0.21850586,-0.24169922,-0.036865234,0.22680664,0.21972656,-0.1821289,-0.0960083,-0.18896484,-0.06970215,0.02583313,-0.14941406,-0.18273926,0.021453857,-0.4243164,-0.49658203,0.13989258,-0.34472656,0.12854004,0.16247559,-0.0592041,0.17565918,0.2770996,0.47192383,-0.09918213,-1.5244141,0.50341797,-0.1315918,0.068359375,0.42163086,-0.003227234,-0.22399902,-0.011940002,-0.16918945,0.4025879,0.20336914,0.12817383,0.043701172,0.1459961,0.061065674,0.022338867,0.16748047,-0.046447754,-0.21044922,0.37841797,0.014259338,-0.15686035,0.14233398,0.015357971,-0.20092773,-0.11895752,0.06100464,-0.22070312,0.030319214,-0.5024414,-0.057891846,-0.6464844,0.29248047,-0.12207031,0.18603516,0.13867188,0.21520996,0.025741577,0.43603516,0.20043945,-0.31860352,4.6914062,0.084228516,-0.20239258,-0.39916992,-0.36132812,0.093811035,-0.37646484,-0.24072266,-0.3034668,-0.07122803,-0.15026855,0.013168335,-0.2680664,-0.23156738,0.06768799,-0.29248047,-0.12200928,0.01184082,-0.16345215,-0.00084400177,0.08605957,0.50683594,-0.4128418,0.34545898,-0.23828125,0.07745361,-0.016540527,-0.056152344,-0.16882324,-0.15820312,0.3630371,-0.30639648,-0.1784668,-0.093688965,-0.021621704,-0.01763916,-0.087402344,0.12219238,-0.080200195,0.16333008,0.17224121,0.042114258,0.026046753,-0.17297363,0.0090408325,0.44384766,0.34570312,-0.38989258,0.070495605,0.052947998,-0.11621094,-0.07635498,-0.21496582,0.27661133,-0.3466797,0.25024414,-0.008277893,-0.18273926,-0.07977295,0.3803711,-0.014503479,0.058013916,-0.21643066,-0.019592285,0.097595215,0.14318848,-0.48461914,-0.103393555,-0.10021973,-0.15881348,0.0038223267,0.2705078,0.16674805,0.3894043,-0.5810547,-0.14074707,-0.10620117,0.21374512,-0.031143188,-0.24047852,-0.44360352,-0.48754883,0.28515625,0.066467285,-0.4519043,0.16784668,-0.21936035,0.22607422,0.097473145,-0.22277832,0.23388672,-0.08154297,-0.008743286,0.5800781,-0.04449463,-0.16137695,0.36743164,-0.33129883,-0.37109375,-0.19104004,0.20410156,-0.25878906,0.095336914,-0.05444336,0.19152832,-0.029754639,-0.24157715,-0.22436523,-0.3527832,0.2939453,-0.049682617,0.18676758,0.00089645386,-0.5371094,-0.09753418,0.23815918,-0.43408203,-0.18395996,0.03277588,-0.15454102,0.26513672,-0.024215698,-0.13000488,-0.3930664,-0.49804688,0.014091492,-0.2993164,-0.09490967,-0.10449219,0.12866211,0.04257202,-0.15759277,0.19396973,0.06750488,-0.2998047,-0.17626953,0.15454102,-0.30004883,-0.034729004,-0.015960693,-0.2409668,-0.054260254,0.070739746,-0.041809082,0.3935547,-0.5473633,0.05041504,-0.6040039,-0.2220459,-0.15319824,0.3684082,-0.09112549,0.06707764,0.11279297,-0.20739746,-0.7426758,-0.023635864,-0.06738281,-0.15368652,-0.6303711,0.035827637,-0.0039634705,0.08605957,-0.25317383,0.11047363,0.37841797,0.24047852,0.18200684,0.03543091,-0.6665039,-0.099853516,0.28955078,0.013252258,-0.010368347,-0.22460938,-0.13439941,-0.0143585205,-0.37402344,-0.27734375,4.6835938,-0.17028809,-0.2902832,-0.09259033,0.34375,0.09008789,0.29223633,0.35058594,0.6220703,0.33618164,0.15979004,-0.15942383,0.56933594,-0.039031982,0.005973816,0.1628418,0.31420898,-2.2226562,-0.049987793,0.03845215,0.22033691,0.17358398,0.15942383,-0.33251953,0.068237305,0.15063477,0.21496582,0.28393555,-0.10681152,0.3623047,0.016296387,-0.2619629,0.4182129,-0.37963867,0.14111328,-0.012229919,0.09753418,-0.09057617,0.0012044907,0.07330322,-0.03375244,-0.34716797,0.11602783,-0.0871582,-0.020019531,0.008171082,-0.38989258,0.19482422,0.046722412,-0.014007568,0.0036411285,0.17175293,-0.073791504,-0.6074219,0.37817383,0.12683105,0.72021484,0.38012695,-0.033599854,0.1340332,-0.19189453,0.14343262,-0.11871338,0.03894043,-0.11633301,0.20043945,-0.37036133,-0.6430664,-0.1821289,-0.20874023,-0.2861328,-0.1661377,0.27148438,0.09442139,-0.041290283,0.14660645,-0.124694824,0.047668457,-0.29541016,0.021453857,-0.24987793,0.19226074,-0.19006348,0.4880371,0.16088867,-0.3010254,-0.07385254,0.45166016,-0.03640747,0.09112549,0.018295288,0.17626953,-0.027114868,0.08795166,0.17224121,-0.038208008,0.1361084,-0.06036377,0.3178711,0.13110352,0.22045898,0.23657227,-0.16577148,-0.0385437,0.08270264,-0.56884766,-0.19616699,-0.2298584,-0.097961426,0.4741211,-0.054840088,0.11151123,0.054351807,0.14697266,-0.04333496,-0.3059082,0.2368164,0.34521484,0.009361267,0.2878418,-0.1796875,0.01398468,0.3161621,-0.084106445,-0.30273438,-0.36279297,-0.03677368,0.107299805,-0.35424805,-0.31811523,0.42358398,0.43725586,-0.040649414,-0.28344727,-0.2130127,-0.2836914,0.0803833,0.11553955,0.24938965,-0.15344238,-0.50683594,0.036834717,-0.36645508,0.04586792,-0.13952637,0.35375977,-0.09466553,0.052490234,-0.14819336,-0.015716553,0.39233398,0.14086914,-0.020874023,-0.12451172,-0.105285645,0.17370605,-0.38256836,-0.2548828,0.2310791,0.1104126,0.13964844,-0.10632324,0.08105469,-0.122558594,0.051605225,0.23657227,0.07519531,0.20422363,0.33642578,-0.28271484,0.2265625,-0.1307373,-0.28637695,-0.18139648,0.24401855,0.13366699,0.0657959,-0.0803833,0.18798828,-0.2849121,0.12310791,0.33129883,-0.17956543,0.56689453,0.35009766,-0.3996582,0.030181885,0.03945923,-0.07269287,-0.018005371,-0.024139404,0.1763916,-0.13574219,0.2019043,0.2142334,-0.089416504,-0.25439453,-0.09765625,-0.73828125,-0.2902832
Cobra,-0.097351074,0.1583252,-0.09631348,0.05618286,0.33618164,-0.13452148,0.052886963,-1.2402344,-0.13195801,0.21765137,0.4921875,0.16052246,-0.0657959,0.034179688,-0.22875977,-0.11767578,0.7080078,-0.12817383,-0.35913086,-0.25952148,0.48876953,-0.10583496,0.21325684,0.5654297,0.03363037,-0.2631836,-0.09991455,-0.28588867,0.32080078,-0.023773193,0.11425781,-0.1274414,-0.06750488,-0.1427002,0.2866211,-0.23034668,0.021743774,0.35498047,-0.23657227,-0.087768555,0.27197266,0.04425049,0.10736084,-0.081604004,0.06750488,0.46142578,-0.014289856,0.171875,0.1928711,-0.06561279,0.14794922,0.045440674,0.19067383,-0.47973633,0.28588867,-0.016906738,-0.19946289,0.3059082,-0.08807373,0.16833496,0.2166748,0.14196777,0.56689453,0.0084991455,-0.1986084,0.12463379,0.118652344,0.10205078,0.24609375,-0.06185913,0.029937744,-0.28051758,-0.108947754,-0.25952148,-0.12805176,-0.11199951,0.32788086,0.12768555,-0.16503906,-0.29248047,-0.024169922,0.005580902,-0.097595215,0.061676025,-0.19177246,0.08331299,0.15319824,0.17590332,0.1776123,0.28125,0.25048828,-0.30151367,-1.890625,0.14819336,-0.22399902,0.29077148,-0.07232666,0.43920898,-0.16601562,-0.15820312,0.26757812,-0.19921875,0.08703613,0.044952393,-0.22180176,0.05206299,0.15844727,0.22216797,0.09680176,0.16894531,-0.057861328,0.76660156,-0.20568848,-0.12573242,-0.16638184,0.14135742,0.15466309,0.14770508,-0.025878906,-0.004886627,0.117370605,-0.30444336,-0.0037403107,0.011489868,0.024963379,-0.08502197,0.11529541,0.1763916,-0.0914917,0.28125,-0.017700195,-0.03173828,-0.13427734,7.6796875,0.13342285,-0.10876465,0.28051758,-0.29516602,-0.050750732,-0.24682617,0.085876465,0.053955078,0.1595459,0.14892578,-0.11553955,-0.061340332,-0.0024433136,0.11413574,-0.28149414,-0.030578613,-0.00028443336,-0.08331299,-0.097351074,-0.2836914,-0.12939453,-0.081604004,-0.15393066,-0.025131226,-0.19226074,-0.091796875,-0.18701172,-0.28588867,-0.11053467,0.25341797,-0.11804199,-0.044525146,0.33789062,-0.124938965,0.3232422,0.25561523,-0.10107422,-0.064086914,0.025253296,0.082214355,-0.265625,0.17614746,-0.34960938,-0.08148193,0.7895508,0.29370117,-0.06213379,-0.13391113,0.067871094,-0.22045898,-0.17944336,0.0077056885,-0.012069702,-0.24279785,0.10467529,0.06732178,0.019012451,-0.29174805,-0.32592773,0.110961914,0.18066406,0.040252686,0.09832764,-0.014862061,0.2927246,-0.18945312,0.068603516,0.2310791,-0.13183594,0.08294678,0.16113281,-0.004486084,-0.15979004,-0.16552734,-0.10870361,0.023162842,-0.2578125,0.16625977,-0.0064582825,-0.23498535,-0.070373535,-0.12365723,-0.16271973,0.14990234,0.042785645,-0.029418945,-0.5073242,-0.061828613,-0.013336182,-0.09954834,0.2019043,-0.20629883,-0.054229736,-0.117248535,0.1541748,0.07147217,-0.14794922,0.32373047,-0.21862793,-0.10491943,0.38745117,0.016677856,0.1977539,0.31445312,-0.030456543,-0.1427002,0.022399902,0.13562012,0.078063965,-0.03591919,0.46826172,-0.0058288574,0.17858887,-0.026550293,0.23962402,-0.07476807,-0.42211914,0.14782715,0.07434082,0.16430664,-0.1352539,-0.08227539,-0.064331055,-0.09313965,0.13244629,0.19677734,-0.05065918,0.05633545,0.21887207,0.049743652,-0.083618164,-0.047851562,-0.00015807152,-0.12359619,-0.13708496,0.028869629,-0.5,0.029556274,0.020004272,0.14343262,-0.2607422,0.096191406,-0.05819702,0.12670898,-0.34838867,0.19946289,-0.27001953,-0.023040771,0.4675293,-0.037963867,-0.14672852,0.1295166,0.31079102,-0.27734375,-0.16088867,0.1352539,-0.05899048,0.024459839,-0.091308594,0.061706543,0.16931152,0.01486969,-0.052642822,-0.15771484,-0.0317688,0.24938965,-0.08850098,0.12756348,0.06567383,-0.18078613,0.25341797,0.6894531,-0.23999023,-0.375,-0.22253418,0.07751465,0.046661377,0.20056152,7.671875,-0.042175293,0.051757812,0.24206543,0.055603027,0.92871094,0.008117676,0.16418457,0.37426758,0.5102539,-0.04437256,-0.002292633,0.26049805,0.021972656,-0.3161621,-0.14428711,0.12963867,-2.2304688,-0.007575989,0.10168457,0.24353027,0.12182617,0.20043945,0.11407471,-0.23339844,-0.14746094,0.035339355,0.029037476,-0.008178711,-0.07751465,-0.00073337555,-0.0018701553,0.30395508,0.14001465,-0.08807373,0.11016846,0.31420898,0.016967773,0.3244629,0.025299072,-0.10998535,0.0104599,-0.022644043,-0.20935059,-0.09240723,0.35498047,0.11804199,0.15136719,0.18786621,-0.1352539,0.03930664,0.26123047,-0.0073394775,-0.06347656,0.1751709,0.15856934,-0.061920166,-0.040130615,-0.08703613,0.099487305,0.004585266,0.36694336,-0.22497559,0.10119629,-0.21606445,-0.11657715,-0.8041992,0.10803223,-0.26879883,0.5673828,-0.075805664,-0.12219238,0.22521973,-0.16821289,0.18359375,0.01625061,0.16809082,0.110839844,-0.2722168,-0.09729004,0.12371826,-0.15161133,-0.12194824,0.17553711,0.06677246,-0.16271973,0.079833984,0.8535156,0.0758667,-0.0211792,-0.25927734,-0.24157715,0.23620605,-0.3701172,0.39868164,-0.034240723,-0.037963867,0.13964844,-0.21313477,0.031173706,0.04333496,0.21606445,-0.15808105,0.046203613,0.074523926,0.09423828,0.07183838,0.054718018,0.08081055,0.030578613,0.22766113,0.26733398,-0.055908203,-0.03213501,-0.0446167,0.058532715,0.018753052,-0.061157227,-0.13671875,-0.17773438,-0.32592773,-0.15795898,0.0050621033,0.1899414,-0.11218262,-0.14147949,0.14257812,0.3334961,0.15258789,0.2088623,-0.69140625,0.25,-0.1071167,0.0022678375,-0.050933838,-0.024765015,0.22058105,-0.04626465,0.22705078,-0.17028809,-0.23669434,0.31884766,-0.07501221,0.22216797,0.16503906,0.29223633,-0.11791992,0.26513672,-0.0014190674,-0.010414124,-0.15991211,0.07324219,0.09094238,0.113220215,-0.09240723,0.30078125,0.061584473,0.29663086,0.02027893,-0.15979004,0.11553955,-0.21008301,0.015571594,0.02947998,0.25097656,0.3317871,0.0132751465,0.26220703,0.24938965,-0.6972656,-0.12219238,0.09741211,0.12097168,-0.2619629,0.33154297,0.24255371,-0.019332886,-0.16308594,0.13195801,0.20214844,0.13879395,-0.953125,0.02482605,-0.06100464,0.47143555,-0.20043945,-0.19018555,-0.2241211,0.007713318,0.0871582,0.08605957,-0.12976074,-0.49902344,0.04486084,-0.032592773,-0.10333252,-0.027786255,0.23620605,-0.10180664,-0.14660645
Snake,0.0070610046,0.17272949,-0.053344727,-0.32421875,-0.31762695,0.016021729,-0.06359863,-1.0917969,0.05886841,0.5083008,0.25268555,0.09863281,0.16186523,-0.2644043,0.23815918,-0.08526611,0.47094727,-0.21557617,-0.24572754,-0.1973877,0.24890137,-0.09350586,0.26733398,0.16552734,0.14794922,-0.15136719,0.013832092,0.18200684,-0.03353882,0.0758667,0.040252686,-0.2388916,0.171875,0.13452148,-0.026367188,0.0046463013,-0.07336426,0.33325195,0.10229492,-0.14355469,-0.15576172,0.03967285,0.026809692,0.3125,-0.29174805,0.47436523,0.08807373,-0.27929688,0.022872925,-0.105529785,-0.22570801,-0.04864502,-0.20922852,-0.25317383,0.099365234,0.171875,0.082092285,-0.033355713,-0.24145508,0.33789062,0.2175293,-0.5463867,0.014289856,-0.16967773,0.08807373,0.054351807,-0.25708008,0.05783081,0.35083008,0.47460938,-0.078186035,-0.171875,-0.033477783,0.21728516,0.24963379,-0.3190918,-0.08868408,0.14245605,-0.25708008,-0.39135742,0.13391113,-0.049957275,-0.25341797,0.02796936,-0.1673584,0.4099121,0.010063171,-0.0039978027,0.23291016,-0.2253418,0.08380127,-0.04800415,-1.8144531,0.6088867,-0.0071983337,0.15991211,-0.028396606,0.110839844,0.03314209,0.012062073,0.22155762,-0.047424316,0.04421997,-0.06542969,-0.03616333,-0.015403748,-0.087890625,0.26586914,0.43676758,-0.19152832,-0.11834717,0.34204102,0.0715332,0.07513428,0.3713379,0.032470703,-0.05834961,0.35205078,-0.010971069,-0.17822266,0.29101562,-0.33374023,-0.13977051,-0.13964844,0.29101562,0.04067993,-0.068237305,0.078430176,0.19763184,0.61865234,-0.013656616,-0.00011020899,-0.35107422,7.0078125,0.19372559,-0.017425537,0.072753906,-0.49169922,-0.1875,-0.28442383,-0.09729004,0.064453125,-0.13537598,0.20629883,-0.0725708,-0.24633789,-0.12573242,-0.09454346,-0.31347656,0.22717285,-0.24780273,0.15942383,0.09527588,0.006526947,0.31469727,-0.3659668,0.0814209,-0.1940918,-0.31762695,0.059814453,-0.35253906,-0.07269287,-0.08258057,0.22290039,-0.13476562,-0.29907227,0.14404297,-0.053894043,0.1895752,0.08532715,-0.038879395,-0.05328369,-0.0056877136,0.25317383,-0.32617188,0.1048584,-0.1694336,-0.0904541,-0.006538391,0.18823242,-0.015548706,0.25024414,-0.2878418,-0.4099121,-0.035827637,0.1652832,0.43676758,-0.40429688,0.23876953,-0.25341797,0.16040039,-0.28295898,0.24414062,-0.020935059,0.13598633,0.23571777,0.19946289,-0.119506836,0.06402588,-0.18469238,-0.034729004,0.026641846,-0.21777344,0.04043579,-0.23510742,0.041503906,-0.08905029,-0.25048828,0.00044703484,-0.002122879,0.18164062,0.20471191,-0.14978027,-0.43066406,0.23278809,0.119018555,-0.4868164,-0.28393555,-0.030517578,-0.16394043,0.12359619,-0.046173096,-0.08325195,-0.07495117,0.24401855,-0.37963867,0.07751465,0.2064209,0.019119263,0.13232422,-0.18237305,0.25048828,-0.17041016,-0.16418457,-0.11236572,0.23583984,0.44067383,0.055419922,0.1138916,0.074645996,-0.11608887,-0.01285553,0.061828613,0.32226562,0.18896484,0.09313965,-0.12451172,-0.06591797,-0.050872803,-0.13647461,-0.22546387,0.42211914,0.05822754,0.14941406,-0.42578125,-0.30664062,-0.0574646,-0.19030762,-0.014717102,0.1083374,-0.21386719,-0.13671875,0.36572266,-0.13659668,-0.049194336,0.120788574,0.003145218,-0.35424805,0.15258789,-0.12445068,-0.32641602,-0.21020508,0.011810303,-0.004299164,0.100097656,0.26000977,0.1829834,-0.052978516,-0.2722168,0.0065612793,-0.20300293,-0.4729004,0.21569824,-0.050842285,-0.12805176,-0.052642822,0.28393555,-0.1340332,-0.15344238,-0.029891968,0.32641602,-0.10809326,-0.1607666,0.10772705,-0.35375977,-0.12109375,-0.1854248,-0.11602783,-0.18005371,-0.07470703,-0.10595703,-0.09185791,-0.17663574,-0.5102539,0.26538086,-0.03201294,0.07989502,-0.018692017,-0.20751953,-0.06365967,0.041168213,0.24572754,6.9960938,0.37573242,0.045196533,0.0042304993,0.26464844,0.07220459,0.06384277,0.11907959,0.18811035,0.3659668,-0.08770752,-0.028701782,0.09838867,-0.053649902,-0.12536621,0.13623047,0.068725586,-2.8125,-0.3618164,-0.033294678,0.20812988,-0.18847656,0.00856781,0.046295166,-0.5488281,0.041748047,0.057373047,0.13708496,-0.105407715,-0.014915466,-0.15551758,-0.12475586,0.20935059,0.11529541,-0.011047363,0.16784668,0.07861328,0.2409668,0.12176514,0.008201599,-0.23278809,0.10192871,-0.058380127,0.2697754,0.36572266,0.026626587,0.06390381,0.12805176,0.10046387,0.015380859,0.44970703,0.19714355,-0.0022525787,-0.14428711,0.07269287,-0.017288208,-0.048583984,-0.09753418,-0.06173706,-0.15551758,-0.076049805,0.32910156,-0.11639404,-0.20593262,-0.20874023,0.109436035,-0.5629883,-0.08123779,-0.07208252,0.14111328,-0.30249023,-0.28027344,0.02128601,0.18139648,-0.0027446747,-0.00198555,0.074645996,-0.10192871,-0.2220459,0.29516602,0.047058105,-0.16235352,-0.19067383,0.34594727,-0.115600586,-0.2619629,0.0012617111,0.14526367,-0.22998047,0.13208008,0.12036133,-0.30615234,0.082458496,-0.2536621,0.056732178,-0.08062744,0.09899902,-0.10888672,0.07348633,-0.21984863,0.089904785,0.39160156,-0.15979004,-0.07354736,-0.005622864,0.0067710876,-0.016143799,0.16479492,-0.13891602,0.004005432,0.1459961,0.041381836,-0.24914551,0.61376953,0.010353088,-0.5058594,0.10235596,-0.26293945,-0.04626465,-0.12963867,-0.25195312,0.21728516,0.20080566,0.15161133,-0.2692871,0.21069336,-0.3881836,0.45703125,-0.019104004,0.10449219,0.1352539,0.3293457,-0.078430176,0.2692871,0.13903809,-0.044158936,0.19689941,-0.3684082,-0.10479736,-0.12573242,0.20349121,0.107666016,-0.1932373,0.11242676,0.32983398,0.5620117,-0.2607422,-0.12121582,0.3256836,-0.10205078,-0.43017578,-0.074035645,0.23522949,-0.55371094,0.17993164,0.046325684,0.021270752,-0.28515625,0.010047913,0.055480957,0.06738281,0.015930176,0.09112549,0.08093262,0.40283203,0.35961914,0.067871094,0.2536621,0.38354492,-0.9628906,0.06286621,-0.040161133,0.054870605,-0.0031223297,0.10058594,0.4272461,-0.16845703,-0.15270996,0.30151367,-0.020507812,0.0769043,0.39501953,-0.22912598,0.30566406,0.3815918,-0.12011719,-0.009773254,-0.10430908,-0.1784668,0.07965088,-0.0077667236,-0.0703125,-0.030456543,0.08148193,-0.099853516,0.21008301,-0.039978027,-0.19567871,0.10424805,-0.062561035
Blindworm,-0.19799805,0.19897461,0.30639648,-0.0287323,-0.27954102,-0.32226562,-0.020553589,-1.0644531,-0.018157959,0.5024414,-0.21948242,0.10168457,0.3552246,-0.30322266,-0.11621094,0.12347412,0.10418701,0.16723633,0.23425293,-0.27294922,0.23620605,-0.14135742,0.056152344,0.4645996,0.035583496,0.001537323,-0.10534668,0.1159668,-0.21484375,0.08343506,-0.015930176,-0.002401352,-0.06500244,-0.14807129,0.1340332,-0.015281677,-0.023391724,0.1697998,0.050109863,-0.22790527,0.025894165,0.1739502,-0.1385498,-0.11553955,0.38183594,0.31201172,0.1161499,-0.097229004,-0.023605347,-0.28515625,-0.07733154,-0.064453125,0.042388916,0.14196777,0.04876709,0.094055176,-0.2253418,-0.033996582,0.15393066,0.02722168,0.24707031,-0.15466309,-0.0725708,-0.14794922,-0.0020580292,0.095703125,0.011199951,-0.041534424,0.2076416,0.15124512,0.24780273,-0.114990234,0.07312012,-0.19458008,0.14489746,-0.017623901,-0.08404541,0.31762695,-0.14953613,-0.46679688,0.16223145,-0.3449707,0.01525116,0.35595703,-0.29101562,0.17089844,0.21862793,-0.00064992905,-0.027938843,0.34887695,0.17333984,-0.14648438,-1.8203125,0.42456055,-0.15795898,0.09643555,0.32373047,-0.0793457,-0.28833008,-0.010688782,0.26611328,-0.026977539,0.12939453,-0.13464355,-0.2939453,0.12841797,-0.15686035,0.19348145,0.11004639,0.0690918,0.10217285,0.29907227,-0.031677246,0.1550293,-0.22631836,0.2064209,0.2861328,0.50390625,-0.16503906,0.091918945,-0.041778564,-0.47021484,-0.06549072,-0.04736328,0.29907227,0.24365234,-0.20056152,0.029541016,-0.1986084,0.064941406,-0.000446558,0.01889038,-0.47802734,7.1640625,0.13977051,0.10656738,-0.3232422,-0.5942383,-0.07897949,-0.12731934,-0.31860352,-0.093566895,-0.13562012,-0.056762695,-0.71484375,-0.3569336,-0.10070801,0.026870728,-0.6923828,-0.085876465,-0.24230957,-0.09790039,0.19030762,0.07116699,0.09387207,-0.16027832,0.042755127,-0.087768555,-0.19799805,-0.33813477,-0.2409668,0.05529785,0.059570312,0.060668945,-0.21447754,0.03262329,0.019927979,0.13183594,0.33422852,0.14672852,0.28686523,0.06933594,-0.16357422,0.4111328,-0.22363281,0.16845703,-0.30615234,0.4477539,-0.12939453,-0.13708496,-0.11633301,-0.03302002,-0.42016602,-0.3852539,0.062042236,-0.07086182,-0.06512451,-0.1875,0.013687134,0.012077332,0.16027832,-0.23937988,0.20092773,-0.43188477,0.25830078,-0.14379883,0.16809082,-0.13879395,0.21398926,0.2208252,0.023712158,-0.04663086,-0.01550293,-0.0010623932,-0.04763794,-0.19641113,0.1496582,-0.30517578,0.23461914,0.061157227,0.30493164,0.31445312,0.1496582,-0.41064453,0.16418457,0.030792236,-0.4296875,0.09442139,-0.05230713,-0.28295898,-0.025360107,-0.10534668,0.2454834,-0.046020508,-0.11364746,-0.15112305,0.041809082,-0.050811768,-0.014312744,0.09362793,0.12658691,-0.029174805,-0.09051514,-0.27026367,-0.031677246,0.35742188,0.21496582,0.3227539,-0.19824219,-0.265625,0.04876709,0.07220459,0.11199951,0.1104126,-0.0008955002,0.17028809,-0.10900879,-0.16491699,-0.017547607,0.11706543,0.009765625,0.23425293,0.2746582,0.1307373,-0.12561035,0.14294434,0.0390625,-0.2286377,-0.111206055,-0.024642944,-0.3125,-0.14416504,0.48095703,-0.08880615,-0.026733398,-0.20458984,0.18261719,-0.16540527,-0.105773926,-0.105651855,0.08654785,-0.47973633,0.13269043,0.008651733,-0.16149902,0.16796875,-0.41430664,-0.023468018,-0.12731934,0.12261963,-0.17150879,0.03253174,0.21496582,0.024902344,0.16052246,-0.22717285,0.05419922,-0.17468262,0.08648682,-0.1706543,0.3540039,0.089904785,0.00027418137,-0.12927246,-0.13208008,-0.050201416,-0.16796875,-0.10668945,-0.10272217,0.19799805,-0.11413574,-0.23864746,-0.0690918,-0.25610352,0.29760742,-0.17687988,-0.27685547,0.0021839142,-0.31396484,-0.103393555,-0.14538574,0.054473877,7.15625,-0.11303711,0.0748291,0.28564453,0.0036945343,0.114868164,-0.014633179,0.21569824,-0.1038208,0.5253906,-0.11621094,0.072631836,0.32543945,-0.09020996,0.09472656,0.17297363,-0.15185547,-2.9199219,-0.23327637,-0.06817627,0.021972656,0.05709839,-0.13293457,-0.03213501,-0.056671143,0.017211914,0.1986084,-0.12438965,-0.18225098,-0.07849121,0.0657959,0.28222656,-0.0847168,0.3486328,-0.0129776,0.07501221,0.13684082,0.2277832,0.19519043,-0.061523438,0.08465576,0.16931152,-0.37426758,0.3154297,0.35961914,-0.066589355,-0.022583008,0.1138916,0.030426025,-0.29223633,0.16699219,0.29052734,-0.20483398,-0.1550293,0.26708984,-0.012542725,0.099365234,0.024902344,0.003522873,0.3503418,-0.23461914,0.08300781,0.19543457,0.12805176,-0.24829102,-0.06994629,-0.60498047,-0.01889038,-0.0793457,0.051574707,-0.20446777,-0.28149414,0.11395264,-0.019638062,-0.09436035,0.054901123,-0.0758667,-0.13708496,-0.1361084,0.07293701,-0.11401367,0.012260437,-0.13952637,0.27490234,-0.24645996,-0.22338867,-0.014091492,0.25024414,-0.02659607,-0.07659912,-0.0925293,-0.43530273,0.059539795,0.08465576,0.22937012,-0.053619385,-0.38623047,0.4104004,0.13562012,-0.3112793,0.17333984,0.14123535,-0.3005371,0.05911255,0.20861816,-0.10046387,0.037109375,-0.14208984,-0.20141602,-0.035217285,-0.03277588,0.0005373955,-0.064208984,-0.1083374,-0.18286133,-0.3935547,0.17382812,-0.19311523,-0.12597656,0.2734375,-0.32836914,-0.062927246,0.3005371,0.29882812,-0.2475586,-0.038757324,-0.28393555,0.34838867,-0.021911621,-0.24780273,0.027572632,-0.21765137,0.033966064,0.27441406,-0.1895752,-0.3388672,-0.0546875,-0.23046875,0.013092041,0.21923828,0.28076172,-0.16894531,0.18981934,0.19592285,-0.08911133,0.33813477,0.140625,0.10925293,0.17773438,0.070251465,-0.14868164,0.002210617,0.076171875,-0.20568848,0.24609375,-0.16357422,0.2512207,-0.023971558,0.1854248,-0.27685547,0.19104004,-0.047424316,-0.2142334,0.22351074,0.05807495,0.19042969,-0.1005249,0.26733398,0.13000488,-0.8496094,-0.0027256012,0.10491943,0.054382324,-0.3088379,0.06756592,-0.091918945,-0.19921875,0.1385498,0.048950195,0.13952637,0.10522461,0.2322998,-0.328125,-0.20996094,0.1574707,0.0058174133,0.0025100708,0.12817383,-0.11883545,0.13989258,0.07714844,0.30078125,0.07775879,0.47314453,0.05340576,0.4477539,-0.32055664,-0.21594238,-0.15661621,-0.08026123
Gecko,0.039978027,0.03970337,-0.265625,-0.0027599335,-0.123413086,0.2607422,-0.14196777,-1.3066406,-0.15466309,0.5239258,-0.16821289,0.16638184,-0.07775879,-0.26171875,0.2376709,-0.097351074,0.44702148,0.53222656,-0.37890625,-0.1586914,0.3569336,-0.13269043,0.19897461,0.10217285,0.17626953,-0.078308105,-0.06585693,0.1274414,-0.12298584,0.17614746,0.06939697,-0.13891602,0.01864624,0.093444824,0.13757324,-0.22851562,-0.0129852295,0.7915039,-0.2692871,-0.14501953,0.14233398,0.07659912,-0.25927734,0.44091797,0.0006146431,0.41992188,0.014228821,0.014419556,-0.13195801,0.14746094,0.17077637,0.02218628,0.07220459,-0.1381836,-0.117126465,-0.1427002,-0.2692871,-0.31152344,-0.21655273,-0.36938477,0.2878418,-0.1517334,-0.32421875,-0.0385437,0.50390625,0.017715454,-0.24572754,0.05630493,0.38500977,0.07287598,-0.35595703,-0.17236328,0.034484863,-0.08294678,-0.055633545,-0.28125,-0.009689331,0.15966797,0.1459961,-0.11773682,-0.24023438,0.39086914,-0.4465332,-0.10406494,-0.105285645,0.23937988,0.22558594,-0.043151855,0.1463623,0.0022411346,0.16870117,-0.22009277,-1.7060547,0.34301758,0.27978516,0.17956543,0.07336426,0.66308594,0.00067949295,-0.037109375,0.3137207,0.46655273,0.46801758,0.24621582,0.09790039,-0.24279785,0.1895752,0.012573242,0.019638062,0.025619507,0.22729492,0.36889648,0.2442627,0.08050537,0.02861023,-0.08850098,-0.01687622,0.30615234,0.13598633,-0.0657959,0.31152344,-0.35986328,-0.03201294,-0.10583496,0.026794434,-0.19750977,-0.23425293,-0.11981201,-0.123291016,0.044067383,0.027862549,-0.062683105,-0.20275879,5.96875,-0.17822266,-0.08441162,-0.09399414,-0.17541504,-0.2705078,-0.26586914,0.24279785,0.15039062,-0.22229004,-0.23181152,-0.01725769,-0.2409668,-0.022262573,-0.3269043,-0.22595215,0.13549805,0.0491333,-0.3935547,-0.14477539,-0.08105469,0.11199951,-0.2956543,-0.058258057,-0.09893799,-0.4970703,0.14746094,0.09490967,-0.4453125,-0.060150146,0.34375,-0.04763794,-0.19628906,-0.113220215,0.23571777,0.16638184,-0.00844574,0.09686279,-0.39672852,0.21191406,0.02973938,-0.39770508,-0.029174805,-0.19165039,-0.061279297,-0.03164673,-0.2783203,-0.008781433,-0.06414795,0.23901367,-0.22509766,-0.27148438,0.008453369,0.5390625,-0.55126953,-0.18164062,-0.121032715,0.16320801,-0.4248047,-0.03982544,0.1126709,0.062042236,0.095458984,-0.017974854,0.056915283,0.118652344,-0.16638184,-0.013938904,-0.047973633,-0.29467773,-0.07165527,-0.025772095,-0.06744385,0.026809692,-0.119628906,-0.16589355,0.28857422,-0.26538086,0.22961426,-0.1529541,-0.4675293,0.055908203,0.23901367,-0.48095703,-0.20690918,0.28710938,0.055236816,0.066223145,0.119262695,-0.29492188,0.045684814,0.18164062,-0.20678711,0.21203613,0.2364502,0.028915405,0.17297363,0.038330078,0.056854248,-0.06677246,-0.15197754,0.23132324,0.30810547,0.4423828,-0.00141716,0.042907715,0.12390137,-0.5522461,-0.0635376,0.22473145,-0.08630371,0.17871094,-0.03677368,0.049560547,-0.07336426,0.42041016,-0.30078125,0.064453125,0.46972656,-0.1652832,-0.066711426,-0.46362305,-0.049713135,-0.060668945,0.11834717,0.15686035,-0.24707031,-0.04345703,-0.13659668,-0.056854248,0.026672363,-0.0158844,-0.06958008,0.045196533,-0.4074707,0.20043945,0.41845703,-0.23828125,-0.37158203,-0.09423828,-0.09875488,-0.2734375,0.2253418,-0.069885254,-0.33569336,0.026748657,0.12335205,0.0035495758,-0.4399414,0.38867188,-0.03933716,0.022628784,-0.09100342,0.2902832,-0.08929443,-0.64746094,0.20178223,-0.03753662,0.24035645,-0.08569336,0.038116455,-0.120666504,-0.3125,-0.07861328,0.029541016,-0.29785156,0.22143555,-0.020263672,0.27319336,-0.105773926,-0.24658203,0.22875977,0.103637695,-0.42358398,-0.34643555,0.22680664,0.12261963,0.25463867,-0.19445801,5.9609375,0.2770996,-0.41918945,0.4597168,0.42211914,0.051605225,0.3984375,0.08465576,0.4321289,0.33618164,0.19055176,0.18847656,0.045043945,0.0927124,-0.06738281,0.31860352,0.34960938,-2.5195312,-0.43310547,-0.13354492,0.3071289,0.055419922,0.18017578,-0.06542969,-0.35888672,0.11651611,0.3671875,0.21313477,0.1459961,-0.066101074,0.073791504,-0.18774414,0.1517334,-0.09454346,0.025405884,0.23168945,0.0647583,0.16638184,0.20715332,0.003025055,-0.07678223,0.5136719,-0.0057868958,-0.053863525,0.3569336,0.26611328,0.115356445,0.6166992,0.29663086,0.10003662,0.171875,-0.039489746,-0.12200928,0.12695312,0.32592773,0.09161377,-0.011405945,-0.01626587,-0.13464355,0.02330017,0.14697266,-0.08355713,-0.2626953,-0.21362305,-0.1661377,0.014877319,-0.41333008,-0.0826416,-0.3791504,0.15258789,-0.26464844,0.05545044,0.05831909,0.11541748,0.0859375,0.08746338,0.022766113,0.05630493,-0.4729004,-0.14160156,0.23742676,-0.015296936,0.034606934,-0.1282959,0.30419922,-0.6254883,-0.22155762,0.3137207,-0.2956543,0.3125,0.09075928,-0.43969727,-0.30419922,-0.28173828,0.06750488,0.02394104,0.19262695,0.035308838,0.090026855,-0.115112305,0.033935547,0.36987305,0.060668945,0.1027832,0.06518555,0.041259766,-0.10412598,0.021881104,0.25390625,-0.0015306473,0.36889648,-0.1541748,-0.2199707,0.123046875,0.11035156,-0.014602661,0.095825195,-0.1394043,0.010978699,0.05368042,-0.07348633,-0.19165039,0.21972656,0.22351074,-0.19458008,0.019836426,-0.20922852,0.5571289,0.21008301,0.048919678,0.12585449,0.24511719,-0.038360596,-0.10809326,0.43237305,0.10131836,0.052093506,-0.1586914,0.056671143,0.10498047,-0.2680664,0.18591309,-0.113098145,0.19042969,0.30297852,0.28881836,0.15319824,0.29174805,0.6738281,-0.27490234,-0.37109375,-0.41601562,-0.011962891,-0.15454102,0.018249512,0.35327148,-0.2878418,-0.16967773,0.15661621,0.017868042,-0.28222656,-0.12548828,0.26123047,0.26391602,0.23510742,0.58496094,-0.070617676,0.120788574,0.20373535,-0.87353516,-0.057556152,0.19091797,0.09088135,-0.22741699,0.11291504,-0.21813965,-0.11755371,-0.06188965,0.2565918,0.30395508,0.13513184,0.28466797,0.039520264,-0.07299805,0.08477783,-0.3071289,0.031051636,-0.012626648,0.09118652,0.030822754,0.20581055,-0.23449707,-0.23425293,-0.2043457,0.44213867,-0.20983887,-0.055419922,0.08666992,-0.0848999,-0.1508789
Boa Python,0.28930664,0.3059082,-0.047454834,-0.5307617,-0.2578125,-0.07635498,-0.052520752,-0.99072266,0.12866211,0.085998535,0.01914978,-0.070373535,0.036865234,-0.42529297,-0.03225708,-0.19299316,0.5004883,0.060699463,-0.2076416,-0.078308105,0.38793945,-0.07421875,0.3984375,0.18835449,-0.08886719,-0.00818634,-0.118774414,0.060455322,-0.019042969,-0.010559082,-0.013656616,-0.039916992,-0.06530762,0.077697754,0.03173828,-0.41577148,-0.071899414,0.4794922,0.2253418,-0.2644043,0.003686905,0.3269043,-0.17687988,0.2397461,0.1776123,0.3737793,0.1895752,-0.055358887,0.18786621,0.042938232,-0.09387207,-0.11065674,0.13098145,-0.05731201,0.37158203,0.09967041,-0.06945801,0.18664551,0.034698486,0.23046875,0.34643555,-0.5024414,0.097595215,-0.20947266,0.06585693,-0.02468872,-0.14990234,-0.055664062,0.22692871,-0.15258789,-0.23657227,-0.3786621,-0.22668457,-0.048065186,-0.06945801,-0.22143555,0.23425293,0.10839844,0.076171875,-0.203125,0.08129883,0.18554688,0.08251953,0.0848999,-0.33251953,0.38842773,0.31982422,0.18835449,0.2734375,-0.0129470825,-0.028701782,0.28637695,-1.8203125,0.2446289,-0.10638428,0.2680664,-0.032043457,0.1862793,-0.0725708,-0.032409668,-0.047668457,0.00655365,-0.093811035,0.3125,-0.11340332,0.30639648,-0.16003418,0.1194458,0.52734375,0.28857422,-0.061065674,0.35766602,0.07879639,-0.0028076172,0.23352051,-0.14404297,0.010482788,0.21875,-0.26171875,-0.00983429,0.037506104,-0.23950195,-0.12249756,-0.34301758,0.12042236,-0.10284424,-0.105163574,0.14904785,0.36547852,0.52490234,0.03515625,-0.08660889,-0.37231445,7.0585938,0.1697998,0.5058594,0.29833984,-0.44018555,-0.12561035,-0.10723877,-0.08404541,-0.0017299652,-0.10852051,0.3251953,-0.1763916,0.076171875,-0.17700195,-0.2553711,-0.25146484,0.057891846,0.018737793,-0.19506836,0.07287598,0.2685547,-0.23498535,-0.28442383,0.10614014,0.13574219,-0.2602539,0.09088135,-0.46240234,-0.08062744,0.035369873,0.26220703,-0.14294434,-0.4584961,0.17834473,-0.2783203,0.23474121,-0.013465881,-0.2133789,-0.25732422,0.02331543,0.14404297,-0.38110352,0.08947754,-0.20275879,-0.053131104,0.19018555,0.2244873,0.06500244,0.0491333,-0.49267578,-0.24572754,0.024612427,0.13098145,0.34301758,-0.31933594,0.21020508,-0.23791504,0.13232422,-0.10626221,0.03857422,-0.10491943,0.30004883,0.09777832,0.22583008,-0.077941895,0.21020508,-0.001285553,-0.09039307,0.17895508,0.23095703,0.101257324,-0.00466156,0.26391602,0.15759277,-0.016998291,0.13781738,0.35083008,0.11206055,0.056274414,-0.05795288,0.022613525,0.03277588,-0.09576416,-0.34960938,-0.041931152,0.20092773,0.120788574,-0.0073890686,-0.12158203,-0.081970215,-0.04989624,0.008422852,-0.25268555,0.12597656,0.15209961,0.097839355,0.042785645,-0.044952393,0.22094727,0.062042236,-0.4855957,-0.14343262,0.38378906,0.15563965,0.076049805,0.06317139,0.0010919571,-0.17260742,-0.21484375,0.037109375,0.30004883,-0.018341064,0.31030273,0.052337646,-0.27441406,0.3413086,-0.07714844,-0.23156738,0.24743652,0.028442383,0.29711914,-0.14367676,0.05899048,0.09307861,-0.15734863,-0.076538086,0.09094238,-0.35717773,-0.18188477,0.36328125,0.017074585,-0.027435303,-0.03591919,-0.08306885,-0.08074951,0.23364258,0.12420654,-0.23046875,0.1697998,0.21484375,-0.10687256,-0.21582031,0.05795288,-0.16381836,0.050628662,-0.2553711,0.07330322,-0.03817749,-0.22595215,0.28051758,-0.10321045,0.12261963,0.16662598,0.32543945,0.105895996,0.09655762,0.19482422,0.06817627,0.046569824,-0.15405273,0.26464844,0.07116699,0.18981934,-0.033355713,0.05581665,-0.21569824,0.07489014,-0.18054199,-0.029754639,-0.40795898,-0.3762207,0.15734863,-0.02368164,-0.00907135,0.0014533997,-0.36669922,-0.19177246,0.07098389,0.21386719,7.0507812,0.09301758,-0.01449585,0.21643066,-0.29345703,0.07220459,0.30664062,0.3359375,0.25756836,0.32592773,-0.0340271,-0.08874512,-0.14477539,-0.17749023,-0.2019043,0.15722656,-0.22045898,-2.9550781,-0.4194336,0.059020996,0.3762207,-0.31152344,0.0024280548,0.38964844,-0.25048828,0.074035645,0.14160156,0.11151123,0.0519104,-0.13757324,-0.30151367,0.0072402954,0.24267578,0.28027344,0.41918945,-0.14489746,0.42749023,-0.14233398,0.076171875,0.2512207,-0.08312988,0.02116394,0.1673584,0.25976562,0.4345703,0.07904053,0.062316895,0.27246094,0.28320312,-0.014373779,0.018188477,0.1854248,-0.111694336,0.13427734,-0.029174805,0.051086426,-0.19018555,-0.18237305,0.12432861,-0.24707031,0.17932129,0.36743164,0.12915039,0.0070381165,-0.17199707,0.19165039,-0.3918457,-0.0982666,0.046722412,-0.044525146,-0.21777344,-0.2166748,0.040496826,-0.0063171387,0.093566895,-0.021759033,-0.18066406,-0.16601562,-0.29125977,-0.059539795,0.16491699,-0.14697266,-0.34326172,0.24438477,-0.36132812,-0.12133789,-0.03074646,0.19335938,-0.2705078,0.018737793,-0.09588623,-0.26489258,0.12286377,-0.11102295,0.08856201,-0.04269409,0.1496582,-0.27685547,-0.045776367,-0.16271973,-0.07556152,0.40600586,0.010383606,-0.08319092,-0.087402344,-0.2680664,-0.05218506,0.08544922,-0.31323242,-0.13635254,0.20080566,-0.11364746,0.08679199,0.27807617,-0.04272461,-0.4897461,-0.00017142296,-0.25048828,-0.35424805,-0.37182617,-0.24645996,0.17248535,0.1661377,-0.14025879,-0.11639404,-0.19348145,-0.12915039,0.27563477,0.08807373,-0.23925781,-0.13635254,0.023925781,0.0982666,-0.037902832,-0.14477539,-0.058898926,0.60009766,-0.18579102,-0.08880615,0.039916992,-0.08026123,0.017684937,-0.4543457,0.32470703,-0.08074951,0.114990234,0.11987305,0.00920105,0.41430664,-0.23583984,-0.10028076,0.17370605,-0.23547363,-0.47192383,0.34399414,-0.14660645,0.30688477,-0.24145508,0.31518555,-0.055664062,0.037384033,0.067993164,0.10168457,0.12609863,0.4169922,0.19934082,-0.107543945,0.5385742,0.11987305,-1.0761719,-0.11175537,0.03805542,-0.19165039,0.33203125,0.4104004,0.23596191,-0.27514648,-0.3100586,0.58691406,-0.17932129,0.15002441,0.11590576,-0.61279297,0.21557617,0.10015869,0.057128906,0.015853882,-0.015701294,-0.18444824,0.09399414,0.047973633,0.103759766,0.10479736,0.17663574,0.2668457,-0.0287323,0.046875,-0.032409668,-0.2800293,-0.023605347
Toad,0.04171753,-0.13476562,-0.17041016,-0.19213867,-0.045074463,0.17297363,-0.3059082,-1.3720703,-0.095825195,0.5048828,0.27856445,0.22497559,-0.08972168,-0.29516602,0.16357422,-0.17736816,0.49853516,-0.025360107,0.031402588,-0.5649414,0.27929688,-0.09716797,0.5649414,0.13830566,-0.021331787,-0.20410156,-0.23120117,0.00881958,0.34301758,0.026565552,-0.27685547,-0.2565918,0.07598877,-0.061676025,0.07141113,-0.13781738,0.0104522705,0.34887695,-0.058929443,-0.1550293,-0.007156372,0.1484375,0.060760498,0.44848633,0.38354492,0.36669922,-0.013793945,-0.0395813,0.016937256,-0.020523071,0.11029053,-0.20422363,0.07763672,-0.28930664,0.0121154785,0.26245117,-0.05783081,0.12597656,-0.08673096,-0.111328125,0.2932129,-0.11254883,0.23730469,-0.026550293,0.1373291,0.30810547,-0.18127441,0.009651184,0.3408203,-0.28076172,-0.09716797,-0.20153809,-0.029006958,-0.3161621,-0.124938965,-0.25756836,0.070617676,0.11102295,-0.22473145,-0.1751709,0.10101318,-0.029968262,-0.0035533905,0.13879395,-0.10241699,0.35083008,0.12133789,0.058044434,0.19311523,0.03173828,0.4099121,-0.30908203,-1.9306641,0.40234375,0.107788086,0.31469727,0.013458252,0.43432617,-0.1854248,-0.10345459,0.005504608,0.23571777,0.38964844,-0.0491333,-0.11425781,0.059509277,0.07525635,-0.033447266,0.30810547,-0.00095415115,0.0625,0.42016602,-0.121520996,-0.20532227,0.105285645,0.08178711,0.04876709,0.24194336,-0.07421875,0.10479736,0.2998047,-0.09442139,0.014663696,-0.21508789,0.09295654,-0.20605469,0.06695557,-0.13696289,-0.011810303,0.2553711,0.07385254,-0.14147949,-0.1920166,7.2773438,-0.13452148,0.055877686,-0.21362305,-0.5229492,-0.13464355,-0.103271484,-0.16320801,-0.14367676,-0.033050537,-0.09906006,-0.07196045,-0.29418945,-0.09399414,0.022399902,-0.21557617,0.20422363,-0.124572754,-0.12182617,-0.007045746,0.18078613,-0.08026123,-0.12841797,-0.073791504,-0.2536621,-0.17297363,-0.025100708,-0.44189453,-0.23937988,-0.04574585,0.27294922,-0.21789551,-0.14624023,0.08129883,-0.21203613,0.089538574,-0.058441162,0.092163086,-0.30737305,0.12780762,0.16394043,-0.40039062,0.062927246,-0.19726562,0.13769531,0.09967041,0.26733398,0.10369873,0.09350586,-0.07098389,-0.17016602,-0.35058594,-0.029846191,0.26904297,-0.46020508,0.066345215,-0.056671143,0.07501221,-0.59033203,-0.14892578,-0.25927734,0.02947998,-0.08355713,0.20690918,-0.03692627,-0.009178162,0.048736572,-0.12670898,0.14807129,-0.023468018,0.13208008,-0.051849365,0.039123535,-0.124938965,-0.3322754,-0.021759033,-0.019424438,0.121154785,-0.0049591064,-0.035369873,-0.16809082,-0.13500977,-0.16894531,-0.48046875,-0.17199707,0.18078613,-0.17370605,0.13342285,0.024795532,0.0029010773,0.123046875,0.091552734,-0.15930176,-0.1352539,0.4260254,0.0020332336,-0.0826416,0.000161767,0.1817627,-0.33935547,-0.07489014,-0.12243652,0.41186523,0.41333008,0.1763916,0.13659668,-0.2866211,-0.27172852,-0.011856079,0.22387695,0.14794922,0.3815918,0.15820312,-0.062286377,-0.027954102,0.08453369,-0.38671875,-0.08148193,0.14941406,-0.087402344,0.04434204,-0.17565918,0.14001465,-0.18249512,-0.103149414,0.08770752,0.18725586,-0.007686615,-0.26342773,0.35424805,0.03793335,-0.16345215,0.09631348,-0.098083496,-0.1973877,-0.078430176,0.11419678,-0.33398438,0.14807129,0.3347168,-0.12298584,-0.14111328,-0.055541992,-0.024932861,-0.0119018555,0.10467529,0.1529541,-0.19702148,-0.6723633,0.26367188,0.009941101,0.12573242,0.03765869,0.21044922,-0.29296875,-0.33544922,0.16137695,0.048461914,0.034423828,-0.2578125,-0.40844727,0.024780273,-0.15429688,-0.2401123,0.04864502,0.027938843,0.20874023,-0.07507324,-0.26367188,-0.30664062,-0.2788086,0.30981445,0.11199951,0.04144287,-0.3251953,-0.21838379,-0.032562256,0.025009155,0.011985779,7.2695312,0.45654297,-0.07714844,0.14355469,0.31079102,-0.016860962,0.19250488,0.23425293,0.6826172,0.44970703,0.09442139,-0.20043945,0.29882812,-0.16992188,0.019866943,0.07800293,0.23901367,-3.125,-0.27539062,-0.07397461,0.21362305,0.05795288,0.024093628,0.19592285,-0.19946289,0.012825012,0.1138916,0.17626953,0.1138916,0.050567627,0.0027446747,-0.11010742,0.32055664,0.08905029,0.14990234,0.08831787,0.14770508,0.0038967133,0.15112305,0.079956055,-0.03540039,-0.00063323975,-0.12854004,0.31567383,-0.052734375,0.05709839,-0.19970703,0.23876953,0.0949707,0.09814453,0.3059082,0.23449707,-0.2298584,0.024291992,-0.078308105,0.17089844,0.030212402,0.042785645,0.24169922,0.05859375,-0.057922363,0.31713867,-0.08874512,-0.17895508,-0.23864746,-0.18164062,-0.5258789,0.006565094,-0.118896484,0.09387207,-0.17993164,-0.04058838,0.12384033,-0.073913574,0.037902832,0.059814453,0.14990234,0.0418396,-0.21228027,-0.059326172,-0.14343262,-0.013687134,-0.22338867,0.24206543,-0.11187744,-0.46850586,-0.08087158,0.25756836,0.06866455,0.1776123,-0.033416748,-0.28149414,0.13842773,-0.16027832,0.17822266,-0.018341064,-0.11053467,-0.050109863,0.099365234,-0.23999023,-0.057159424,0.46240234,-0.041778564,-0.095336914,-0.05380249,0.010566711,-0.05899048,0.1348877,-0.20776367,-0.10748291,0.18151855,-0.0046195984,0.0020523071,0.055358887,-0.1665039,-0.040039062,0.08984375,0.18859863,-0.16784668,0.12231445,-0.13317871,0.070007324,-0.045532227,0.26245117,-0.0680542,-0.076660156,-0.19177246,0.23498535,-0.056884766,0.026107788,0.3864746,0.24377441,0.17138672,-0.061828613,-0.091308594,-0.040161133,0.32714844,0.13049316,0.1262207,0.08123779,-0.22937012,0.10101318,0.009147644,0.08099365,-0.06567383,-0.0074691772,-0.022750854,0.13745117,0.15515137,-0.01524353,-0.09527588,-0.22717285,0.056671143,-0.27514648,-0.034210205,0.05215454,-0.3503418,-0.033569336,0.016586304,0.07598877,0.08770752,-0.1295166,0.19519043,0.31298828,0.49902344,0.40771484,-0.14562988,0.17346191,0.090270996,-0.9707031,0.08459473,0.010353088,-0.12976074,0.0501709,0.072387695,0.19824219,-0.037902832,0.11291504,0.30737305,-0.060699463,0.18139648,0.11279297,-0.0435791,0.14575195,0.16137695,-0.4597168,-0.12524414,-0.017425537,0.017181396,-0.14172363,-0.09844971,-0.14367676,-0.1239624,-0.1104126,0.35375977,-0.017456055,-0.06921387,-0.09753418,-0.025619507,-0.11981201
Crocodile,0.21203613,-0.0602417,-0.088012695,-0.095703125,0.038635254,-0.099609375,-0.33325195,-1.1054688,-0.06951904,0.31958008,0.16381836,0.034820557,0.12072754,-0.10656738,-0.17895508,-0.2286377,0.3725586,0.20617676,-0.01612854,-0.5473633,0.21154785,0.31103516,0.1439209,0.31689453,0.05166626,-0.18847656,-0.125,-0.10882568,0.08306885,0.08251953,0.047851562,-0.070739746,-0.043701172,0.06500244,0.029724121,-0.19702148,-0.045898438,0.45288086,0.05026245,-0.12658691,-0.11975098,0.16455078,-0.07928467,0.30249023,-0.35083008,0.28833008,-0.12609863,-0.24902344,-0.11242676,-0.1361084,0.080322266,0.06964111,0.012481689,-0.23461914,0.37353516,0.07110596,-0.016815186,0.19165039,-0.17993164,0.1854248,0.1850586,-0.14697266,0.10345459,-0.06008911,0.3239746,0.02355957,-0.22229004,0.12475586,0.35620117,-0.16149902,-0.3857422,-0.17565918,0.038208008,-0.014442444,0.08276367,-0.30908203,0.15075684,0.09875488,-0.1083374,-0.30200195,0.14660645,0.22973633,-0.23168945,-0.05328369,-0.039520264,0.38061523,-0.04309082,-0.19812012,0.24035645,0.08569336,0.41064453,-0.2548828,-1.7001953,0.5058594,0.051361084,0.16210938,0.32739258,0.3310547,-0.21044922,0.12963867,0.044433594,0.17443848,0.062683105,-0.036621094,-0.21691895,0.02204895,-0.124938965,-0.057525635,0.29467773,-0.0023822784,-0.18066406,0.26831055,0.16784668,-0.18518066,0.2878418,-0.11682129,0.22155762,0.5024414,0.0026474,-0.10974121,0.35302734,-0.5131836,0.07763672,-0.47851562,-0.15246582,-0.11682129,0.059661865,-0.037322998,0.22253418,0.3618164,0.28320312,0.015579224,-0.24658203,6.5429688,-0.080200195,0.06640625,-0.05770874,-0.50878906,-0.22912598,-0.33618164,-0.2479248,-0.12243652,0.14697266,-0.37573242,0.109436035,-0.31298828,-0.2253418,-0.3269043,0.06542969,0.17480469,-0.02532959,0.03640747,-0.00024795532,0.17468262,-0.09790039,-0.27416992,0.32421875,-0.14489746,-0.13757324,-0.076660156,-0.38549805,-0.32421875,-0.0066452026,0.39819336,-0.21105957,-0.3322754,0.1619873,-0.059783936,-0.04623413,0.022415161,0.046417236,-0.28393555,0.43188477,-0.28100586,-0.546875,0.28173828,-0.30517578,0.19482422,-0.14404297,-0.074035645,0.29516602,-0.009407043,0.046142578,-0.0067863464,-0.26123047,0.123046875,-0.171875,-0.13647461,0.19128418,0.049041748,-0.111083984,-0.105529785,0.010971069,0.1463623,-0.0048065186,0.20654297,0.051849365,-0.037994385,0.22460938,-0.07702637,-0.2590332,0.07458496,0.01838684,0.019592285,0.090148926,0.22375488,-0.0055885315,-0.20324707,-0.37280273,-0.16577148,0.09942627,0.0949707,-0.27124023,-0.51953125,-0.22729492,0.12286377,-0.546875,0.12915039,-0.13415527,-0.06549072,-0.09429932,0.036956787,-0.12042236,0.012123108,0.08892822,-0.37646484,0.09661865,-0.016067505,0.04333496,-0.04385376,-0.010169983,0.19921875,-0.28833008,-0.036865234,0.042633057,0.15332031,-0.08502197,0.05041504,-0.10644531,0.09136963,-0.022201538,-0.06311035,0.4650879,0.21704102,0.46850586,0.26367188,-0.20532227,0.11767578,0.36743164,-0.20959473,-0.36523438,0.30615234,-0.3046875,-0.1027832,-0.11975098,0.103759766,-0.02519226,-0.07086182,0.07598877,0.08660889,0.044891357,-0.32226562,0.2208252,0.088134766,-0.15026855,0.14294434,-0.09039307,-0.625,-0.13891602,0.33813477,-0.42114258,-0.10827637,0.3696289,-0.11621094,-0.25439453,-0.05529785,0.3244629,-0.07849121,-0.004196167,0.18286133,-0.39526367,-0.68115234,0.16699219,-0.17712402,0.015625,-0.17028809,0.21936035,-0.16223145,-0.1583252,0.08892822,0.046203613,0.04284668,-0.20922852,-0.119262695,-0.21533203,-0.09375,0.09509277,0.2043457,-0.01889038,0.16479492,-0.24926758,-0.1899414,-0.5683594,0.038757324,0.40551758,0.047729492,-0.25634766,-0.08312988,-0.1262207,-0.30078125,-0.15026855,0.20324707,6.5390625,0.39819336,-0.10638428,-0.014160156,0.57177734,0.15002441,0.06915283,0.13122559,0.2536621,0.43920898,0.21777344,-0.08148193,0.0026359558,-0.29418945,-0.41381836,-0.002243042,0.1652832,-2.4960938,-0.2758789,0.14331055,0.32861328,0.021118164,0.1427002,0.0032653809,-0.17126465,0.43798828,-0.042816162,0.078552246,-0.23449707,0.013839722,-0.03579712,0.021469116,0.07232666,0.1772461,-0.09838867,-0.01108551,0.2401123,0.21777344,0.41088867,-0.008026123,-0.2553711,0.0446167,0.037261963,0.15722656,0.3227539,0.05508423,-0.057250977,0.28686523,0.26342773,-0.18457031,0.20361328,0.077941895,-0.1586914,0.081848145,0.49682617,0.12573242,0.14575195,0.009841919,0.04901123,0.085998535,-0.23999023,0.20959473,0.027053833,0.072021484,-0.23657227,0.044952393,-0.6230469,-0.06750488,-0.4423828,0.014404297,-0.21533203,-0.25146484,0.28808594,0.101989746,-0.17260742,0.051757812,0.21142578,-0.0914917,-0.4621582,-0.011039734,-0.20617676,-0.22741699,-0.15307617,0.09320068,-0.21118164,-0.27148438,-0.17675781,0.2944336,-0.06390381,-0.04522705,-0.007888794,-0.3557129,-0.115234375,-0.045440674,-0.15478516,0.04901123,-0.09039307,0.051635742,0.021942139,-0.28955078,0.056762695,0.63916016,0.2010498,0.05960083,0.2076416,0.10601807,-0.16796875,-0.03100586,0.19909668,0.23034668,0.43920898,-0.14099121,-0.14135742,0.10803223,-0.13146973,-0.10064697,0.16760254,0.22729492,-0.04244995,-0.0012645721,-0.079711914,-0.0692749,0.24487305,0.23535156,-0.15820312,-0.12841797,-0.52441406,0.21276855,-0.11553955,0.22924805,0.20935059,0.265625,0.042266846,0.21520996,0.021972656,-0.2376709,0.49902344,0.25854492,-0.056793213,-0.4091797,0.13366699,0.17980957,0.11260986,0.08239746,0.28173828,0.19360352,0.07537842,0.44799805,0.08605957,0.18811035,-0.19946289,0.012199402,0.22668457,-0.36791992,0.13195801,0.14367676,-0.08935547,0.2208252,-0.0053100586,-0.07476807,-0.15698242,-0.0803833,0.026992798,0.19909668,-0.07922363,0.6503906,-0.039520264,0.26293945,0.40698242,-0.6586914,0.10797119,0.051483154,-0.11456299,-0.5102539,0.1739502,-0.020584106,-0.18286133,-0.034973145,0.3215332,0.2322998,0.066711426,0.20385742,-0.15576172,0.30639648,0.2956543,-0.18762207,-0.022201538,-0.008590698,-0.02041626,0.1685791,0.038085938,-0.10290527,-0.16113281,0.11755371,0.4111328,0.03250122,-0.14819336,-0.15795898,-0.24414062,-0.021331787
Chameleon,0.12548828,0.35253906,0.03967285,0.1583252,0.27807617,-0.3737793,-0.07324219,-1.0244141,-0.14416504,0.55322266,0.18334961,0.081726074,-0.14221191,-0.1928711,0.016479492,0.10870361,0.34838867,-0.18518066,-0.0025558472,-0.25854492,0.3864746,-0.34692383,0.1315918,0.16210938,-0.029510498,-0.18603516,0.005622864,0.2734375,-0.09661865,-0.10491943,0.095336914,-0.1126709,0.03643799,-0.118652344,0.02909851,-0.14709473,-0.1340332,0.11785889,0.32226562,-0.14978027,0.019607544,0.017166138,0.26489258,0.28588867,0.107299805,0.34936523,0.05316162,-0.061340332,-0.020584106,0.08288574,-0.16430664,-0.13354492,-0.28393555,0.024520874,0.011741638,-0.30273438,-0.16723633,-0.044677734,-0.39648438,-0.10803223,0.21923828,-0.34301758,0.009056091,-0.2619629,0.21594238,-0.09259033,0.13757324,-0.008071899,0.20422363,0.06976318,-0.15820312,-0.017532349,0.1517334,0.09039307,0.08685303,-0.15905762,0.13964844,0.5463867,-0.28442383,-0.043182373,0.091552734,-0.39941406,-0.54833984,0.18286133,-0.1307373,0.12927246,0.05038452,-0.05203247,0.2454834,0.09094238,-0.07086182,-0.103637695,-1.8369141,0.33374023,-0.26171875,0.3334961,0.051818848,-0.015106201,-0.2290039,-0.060180664,-0.118774414,0.008056641,0.011405945,0.07354736,-0.26586914,-0.10180664,0.04901123,0.38452148,0.04446411,0.028289795,-0.13378906,0.4140625,-0.05596924,-0.06958008,-0.107910156,0.13708496,0.17028809,0.3232422,-0.1472168,0.29248047,0.23596191,-0.28125,-0.22839355,-0.14245605,0.02810669,0.041137695,-0.2824707,0.25317383,0.025619507,0.22033691,0.04852295,0.047088623,-0.28344727,7.3515625,0.30737305,0.10290527,0.005531311,-0.7241211,-0.28442383,-0.2770996,-0.21862793,0.10144043,-0.030792236,0.08453369,-0.4255371,-0.18395996,-0.07525635,0.15881348,-0.11401367,-0.35961914,-0.05831909,0.2265625,0.2607422,0.1932373,0.23352051,-0.3005371,0.028274536,-0.38085938,-0.47631836,0.047698975,-0.24829102,0.08917236,-0.25390625,0.26831055,0.0019216537,-0.082458496,0.08673096,-0.025054932,-0.015090942,0.026687622,0.0032653809,-0.12670898,-0.14770508,0.38330078,-0.44873047,0.3725586,-0.3828125,0.29052734,0.039367676,0.03668213,-0.12060547,0.041046143,-0.13464355,0.09918213,0.17150879,-0.047576904,0.038757324,-0.4650879,0.13977051,-0.34448242,-0.16589355,-0.40014648,0.123168945,-0.1574707,0.2010498,-0.16210938,0.016601562,0.035980225,0.036315918,-0.02684021,-0.08459473,-0.10058594,-0.035888672,0.22351074,-0.19348145,0.021820068,-0.022216797,-0.40112305,-0.051483154,0.06402588,0.010047913,0.1340332,0.036132812,-0.24084473,0.25268555,-0.08905029,-0.59472656,0.10333252,-0.083496094,-0.6352539,0.21032715,-0.012756348,-0.23449707,-0.1772461,0.19360352,-0.27416992,-0.15527344,0.0003054142,0.27270508,-0.007785797,-0.1303711,0.26220703,-0.13635254,-0.1628418,-0.0070877075,0.41479492,0.18225098,0.22265625,-0.48095703,-0.25585938,0.21240234,0.03111267,0.22717285,0.25732422,0.15881348,0.18054199,0.03466797,0.14648438,-0.064575195,-0.31225586,-0.2788086,0.08770752,0.109802246,0.1262207,0.018951416,0.068603516,-9.047985e-05,-0.1430664,0.03717041,-0.15710449,-0.17834473,-0.09527588,0.30639648,-0.015304565,0.03604126,0.08251953,0.054016113,-0.24108887,0.083862305,0.2529297,-0.17260742,-0.19836426,0.11047363,-0.18847656,0.30541992,-0.05053711,-0.12780762,0.16149902,-0.13513184,0.1348877,-0.062316895,-0.25390625,0.19726562,0.23547363,0.15771484,-0.15698242,0.19873047,-0.10864258,0.10083008,-0.20275879,0.025054932,-0.0040626526,0.09063721,-0.118774414,-0.26953125,-0.030792236,-0.40698242,-0.11071777,-0.14624023,0.035369873,-0.24890137,-0.2607422,-0.2770996,-0.09899902,0.19116211,0.16308594,0.096069336,-0.08343506,-0.030151367,-0.113342285,-0.14831543,0.25195312,7.3476562,0.2734375,-0.15441895,0.22180176,-0.05050659,0.12036133,0.07946777,0.21594238,0.14135742,0.6069336,-0.13720703,0.020889282,-0.0043640137,0.22741699,0.08074951,0.050750732,-0.11090088,-2.7539062,-0.08282471,-0.2783203,-0.018310547,-0.001168251,-0.0018997192,0.03982544,-0.032287598,-0.046142578,-0.076538086,-0.14465332,0.15808105,-0.059173584,0.17932129,-0.20031738,0.0035686493,0.20666504,0.026443481,0.072509766,0.30371094,0.28027344,0.21887207,-0.09527588,-0.03024292,0.20080566,-0.22546387,0.38891602,0.24121094,0.10015869,0.06262207,0.043701172,0.14501953,-0.16638184,0.39379883,0.19873047,-0.32373047,-0.060272217,0.031433105,0.14892578,0.043823242,0.11047363,-0.03289795,-0.025726318,0.04827881,0.26635742,-0.27124023,-0.1817627,-0.18359375,0.19421387,-0.48535156,-0.026031494,0.23413086,0.07922363,0.03173828,-0.3959961,-0.13452148,0.28076172,-0.051361084,0.1105957,0.12261963,-0.09832764,-0.1730957,0.090026855,-0.12072754,0.10131836,-0.39379883,0.052368164,-0.15393066,-0.25024414,-0.18530273,0.009025574,-0.0030994415,0.10296631,-0.029525757,-0.1685791,0.14416504,-0.20483398,-0.0154418945,0.0914917,-0.10241699,-0.12536621,4.9591064e-05,-0.25219727,0.1015625,0.16601562,-0.031097412,-0.039611816,-0.1887207,0.058410645,-0.14331055,0.21813965,-0.23449707,-0.09210205,0.25805664,-0.05633545,-0.22131348,-0.019317627,-0.30786133,-0.13842773,-0.012298584,0.15856934,-0.115356445,0.35180664,-0.07385254,0.0076522827,-0.031234741,0.32861328,-0.15283203,-0.28857422,-0.25854492,-0.06530762,0.10992432,-0.016998291,0.014228821,-0.08709717,0.041931152,-0.07128906,-0.119628906,-0.0152282715,0.26611328,-0.26245117,0.2861328,-0.14233398,0.113586426,0.21044922,0.020889282,0.07196045,0.019836426,0.3095703,0.06707764,-0.05581665,0.01007843,-0.059783936,-0.34838867,-0.024276733,0.26708984,-0.07904053,0.057373047,-0.0413208,0.012901306,-0.21508789,0.1361084,-0.07244873,0.27246094,-0.24511719,0.10870361,0.31713867,0.12176514,0.55810547,-0.016479492,0.17687988,0.2927246,-0.9716797,0.03137207,0.1607666,0.010467529,-0.027236938,0.020111084,0.012199402,0.025375366,0.017684937,0.19641113,-0.15551758,0.31103516,0.3269043,-0.23120117,-0.359375,0.61621094,-0.07550049,-0.08569336,-0.05456543,-0.15063477,0.20275879,0.09466553,0.010414124,-0.062561035,-0.0021076202,-0.33496094,0.03604126,-0.36328125,-0.40063477,0.04562378,0.0075950623
Caiman,-0.09350586,0.08770752,0.1340332,0.08239746,0.20751953,-0.4091797,-0.06939697,-1.4580078,-0.0491333,0.66015625,0.13085938,0.16516113,-0.039001465,-0.038024902,0.053527832,0.030883789,0.57177734,-0.2692871,-0.01424408,-0.5473633,0.46606445,-0.011398315,-0.0039138794,0.23059082,0.16564941,-0.19140625,-0.063964844,0.046203613,0.096069336,0.055603027,0.03704834,-0.29956055,0.17443848,-0.042053223,0.14904785,-0.03543091,0.14160156,0.034851074,0.121032715,-0.21203613,-0.08215332,-0.09729004,-0.085998535,0.17382812,0.14489746,0.4609375,0.025650024,-0.07897949,0.027328491,-0.3544922,-0.04534912,0.076293945,0.03857422,-0.1809082,0.004840851,0.028259277,-0.20776367,0.2043457,-0.31762695,0.013450623,0.12512207,0.06958008,0.23876953,-0.23962402,0.20214844,-0.03543091,0.09588623,-0.017074585,0.3317871,0.00655365,-0.1685791,-0.1932373,-0.012413025,-0.13098145,-0.085754395,-0.008430481,0.08886719,0.33764648,-0.23034668,-0.062316895,-0.013389587,-0.2019043,-0.3466797,0.25439453,-0.29223633,-0.044708252,0.04083252,-0.06854248,0.22070312,-0.009269714,0.19763184,-0.21936035,-2.03125,0.23120117,-0.015464783,0.32543945,0.1986084,0.25317383,-0.02671814,-0.2109375,0.14978027,-0.23828125,0.20275879,0.16052246,-0.058807373,-0.11480713,0.092163086,0.07702637,0.08477783,0.028457642,-0.025253296,0.6201172,-0.05303955,0.09741211,-0.058929443,-0.15161133,0.18920898,0.11730957,-0.20385742,-0.01612854,0.31445312,-0.039733887,-0.1743164,-0.27661133,-0.01727295,0.032928467,-0.15966797,0.072021484,-0.13562012,0.3100586,0.16333008,-0.140625,-0.34228516,7.8046875,0.099487305,0.41552734,-0.2109375,-0.30444336,-0.2956543,-0.045959473,0.18530273,0.14025879,0.0068473816,0.07141113,-0.3684082,-0.085632324,0.054534912,0.2524414,-0.18469238,-0.25341797,0.010154724,-0.013969421,0.0569458,0.105651855,0.09301758,-0.19714355,-0.17980957,-0.17102051,-0.46801758,-0.03744507,-0.04171753,-0.11755371,0.043151855,0.10412598,-0.103759766,-0.078125,0.15075684,0.02746582,0.21582031,0.1574707,0.064941406,0.08654785,-0.009109497,0.3449707,-0.49487305,0.18676758,-0.31689453,0.066467285,0.1472168,0.26538086,-0.06695557,-0.04144287,-0.090148926,-0.060546875,-0.07318115,0.11968994,0.12188721,-0.25732422,0.21520996,-0.25317383,0.24279785,-0.16845703,-0.3466797,-0.09387207,0.36865234,-0.13269043,0.18676758,-0.0046920776,0.10241699,0.06402588,0.023223877,0.16796875,0.2298584,0.08099365,0.060272217,0.18347168,-0.120788574,-0.34448242,0.19641113,-0.05596924,0.123535156,0.35766602,0.25268555,-0.23291016,-0.013473511,-0.12054443,-0.27172852,-0.10131836,0.04171753,-0.38208008,-0.13391113,-0.125,0.12200928,-0.025100708,-0.044067383,-0.25830078,0.093688965,-0.030181885,0.025878906,0.0011816025,-0.015380859,0.15112305,0.0736084,-0.15563965,0.109375,0.29907227,0.14794922,0.39746094,-0.14587402,-0.27246094,0.056243896,0.15258789,0.32495117,0.23242188,0.29833984,-0.0045547485,0.15600586,0.25708008,0.15649414,-0.40063477,-0.29785156,0.21044922,0.14208984,-0.053222656,-0.038970947,0.057128906,-0.07867432,-0.039916992,0.17614746,0.23388672,-0.2800293,-0.11663818,0.17089844,0.08081055,0.006008148,0.06390381,-0.16101074,-0.14916992,0.22644043,-0.012817383,-0.19140625,-0.55371094,-0.15100098,-0.1472168,-0.13781738,0.04937744,-0.14697266,0.12841797,-0.29638672,0.043426514,0.11706543,-0.2668457,0.3581543,-0.18078613,0.113586426,0.08343506,0.24780273,-0.20324707,-0.06903076,-0.07458496,-0.06524658,0.0335083,-0.17468262,-0.19848633,-0.068847656,-0.08239746,-0.35205078,-0.03744507,-0.13769531,-0.019439697,-0.29541016,-0.26708984,0.14660645,-0.050872803,0.16809082,0.0748291,-0.14892578,-0.14025879,-0.20349121,0.09692383,-0.062042236,0.26953125,7.796875,0.21228027,0.24963379,0.3178711,0.32836914,0.030548096,0.21105957,0.20275879,0.33862305,0.39257812,-0.037261963,-0.007282257,0.2541504,-0.08068848,-0.16442871,0.10321045,-0.030761719,-3.3242188,-0.00819397,-0.08526611,-0.06286621,0.053222656,0.011894226,-0.025024414,0.05569458,0.053741455,0.048675537,0.016326904,0.08093262,0.08703613,0.25512695,0.035461426,0.087646484,0.35791016,-0.11743164,-0.14550781,0.33129883,0.15039062,0.030151367,-0.018676758,0.033416748,0.08300781,-0.18591309,0.3635254,0.18469238,-0.012863159,-0.049621582,0.04458618,0.19226074,-0.15808105,0.3408203,0.27514648,-0.10888672,-0.20581055,-0.11999512,0.22583008,-0.06359863,0.2529297,0.15710449,-0.13342285,-0.1262207,0.171875,-0.3449707,0.18457031,-0.12524414,-0.13354492,-0.4333496,-0.044281006,-0.06964111,0.23144531,-0.24853516,-0.09375,-0.018814087,-0.1583252,0.053131104,-0.084228516,0.19506836,0.015808105,0.0060653687,0.14526367,-0.0418396,-0.05291748,-0.23168945,0.07946777,0.064575195,-0.28222656,-0.15197754,0.4111328,0.15539551,-0.039123535,-0.083618164,-0.20581055,0.048553467,-0.06262207,0.39013672,0.013252258,-0.14440918,0.056274414,0.115478516,-0.07019043,-0.009010315,0.13903809,-0.13952637,-0.07397461,-0.25708008,-0.20288086,-0.09082031,0.0009784698,-0.07952881,-0.22790527,0.25390625,0.22167969,-0.13183594,0.2331543,-0.081726074,-0.22180176,0.004058838,0.08465576,-0.16711426,-0.019485474,-0.12249756,-0.05581665,-0.105773926,0.32543945,-0.14916992,-0.35620117,-0.19824219,0.10748291,0.4494629,0.11175537,-0.037261963,-0.08166504,-0.05142212,-0.08105469,-0.3166504,-0.06591797,0.35180664,-0.12731934,0.02809143,-0.11065674,-0.14477539,0.15405273,0.038391113,0.046905518,0.20739746,0.16540527,0.01020813,0.06555176,0.07537842,-0.017089844,-0.33569336,-0.023376465,0.15856934,-0.113220215,0.041137695,0.13830566,-0.32788086,0.020126343,-0.052001953,0.07342529,0.328125,-0.16418457,-0.12792969,0.15478516,0.093933105,0.75683594,-0.014854431,0.24316406,0.19519043,-1.0722656,-0.12841797,-0.045898438,0.04321289,-0.08959961,0.06585693,0.22644043,-0.028518677,0.041381836,0.3515625,0.035583496,0.19689941,0.045837402,-0.19494629,-0.22155762,0.49194336,-0.17980957,-0.068115234,0.14343262,-0.15124512,0.17407227,0.21179199,-0.05041504,-0.025497437,0.00466156,0.064697266,0.0031414032,-0.21362305,-0.16625977,0.1895752,-0.04159546
Salamander,-0.091430664,0.058624268,0.044769287,-0.031143188,-0.22265625,-0.37182617,-0.4663086,-1.4003906,-0.11450195,0.5878906,0.03994751,0.23291016,0.2401123,-0.21826172,-0.040496826,0.15112305,0.5180664,-0.14038086,0.15112305,-0.51171875,0.3605957,-0.04800415,0.29003906,0.35595703,0.039855957,-0.08770752,-0.27978516,-0.08557129,0.17126465,0.30249023,-0.07006836,-0.38842773,0.12634277,-0.20581055,0.09863281,0.18762207,0.11279297,-0.075805664,-0.10559082,-0.013435364,-0.27661133,-0.2763672,0.14819336,0.22436523,0.14587402,0.42358398,0.20788574,0.0848999,-0.0619812,-0.17260742,0.19311523,0.026275635,0.025680542,-0.06188965,-0.25732422,0.34204102,-0.058654785,0.40454102,-0.032836914,-0.017028809,0.26220703,-0.113464355,0.23278809,-0.23498535,0.2697754,-0.21948242,0.06719971,-0.009101868,0.19470215,0.17150879,-0.037200928,-0.38354492,0.062469482,-0.3215332,0.06573486,-0.2479248,0.28588867,0.33691406,-0.13574219,-0.117004395,0.20837402,-0.26098633,0.008705139,0.2980957,-0.28198242,0.10131836,-0.048309326,-0.117004395,0.22229004,0.041229248,0.2998047,-0.27197266,-1.9541016,0.140625,0.097473145,0.20349121,0.13769531,0.27978516,-0.05871582,-0.07342529,-0.13830566,-0.14587402,0.11785889,0.044891357,-0.18029785,-0.2944336,0.06384277,0.093688965,0.052764893,-0.18664551,0.03390503,0.36889648,-0.062561035,0.060333252,0.11138916,-0.05255127,0.25073242,-0.013366699,-0.18286133,0.002248764,0.22180176,-0.05355835,-0.25610352,-0.2915039,-0.12182617,0.016845703,-0.3552246,0.18469238,-0.12780762,0.097229004,0.21313477,-0.0058784485,-0.42407227,7.25,0.08947754,0.06378174,-0.17248535,-0.45336914,-0.0597229,-0.07885742,-0.042938232,0.026672363,0.1541748,-0.056915283,-0.4885254,-0.13244629,0.121520996,0.3696289,-0.22583008,0.1850586,-0.29345703,0.07885742,0.05053711,-0.07910156,0.21972656,-0.27124023,-0.066101074,-0.08496094,-0.171875,-0.10992432,-0.26831055,-0.1048584,-0.17749023,0.017211914,-0.22265625,0.11834717,0.17590332,-0.20605469,0.37646484,0.22021484,0.10449219,-0.10253906,0.24804688,0.25585938,-0.3479004,0.20288086,-0.29638672,0.17993164,0.30322266,0.25097656,-0.013809204,-0.032440186,-0.09313965,-0.033935547,-0.10095215,0.13952637,0.10290527,-0.3720703,0.12817383,0.094055176,0.3684082,-0.47192383,0.06512451,-0.07867432,0.2211914,-0.045562744,0.1274414,-0.034606934,0.07678223,0.18261719,0.27685547,0.043029785,0.2368164,0.04776001,-0.08428955,0.12438965,-0.15795898,-0.029266357,0.30493164,0.08465576,0.32641602,0.20361328,0.2614746,-0.2993164,0.115478516,0.16003418,-0.3173828,0.25756836,0.12805176,-0.2578125,-0.17712402,-0.022750854,0.10864258,-0.043273926,-0.081848145,-0.2602539,-0.11627197,0.30297852,0.026977539,0.1385498,-0.07324219,0.40698242,-0.13562012,-0.013961792,-0.012916565,0.22668457,0.07098389,0.13464355,-0.19665527,-0.09460449,-0.01751709,0.21887207,0.1854248,0.20935059,0.23352051,-0.13110352,0.006839752,0.15222168,0.24902344,-0.15209961,-0.059753418,0.37817383,-0.0138168335,0.007598877,0.039215088,0.014968872,-0.17553711,-0.114990234,0.1784668,0.12475586,-0.52734375,-0.037963867,0.124694824,0.030288696,0.011955261,0.035217285,0.053955078,-0.08850098,0.103271484,0.00749588,-0.37597656,-0.3251953,-0.1607666,0.06085205,0.07110596,0.054107666,-0.121154785,0.12792969,-0.31469727,-0.12939453,-0.20043945,-0.6088867,0.22766113,0.106933594,0.045410156,0.09851074,0.16638184,-0.34960938,-0.010238647,-0.15710449,0.002243042,-0.047912598,-0.1817627,-0.27270508,-0.15441895,-0.11114502,-0.328125,0.00907135,-0.07836914,0.06756592,-0.05114746,-0.21362305,-0.31811523,-0.09039307,0.23718262,0.20349121,-0.0054893494,0.059417725,-0.3630371,0.06945801,-0.10144043,0.09661865,7.2421875,0.10784912,0.046936035,0.24902344,-0.07647705,0.109375,0.052490234,0.27734375,0.4399414,0.33081055,-0.05657959,0.1850586,0.07574463,-0.14611816,-0.07159424,-0.031280518,-0.082092285,-3.0742188,-0.15319824,0.12231445,-0.19567871,-0.053863525,-0.07800293,0.17382812,-0.23522949,-0.07128906,0.17199707,-0.0925293,-0.027923584,0.13879395,0.12792969,0.11456299,0.34570312,0.14428711,-0.019805908,0.026855469,-0.050445557,0.20617676,0.14050293,0.06439209,0.05014038,-0.17590332,-0.4807129,0.31640625,-0.01852417,0.08538818,-0.1295166,0.079589844,0.17053223,-0.017578125,0.41845703,0.24743652,-0.22436523,-0.17895508,-0.0067749023,0.016448975,0.1607666,-0.20373535,0.045654297,-0.014762878,-0.34985352,0.25341797,-0.3659668,0.120666504,-0.1529541,-0.119140625,-0.33496094,-0.08270264,-0.10223389,0.16638184,-0.28149414,-0.33569336,-0.114868164,-0.11212158,-0.17285156,0.0050468445,0.20654297,0.060821533,-0.17602539,0.31396484,-0.31054688,-0.15966797,-0.10308838,0.09552002,0.14172363,-0.38134766,-0.20458984,0.36108398,0.16723633,-0.016189575,-0.06341553,-0.20300293,0.14172363,0.09124756,0.16125488,-0.19238281,-0.21191406,-0.06750488,0.15759277,-0.15795898,0.010299683,-0.1673584,0.20715332,-0.24523926,-0.041656494,0.20593262,-0.2208252,0.022949219,-0.24035645,-0.01789856,-0.04925537,0.1850586,-0.125,0.079589844,-0.37768555,-0.07330322,0.103881836,0.043121338,-0.09576416,-0.08428955,-0.10192871,-0.061645508,0.12463379,0.58691406,-0.087402344,-0.24780273,-0.2619629,-0.06744385,0.2849121,0.09429932,0.1027832,0.011558533,-0.057922363,0.08459473,-0.32714844,-0.097961426,0.35864258,-0.15686035,-0.13098145,-0.07647705,-0.13781738,0.039398193,0.12463379,0.2055664,0.37402344,0.14575195,0.024520874,-0.02229309,0.06365967,-0.19897461,-0.33496094,0.011856079,0.25268555,-0.26953125,0.039123535,-0.08520508,-0.32470703,0.13134766,0.119140625,-0.10437012,0.015899658,-0.11669922,0.018112183,0.3701172,0.1694336,0.36767578,0.04220581,0.030807495,0.27441406,-1.0097656,0.29003906,0.22949219,0.06323242,0.020492554,-0.2088623,0.19543457,0.17272949,-0.10876465,0.23461914,-0.16723633,0.26733398,0.12597656,-0.13696289,-0.05404663,0.6035156,-0.25170898,0.028839111,-0.014770508,-0.17907715,-0.04611206,0.27001953,-0.031402588,0.06390381,0.035064697,-0.04031372,0.27368164,-0.22570801,-0.19580078,-0.11981201,-0.081970215
Dinosaur,0.19445801,0.2319336,-0.11236572,-0.3408203,-0.08880615,-0.108947754,-0.051971436,-0.70214844,-0.25268555,0.2956543,-0.101745605,-0.25073242,0.24475098,-0.46679688,-0.13305664,0.12402344,0.33984375,0.06640625,-0.067871094,-0.31298828,0.42456055,0.35131836,0.15698242,0.56103516,0.09967041,0.060913086,-0.030380249,-0.32470703,0.22241211,-0.10662842,-0.09082031,-0.23022461,-0.113708496,0.033355713,-0.029647827,-0.45629883,-0.047546387,0.1303711,-0.018615723,-0.15881348,-0.23510742,0.39892578,-0.14440918,0.5097656,0.050323486,0.37768555,0.028961182,-0.21228027,-0.111450195,-0.052246094,0.15014648,0.040283203,0.11364746,-0.091674805,0.04058838,0.21276855,-0.059906006,0.04336548,0.1796875,-0.11413574,0.13195801,-0.515625,0.027694702,-0.095336914,0.41870117,0.11376953,-0.29223633,0.2680664,0.2944336,0.17211914,-0.38427734,-0.3100586,0.032073975,-0.08618164,0.08123779,-0.30126953,-0.12963867,0.37768555,-0.14196777,-0.50878906,0.24694824,0.15124512,-0.15454102,0.30517578,-0.18078613,0.006664276,0.09820557,-0.23352051,0.42944336,0.01751709,0.1418457,-0.109313965,-1.5712891,0.47265625,-0.06982422,-0.080078125,0.31518555,0.44433594,-0.22717285,0.04699707,-0.083740234,-0.047943115,0.21020508,-0.23498535,-0.34423828,-0.04208374,-0.121276855,0.05834961,0.32202148,0.42700195,-0.07684326,0.23779297,0.016983032,-0.48339844,0.16809082,0.2220459,-0.14428711,0.34375,-0.014945984,0.18701172,0.35131836,-0.5488281,0.024459839,-0.32543945,-0.13098145,0.020446777,0.0947876,-0.083618164,-0.046844482,0.3046875,-0.031677246,-0.123413086,-0.18603516,6.7421875,-0.005596161,0.0690918,0.05053711,-0.6640625,-0.31958008,-0.2487793,-0.19714355,0.1998291,-0.11206055,-0.0024471283,-0.30859375,-0.24768066,-0.16125488,0.047210693,-0.17053223,0.10406494,-0.43017578,0.19177246,0.07952881,0.2175293,-0.009483337,-0.3010254,0.2253418,-0.30664062,-0.26660156,-0.33032227,-0.22827148,-0.061584473,-0.076660156,0.112854004,0.16967773,-0.13781738,0.36914062,-0.3046875,0.29614258,0.15063477,-0.044433594,-0.28833008,0.14038086,-0.07550049,-0.37524414,0.23950195,-0.4152832,0.07611084,-0.035064697,0.21154785,0.2890625,-0.06756592,-0.09106445,0.13244629,0.089782715,0.10015869,0.17260742,-0.2956543,-0.18554688,-0.03869629,0.19116211,-0.35742188,0.29125977,-0.06201172,-0.119506836,0.1607666,-0.11816406,0.08251953,0.20910645,0.009284973,-0.046905518,0.07006836,0.14733887,0.049438477,0.26000977,0.20532227,-0.27001953,-0.05682373,-0.22009277,-0.04837036,0.09429932,0.2590332,0.18139648,-0.28686523,0.2277832,0.3256836,-0.37182617,0.0034618378,-0.013954163,-0.18066406,0.017303467,0.13647461,-0.63378906,-0.038970947,-0.12054443,-0.36743164,-0.34814453,-0.11956787,-0.010719299,-0.22595215,0.13659668,0.17236328,-0.14465332,-0.11419678,-0.029083252,0.38183594,0.21228027,0.14526367,-0.20300293,-0.05630493,0.21618652,-0.083618164,0.29833984,0.014083862,0.32714844,0.10839844,-0.2668457,-0.28735352,0.23925781,0.04333496,-0.43652344,0.31958008,-0.16247559,0.23596191,-0.08319092,0.11053467,0.005908966,0.20275879,-0.08294678,0.10864258,-0.41674805,-0.28808594,0.24865723,-0.09277344,0.10662842,0.030334473,0.15270996,-0.29492188,-0.2310791,0.20959473,-0.38745117,-0.21618652,0.029342651,0.099609375,-0.24450684,0.2685547,0.16223145,0.0052223206,-0.117370605,0.14074707,-0.36132812,-0.30126953,0.3984375,0.16577148,-0.16101074,-0.15063477,0.17248535,-0.008018494,-0.06530762,-0.13903809,-0.035949707,0.047698975,-0.37573242,0.10168457,-0.10723877,0.12597656,-0.011703491,0.20422363,-0.17224121,0.027618408,-0.028808594,-0.32226562,-0.17468262,-0.27954102,0.34301758,-0.14611816,-0.30004883,-0.0690918,-0.2487793,-0.07305908,-0.22033691,-0.0007009506,6.7421875,0.22595215,-0.029022217,0.21289062,0.29101562,0.19213867,0.04534912,0.24169922,0.27490234,0.31054688,0.43237305,-0.012664795,-0.029037476,-0.018692017,-0.011894226,-0.15637207,-0.022994995,-2.2382812,0.04748535,0.03945923,0.28808594,0.2163086,-0.14575195,0.12634277,-0.42016602,0.041870117,-0.17822266,-0.040649414,0.11645508,0.04827881,-0.13671875,0.1817627,0.020828247,0.008995056,-0.04046631,0.14550781,0.03845215,0.31176758,0.2487793,-0.033294678,-0.2697754,-0.016174316,0.19104004,0.32299805,0.41674805,0.2121582,-0.14318848,0.0982666,0.41503906,-0.43139648,0.16687012,0.16088867,-0.14978027,0.074523926,-0.10461426,0.09033203,0.15100098,0.039764404,0.07922363,0.19836426,-0.08428955,0.14050293,-0.21057129,-0.14147949,-0.17797852,-0.00793457,-0.60498047,-0.2705078,-0.23620605,-0.15258789,0.0018930435,-0.14794922,-0.17480469,0.087890625,-0.23779297,0.44921875,0.3125,-0.2524414,-0.48120117,0.2076416,-0.14172363,0.09680176,-0.15234375,-0.2421875,-0.19299316,-0.25146484,-0.22375488,0.033599854,0.06567383,0.21850586,-0.054992676,-0.14904785,-0.14453125,-0.1439209,-0.0390625,0.0927124,-0.15698242,0.10443115,-0.059936523,-0.39160156,0.0491333,0.31835938,-0.23242188,0.04547119,0.009849548,-0.052337646,-0.2163086,-0.0056495667,-0.24987793,0.049621582,0.3618164,-0.10797119,-0.012634277,0.076416016,-0.12817383,-0.09033203,0.027557373,0.2084961,0.034484863,0.18115234,-0.124816895,-0.39013672,0.3466797,0.047943115,-0.34643555,-0.29760742,-0.30932617,0.28198242,-0.07305908,0.15649414,0.46166992,0.2088623,-0.19555664,0.42407227,0.04196167,-0.107055664,0.09185791,-0.1459961,-0.099487305,-0.09301758,0.12432861,0.10571289,-0.06866455,-0.006881714,0.37158203,0.38354492,0.33007812,0.50146484,0.2442627,0.10461426,-0.18908691,-0.014640808,0.19506836,-0.13745117,-0.08441162,0.15661621,-0.15466309,0.04763794,0.31811523,-0.034423828,-0.04324341,-0.17211914,-0.022766113,0.12072754,-0.13232422,0.4963379,-0.25732422,0.6826172,0.29614258,-0.96972656,0.22229004,0.31835938,0.025848389,-0.3474121,-0.22045898,-0.035247803,-0.02784729,-0.1484375,0.33911133,-0.12414551,0.019622803,0.48779297,0.03338623,0.36743164,-0.010284424,-0.27368164,-0.049438477,-0.18457031,0.2919922,0.47314453,0.18054199,-0.18273926,0.02670288,-0.026824951,0.097473145,0.1661377,-0.1887207,-0.26342773,-0.22387695,-0.17565918
Hammer,-0.18066406,-0.0124435425,0.12445068,-0.078308105,0.15319824,-0.3383789,-0.12286377,-1.3759766,-0.2397461,0.3371582,0.12915039,-0.1583252,0.23730469,-0.06500244,-0.21447754,0.07550049,0.58935547,-0.0058517456,-0.07611084,-0.62890625,0.3630371,-0.34228516,0.048583984,0.44335938,-0.08093262,-0.17370605,-0.042938232,-0.05407715,-0.3154297,0.29296875,0.08850098,-0.09387207,0.2130127,0.030593872,0.13696289,0.17773438,0.050933838,-0.019607544,-0.11956787,-0.11743164,-0.2836914,-0.24487305,-0.04525757,0.101257324,0.07537842,0.33764648,0.39135742,0.046783447,-0.13879395,0.0028362274,0.011703491,0.024353027,-0.25,-0.46118164,-0.20959473,0.32373047,-0.16638184,0.21154785,-0.22717285,-0.22753906,0.20617676,-0.23291016,0.15905762,-0.20629883,0.058898926,-0.080444336,0.052947998,-0.15246582,-0.06561279,-0.2524414,-0.03765869,-0.057434082,0.011131287,0.09765625,0.23510742,0.032592773,0.2919922,0.4428711,0.3076172,-0.20471191,-0.023651123,-0.51953125,0.04852295,0.16308594,-0.08691406,0.085754395,-0.15966797,0.22375488,0.09851074,0.20703125,0.110839844,0.0036315918,-1.9375,0.22912598,0.0018825531,0.36279297,0.20703125,0.5410156,-0.18371582,-0.04046631,-0.21362305,-0.015838623,0.060546875,0.25732422,-0.09197998,0.004096985,-0.030593872,0.15026855,0.13244629,-0.19628906,-0.059387207,0.30151367,-0.1619873,0.17285156,0.012252808,-0.099365234,0.046661377,-0.16052246,-0.3088379,0.097595215,0.11242676,-0.13476562,-0.47851562,-0.032440186,-0.12524414,0.12408447,-0.31860352,0.2524414,0.0071144104,0.109802246,0.2277832,-0.11395264,-0.22814941,7.2382812,0.23815918,-0.066711426,-0.091308594,-0.40478516,-0.10015869,0.049041748,-0.0770874,0.041503906,-0.021759033,0.006866455,-0.38476562,0.095336914,0.3083496,0.17260742,-0.21923828,-0.19519043,0.02029419,-0.021408081,0.042297363,-0.066101074,0.35888672,-0.20629883,-0.21923828,-0.15625,-0.2680664,0.05834961,-0.28979492,-0.16772461,-0.30297852,0.26416016,-0.20825195,0.03491211,0.07318115,0.053863525,0.17602539,0.21374512,-0.12426758,0.2536621,0.06542969,0.32373047,-0.24975586,-0.0149002075,-0.2590332,0.12927246,0.23449707,0.07696533,-0.011680603,0.14489746,0.057891846,0.07421875,0.10479736,0.19006348,0.114868164,-0.4230957,0.24694824,0.008575439,0.00061941147,-0.62109375,0.08685303,-0.23181152,-0.034118652,-0.09124756,0.21655273,-0.07507324,0.22216797,0.12023926,0.15270996,0.01197052,0.07196045,-0.10797119,-0.07897949,0.035125732,-0.060150146,-0.20996094,-0.107177734,0.13378906,0.29125977,0.08532715,0.06201172,-0.19567871,-0.28222656,-0.004764557,-0.31396484,-0.006931305,-0.13049316,-0.14013672,-0.11236572,-0.088012695,-0.21984863,-0.15356445,-0.036712646,-0.12365723,-0.047332764,0.18811035,0.18188477,0.25952148,-0.03857422,0.40820312,-0.0038166046,-0.04095459,0.20117188,0.23022461,-0.031555176,0.51416016,-0.29223633,-0.08758545,-0.0073127747,0.39941406,0.48364258,0.23364258,0.27368164,0.052734375,-0.034118652,0.14001465,0.1418457,-0.058410645,-0.08874512,0.3486328,0.2368164,0.20629883,-0.15014648,0.21411133,-0.022445679,-0.16345215,0.026870728,0.2607422,-0.24560547,-0.10412598,0.23962402,-0.014030457,-0.031799316,0.12536621,-0.07183838,-0.1282959,0.33520508,0.12322998,-0.46240234,-0.42382812,0.09875488,-0.066101074,0.36987305,0.026611328,-0.2006836,0.056121826,-0.18725586,-0.10510254,0.07116699,-0.13977051,0.023849487,0.026779175,0.20214844,-0.0051841736,0.3930664,-0.16235352,-0.060455322,-0.30541992,0.00995636,-0.026824951,0.014373779,0.0016021729,-0.08959961,-0.062927246,-0.3161621,-0.28735352,-0.097717285,0.0501709,0.055786133,-0.2980957,-0.13330078,-0.2758789,0.061401367,-0.04623413,0.09649658,-0.10461426,-0.1361084,0.1381836,-0.1772461,0.2088623,7.2304688,-0.018539429,-0.17834473,0.34423828,0.068603516,-0.029159546,0.06335449,0.16369629,0.3972168,0.30786133,-0.24926758,0.31176758,0.101623535,-0.09063721,0.0077667236,0.07946777,-0.15942383,-3.0117188,-0.16845703,-0.023071289,-0.22399902,-0.06738281,-0.00793457,-0.095458984,-0.123046875,-0.25097656,0.09063721,-0.4020996,0.2076416,-0.046783447,0.31689453,-0.14379883,0.3330078,0.17858887,0.119384766,-0.19262695,0.17248535,0.05102539,0.26464844,0.11218262,-0.028640747,0.13903809,-0.39941406,0.25341797,-0.13220215,0.0690918,0.15600586,-0.03338623,-0.14575195,-0.019073486,0.49829102,0.11138916,-0.045013428,-0.20703125,-0.042633057,0.14770508,0.14416504,-0.013809204,0.008132935,0.10424805,0.015487671,0.3022461,-0.45629883,0.20422363,-0.16491699,0.22912598,-0.16748047,-0.28857422,-0.12445068,0.08068848,-0.07928467,-0.23120117,-0.12683105,0.004802704,0.10882568,0.16430664,0.060424805,-0.08154297,-0.08337402,0.095458984,-0.30981445,-0.07165527,-0.3203125,0.41015625,0.05630493,-0.37548828,-0.08544922,0.30322266,0.21862793,0.011672974,0.0051078796,-0.0791626,0.048736572,-0.15100098,0.17700195,-0.03463745,0.08746338,0.0032176971,0.059631348,-0.2290039,0.11053467,0.12976074,0.0021018982,-0.06732178,-0.07940674,0.34936523,-0.15991211,0.10626221,-0.28271484,-0.19873047,-0.026000977,0.15795898,-0.20324707,0.22143555,-0.018051147,-0.14550781,0.07122803,0.021774292,-0.15637207,-0.1159668,-0.15283203,0.17565918,0.025344849,0.48779297,-0.19274902,-0.17700195,-0.12145996,0.11303711,0.27490234,0.16711426,0.07824707,0.18310547,-0.27539062,0.1550293,-0.09576416,-0.011886597,0.36254883,-0.44604492,-0.1161499,0.04537964,-0.06604004,-0.027511597,-0.14526367,0.17651367,0.11254883,0.23669434,-0.023727417,-0.057159424,0.09118652,-0.16918945,-0.17138672,-0.24401855,0.29492188,-0.3034668,0.093933105,-0.07702637,0.037506104,0.041870117,0.14038086,-0.08312988,0.074401855,-0.082092285,0.0579834,0.4152832,-0.113586426,0.5097656,0.08892822,0.1274414,0.11859131,-0.7451172,0.09588623,-0.015159607,0.1026001,-0.0026988983,-0.055480957,0.31347656,0.23046875,-0.019454956,0.17578125,0.06738281,0.32983398,0.31811523,-0.1463623,-0.28515625,0.6933594,-0.31835938,-0.4128418,0.013412476,-0.21508789,-0.048950195,0.18640137,-0.058380127,-0.08062744,0.16870117,-0.019760132,0.12854004,-0.33154297,-0.23950195,0.09411621,-0.06188965
